1575 100
codeine 0.3822037 -0.24074973 -0.1364706 -0.39292777 0.28088734 0.51157427 0.11208586 0.20381045 0.1262608 -0.2746448 0.026057368 0.3176821 -0.55908614 0.0028128703 0.019880157 -0.09780532 -0.2134061 0.3501933 -0.06813916 -0.48637393 -0.099506095 0.059226155 -0.35770315 0.9294201 -0.19390686 -0.41900253 0.3990839 0.33859694 -0.05429614 0.46443155 0.40241504 -0.059990194 0.282334 0.39930493 -0.09872983 -0.034106053 -0.025169132 -0.14939682 0.28213838 -0.09453995 -0.093645446 -0.22420363 0.09901131 0.20138516 -0.08001358 0.03133037 0.48388195 -1.2512207 0.020040542 -0.093684725 -0.34997627 0.09052595 0.33360177 -0.023979736 -0.24597895 0.44386405 0.026000252 -0.046049863 0.17221959 0.23255013 -0.5889399 0.09006529 -0.2107238 0.47908932 -0.43402353 0.11847143 0.050750256 0.5648419 -0.26872087 0.13634136 0.3766054 -0.33234224 0.26986775 0.17864756 0.29442582 -0.0012539381 0.1260584 -0.029047797 0.04409715 -0.09121522 -0.13864383 0.16427632 0.18144356 -0.28903648 -0.17985825 0.33427635 -0.0054066936 0.58492553 -0.3356264 0.08934597 0.33976504 -0.28079033 -0.21785918 -0.108612575 -0.32679388 -0.19414362 -0.49128705 0.28067136 0.1089502 -0.024531744
the 0.46131387 -0.3674126 -0.14683846 -0.4170436 0.31736305 0.4693812 0.14085561 0.09313759 -0.05092154 -0.3559881 -0.10001306 0.23288356 -0.70523846 0.0037043563 0.096774854 -0.014086765 -0.33146602 0.4298877 0.02297188 -0.30104455 -0.09521092 -0.071906365 -0.41027763 0.9538896 -0.18335177 -0.40855816 0.3337714 0.42605415 -0.026158359 0.44629583 0.46123874 -0.008840655 0.42730325 0.30691394 -0.17021595 0.1311584 0.05016495 -0.093642876 0.15276732 -0.073834404 -0.03595831 -0.07834634 0.15309872 0.23127818 -0.17593135 0.12981133 0.5927825 -1.3331504 -0.123690285 -0.21904735 -0.2929749 -0.059195936 0.34412065 -0.058619566 -0.14686225 0.34612367 0.17336081 -0.09026911 0.07271554 0.1175307 -0.4334505 0.12574553 -0.31214032 0.50170696 -0.3297358 0.19795501 0.010980618 0.40940028 -0.2067635 0.04448965 0.21677983 -0.30364278 0.13780944 0.06810176 0.29718864 0.044675596 0.012210979 0.012937216 0.14134733 -0.12153443 -0.036610715 0.15721789 0.15206139 -0.3266825 -0.3672404 0.43668333 -0.11402661 0.9576239 -0.5435888 0.12292761 0.49123728 -0.23097241 -0.323096 -0.0151561415 -0.42121553 -0.24897344 -0.59387463 0.5418547 0.08447361 -0.044733018
and 0.40209645 -0.1892441 -0.06746664 -0.3925272 0.2255444 0.62257457 0.10163756 0.308967 0.19005218 -0.26105002 0.05178885 0.38788944 -0.5757293 0.02951527 0.04958595 -0.11334659 -0.14482783 0.31386557 -0.05371643 -0.56158733 -0.033931423 0.17829473 -0.40607035 0.8891689 -0.29510754 -0.44034582 0.4982007 0.36103415 -0.00154909 0.44135755 0.36798608 -0.046829067 0.2210763 0.37387073 -0.054945614 -0.088600196 -0.007180739 -0.10382364 0.46392095 -0.13166635 -0.1455257 -0.22316155 0.09925504 0.14569864 -0.11620766 0.09312555 0.33816135 -1.3094407 0.004923333 -0.017243275 -0.33356223 0.13648438 0.31637314 0.060402364 -0.28060424 0.50042933 0.0031938425 0.0059204823 0.19935586 0.21995726 -0.61416686 0.103961654 -0.2042735 0.5072815 -0.51516896 -0.034893975 0.11720732 0.60665464 -0.17624278 0.265847 0.46687043 -0.47012466 0.24951078 0.14143237 0.3416501 0.066954985 0.22148448 -0.16502582 0.014585408 -0.024713157 -0.2559289 0.14634153 0.21300444 -0.36002877 -0.22570346 0.31246522 0.0071971263 0.74466676 -0.40852243 0.15018198 0.53160316 -0.38885328 -0.30787137 -0.1389292 -0.5264796 -0.22828455 -0.43925273 0.21723649 0.11032555 0.08438574
to 0.4647888 -0.37016705 -0.26567772 -0.44628456 0.349166 0.48471212 0.17802861 0.069857374 0.017188814 -0.35277912 -0.09243243 0.25040767 -0.69219464 0.04814001 0.043767426 -0.09506632 -0.35723212 0.49190307 -0.04184866 -0.39106557 -0.1530762 -0.08812366 -0.39105722 1.0581219 -0.15256746 -0.41406432 0.38119116 0.42710388 -0.10451632 0.49244407 0.5060961 -0.04391858 0.43299156 0.39703265 -0.19074816 0.079541534 -0.006705604 -0.14027257 0.106960796 -0.06616589 -0.065285385 -0.17155826 0.13714679 0.2898592 -0.1265647 0.07387833 0.69134116 -1.3755255 -0.033288643 -0.24136378 -0.3693997 -0.021949766 0.3959602 -0.13450012 -0.167514 0.38993382 0.12372864 -0.14265548 0.106005 0.20308074 -0.5564623 0.10874416 -0.27055493 0.5606332 -0.371804 0.28358656 0.0010809791 0.50224525 -0.3035968 -0.029235857 0.26703948 -0.24660331 0.20899296 0.1662744 0.327302 -0.004398668 0.04163334 0.018721862 0.13859744 -0.17720297 -0.022524495 0.1892738 0.18147822 -0.34384578 -0.2814148 0.48460108 -0.06847654 0.8220866 -0.46279174 0.0959926 0.3817138 -0.18267274 -0.27779046 -0.04967515 -0.29087442 -0.25679728 -0.5874235 0.5042031 0.14286476 -0.14302918
my 0.41766432 -0.038699567 0.21588242 -0.21191178 0.21939005 0.747559 0.17959577 0.4708072 0.50234646 -0.2919962 0.19305362 0.6332373 -0.5228525 0.14626835 -0.079467505 -0.3059903 0.048909932 0.3327998 -0.2404057 -0.84887165 0.012026076 0.39699426 -0.30741018 1.0339463 -0.33437365 -0.56285226 0.72547287 0.2705693 -0.03620219 0.47710708 0.37048775 -0.1055954 -0.181829 0.49158666 0.121173985 -0.28981164 0.018738301 -0.0775447 0.8663205 -0.10892844 -0.40778458 -0.37070006 0.21323957 0.072794154 0.03828792 -0.027761616 0.17266805 -1.4174031 0.19833638 0.10981603 -0.501634 0.2389619 0.44255462 0.042311665 -0.5020452 0.6250394 -0.13429728 0.19922985 0.46102452 0.30934793 -0.879922 0.17982651 0.0047045685 0.55680895 -0.7013892 -0.27251858 0.20807669 0.978471 -0.22307444 0.56723267 0.7782027 -0.6813056 0.4918093 0.30941528 0.47105327 0.17476596 0.53094894 -0.38532546 -0.15784217 0.09493977 -0.53063154 0.19942763 0.3495844 -0.48835433 -0.18637952 0.25246334 0.20621249 0.45788142 -0.30845255 0.13921206 0.5570015 -0.5587105 -0.36134663 -0.3172126 -0.80479735 -0.2191645 -0.3157685 -0.082524456 0.3519888 0.26910537
on 0.35609043 -0.015296814 -0.061393254 -0.42766944 0.28291482 0.72457474 0.10775316 0.51154935 0.42642683 -0.21191573 0.22839317 0.60616595 -0.44971624 -0.016480234 0.00049275765 -0.21773434 0.021268604 0.21787553 -0.17679866 -0.87404144 -0.07655421 0.3906605 -0.3054797 1.0565084 -0.22389393 -0.5306546 0.68789685 0.22168106 -0.088056214 0.5429024 0.46401167 -0.12264849 0.08750925 0.6976756 0.091955215 -0.40969896 -0.1594492 -0.27220175 0.7118434 -0.20920312 -0.22213411 -0.5432088 0.1264226 0.22716825 0.05008414 -0.058827396 0.2538933 -1.3893466 0.24786355 0.12540603 -0.50755745 0.3191894 0.35430923 0.10211152 -0.50904673 0.6445056 -0.22330943 0.066041715 0.32596582 0.54497254 -1.0490595 0.06516038 -0.10592563 0.5509279 -0.6919266 -0.14140116 0.14544196 0.836454 -0.3594781 0.397238 0.7722523 -0.54614246 0.5239279 0.37367594 0.3712863 -0.08391818 0.37602097 -0.24963313 -0.07319262 -0.070669845 -0.36898053 0.1382743 0.1321282 -0.29243866 0.116367884 0.16216952 0.17208265 0.15469521 -0.060390938 0.042614453 0.33515018 -0.44294724 -0.15605117 -0.2781313 -0.289528 -0.13128932 -0.41897988 -0.14809988 0.13043115 0.11665807
crazy 0.36174858 -0.26800716 -0.24400616 -0.4067023 0.27173457 0.45074886 0.13044769 0.11681826 0.037263118 -0.26333585 -0.04044761 0.2406081 -0.5663669 -0.014588316 0.050789565 -0.060101435 -0.26874712 0.35876465 -0.015582505 -0.3704348 -0.09132317 -0.011892158 -0.34962168 0.8417445 -0.15508828 -0.33368456 0.34420997 0.3424199 -0.08367012 0.42102993 0.41711524 -0.03755239 0.3751108 0.37448138 -0.11419759 0.017188488 -0.03343454 -0.13412333 0.1587548 -0.0761603 -0.04234676 -0.18892577 0.07761956 0.22532694 -0.09437708 0.05731564 0.50485915 -1.1525863 -0.0022776613 -0.15095077 -0.30124363 0.050016403 0.30687174 -0.044742778 -0.15077105 0.3584176 0.053760972 -0.117176525 0.08764099 0.20499004 -0.48564175 0.06668402 -0.22401436 0.47045928 -0.35087442 0.17880453 0.013440592 0.41274783 -0.24077596 0.03639925 0.2648421 -0.23991477 0.18975678 0.14028382 0.26687208 0.009396674 0.067841195 -0.0026242484 0.08568325 -0.15053989 -0.047403768 0.12714063 0.11167975 -0.26900065 -0.18789734 0.3527183 -0.03798939 0.6371351 -0.32532912 0.08971698 0.30377972 -0.18325236 -0.20212962 -0.040061217 -0.2149387 -0.191333 -0.47858706 0.3597407 0.067528844 -0.095047705
it 0.38067916 0.010517981 0.055411246 -0.30399913 0.19282512 0.7502188 0.08684372 0.52282035 0.39261246 -0.2286585 0.17744341 0.5637641 -0.48878664 0.038572665 0.022327248 -0.20307235 0.026067667 0.2213257 -0.1316651 -0.80641407 0.0065412964 0.4039487 -0.3641082 0.88468647 -0.35611764 -0.49066737 0.6804541 0.28320187 -0.033709735 0.4275095 0.33398175 -0.09521052 0.024158485 0.4523718 0.079530746 -0.29506442 -0.031103393 -0.111274876 0.7721887 -0.18188344 -0.2807952 -0.36250433 0.1218903 0.08599477 -0.0665094 0.085967064 0.13639322 -1.3554238 0.14881225 0.14826533 -0.38817954 0.31533688 0.31828144 0.15025015 -0.4079437 0.6304686 -0.14149845 0.101150684 0.31582597 0.29843205 -0.808506 0.10057076 -0.10011349 0.52886224 -0.70157874 -0.26246002 0.20302261 0.8227927 -0.16742656 0.50826484 0.6978145 -0.6381715 0.3781091 0.23623922 0.4088625 0.10265424 0.43281522 -0.32721978 -0.1095231 0.047144756 -0.46120363 0.13452844 0.25746775 -0.39888656 -0.12553604 0.19342676 0.15276591 0.50615793 -0.2855542 0.15790181 0.5565654 -0.5359795 -0.29247668 -0.2475024 -0.61504084 -0.20080607 -0.3274894 -0.06622938 0.1843735 0.23063701
of 0.47439045 -0.3484933 -0.19325686 -0.461754 0.29931793 0.555476 0.13217539 0.13777158 -0.006222345 -0.33906773 -0.072659284 0.26928362 -0.7084431 -0.0009376329 0.09216702 -0.0297212 -0.32027757 0.42313042 0.001997431 -0.38318762 -0.09249457 -0.026303884 -0.44311422 0.98107815 -0.24819729 -0.42110273 0.39346558 0.43517503 -0.013171589 0.48221275 0.44398654 -0.007560703 0.44655567 0.3368973 -0.16157028 0.08549297 0.034108877 -0.0835309 0.22503655 -0.096938334 -0.039130572 -0.13038811 0.12785232 0.21458848 -0.1790018 0.12880132 0.567047 -1.4019077 -0.091665715 -0.1748564 -0.30913007 -0.0036138317 0.33614346 -0.018040162 -0.16768329 0.4324579 0.1519789 -0.08643283 0.09819312 0.15949878 -0.50072694 0.10648226 -0.3160894 0.5425126 -0.4041243 0.1766566 0.041479357 0.4570521 -0.20673773 0.06850985 0.27469388 -0.34775645 0.15255487 0.07342344 0.31216905 0.06864333 0.03584468 -0.006263601 0.12302995 -0.10264398 -0.081912026 0.17079364 0.18177336 -0.3417676 -0.33667156 0.42946735 -0.0954381 0.9809302 -0.5383819 0.14978677 0.51920223 -0.286552 -0.3183494 -0.02935819 -0.43683165 -0.25438613 -0.5984137 0.5037794 0.065422796 -0.041946586
is 0.43267733 -0.28935426 -0.19129735 -0.41083792 0.2844173 0.5072372 0.11690844 0.17951798 0.020739846 -0.31174484 -0.05403864 0.26283473 -0.6574703 0.0026189573 0.08377148 -0.062135253 -0.29495472 0.38325462 -0.0030621677 -0.41282487 -0.08886827 0.0021678414 -0.4214277 0.91518515 -0.2308171 -0.38997737 0.38120314 0.4023145 -0.059723236 0.461303 0.4273242 -0.037804972 0.39986488 0.33828065 -0.13022682 0.055368572 0.01423855 -0.10117236 0.22137766 -0.11177203 -0.049820744 -0.14592484 0.11722799 0.1829063 -0.16642627 0.13641906 0.5152192 -1.3362553 -0.05206022 -0.16303621 -0.29482746 0.07356541 0.31974944 -0.0146620395 -0.15415819 0.42145315 0.101557545 -0.117130004 0.10546107 0.15482655 -0.50561726 0.0980374 -0.2955537 0.5165888 -0.40563127 0.14841646 0.0456315 0.48073894 -0.18953636 0.083216205 0.2800397 -0.33469874 0.17232892 0.098774664 0.31703156 0.049054094 0.101636685 -0.046066176 0.111761436 -0.11687405 -0.1018966 0.13871548 0.16323154 -0.3343114 -0.30418324 0.38601044 -0.063137494 0.8588605 -0.46733442 0.15081419 0.44945315 -0.26315257 -0.27256253 -0.04570265 -0.38694632 -0.24136184 -0.5430852 0.425997 0.098801464 -0.015918175
in 0.44227415 -0.2574621 -0.13553569 -0.35794392 0.25231603 0.549831 0.13338578 0.19185598 0.08609065 -0.31985825 -0.02941921 0.3069127 -0.637039 0.049329363 0.043490667 -0.097203985 -0.24197967 0.39726236 -0.03368945 -0.45370567 -0.08246578 0.03958517 -0.39100832 0.9149728 -0.26039532 -0.41297227 0.4234643 0.4004591 -0.047944095 0.4455808 0.39438084 -0.03274786 0.3009088 0.32117248 -0.11913874 0.029235376 0.046442844 -0.064407706 0.28737178 -0.08618805 -0.118022405 -0.14858869 0.13218163 0.15794 -0.14461103 0.11881676 0.4738539 -1.3269184 -0.024725543 -0.13317211 -0.3120152 0.063837774 0.3255875 -0.024309684 -0.17640287 0.44037598 0.09863656 -0.06886507 0.16250826 0.15407845 -0.5148509 0.111799814 -0.23204511 0.51792264 -0.4393859 0.09429735 0.07347382 0.53653055 -0.1808691 0.14636984 0.33115673 -0.36757126 0.19565071 0.11104864 0.3402701 0.100974046 0.1481231 -0.09601105 0.056545768 -0.05888617 -0.15928231 0.15370665 0.22001033 -0.37013474 -0.31903824 0.38528633 -0.0249164 0.854818 -0.48370913 0.1614558 0.48922455 -0.29776123 -0.30995727 -0.06956971 -0.47829673 -0.25264087 -0.48687252 0.37002152 0.1519813 0.014972572
you 0.4526037 -0.31631598 -0.23181084 -0.4061452 0.28806826 0.5189627 0.12199411 0.13330135 -0.023322131 -0.34098756 -0.08965085 0.2440643 -0.69881576 0.01011068 0.0883637 -0.053096212 -0.33123732 0.4202907 0.011223042 -0.36071473 -0.104771845 -0.057787135 -0.44000706 0.92097306 -0.24269661 -0.38514817 0.3675025 0.45001644 -0.06799772 0.44949746 0.44009092 -0.026181774 0.4628533 0.28022712 -0.18615726 0.12385677 0.050310347 -0.08419047 0.14075844 -0.10343573 -0.04005063 -0.0975277 0.121043995 0.19153829 -0.20754395 0.17817149 0.5800204 -1.3717008 -0.09324785 -0.20767502 -0.26261202 0.02421578 0.31668296 -0.03747579 -0.121422894 0.40168452 0.1622529 -0.15313452 0.090421446 0.107242875 -0.45799333 0.086390816 -0.31380302 0.5274095 -0.4034824 0.18545423 0.035077006 0.4513383 -0.17085345 0.051497504 0.237733 -0.29642147 0.12775326 0.078401096 0.3144767 0.06317874 0.07493375 -0.027146595 0.12585151 -0.1287747 -0.07198873 0.15682349 0.17799765 -0.35662827 -0.3580579 0.4283428 -0.090417914 0.97746617 -0.54551435 0.18584973 0.48516098 -0.25183955 -0.29710117 -0.020782238 -0.39609748 -0.28908578 -0.56920654 0.51760864 0.11709888 -0.061200127
me 0.4553149 -0.28833383 -0.1766035 -0.40024754 0.29339802 0.543331 0.12068622 0.18225071 0.037243914 -0.3349984 -0.04439598 0.281584 -0.68710047 0.016044077 0.06847413 -0.06469985 -0.28281868 0.4070797 -0.016735045 -0.4230483 -0.08821418 0.014376908 -0.42736703 0.95168954 -0.24922872 -0.41209492 0.40482652 0.42590255 -0.06288278 0.46200818 0.44269082 -0.028761895 0.38658008 0.32472858 -0.14582342 0.070901304 0.028903786 -0.08687392 0.23879857 -0.09731375 -0.07481501 -0.14209709 0.133515 0.18910421 -0.18316443 0.15509999 0.5496488 -1.3936707 -0.06152552 -0.1653941 -0.30811647 0.058722083 0.33626556 -0.027488826 -0.1596037 0.42418632 0.115742214 -0.10529567 0.123750865 0.15043402 -0.5072831 0.0960186 -0.29068917 0.5440335 -0.42823347 0.14026572 0.048810467 0.52424634 -0.19384012 0.11242183 0.2968627 -0.35276103 0.1821839 0.11256719 0.33025077 0.07492766 0.11543077 -0.05211405 0.09568872 -0.09848579 -0.12219193 0.15314415 0.18759976 -0.36782122 -0.33101985 0.40656623 -0.04726868 0.9097026 -0.5102971 0.16685462 0.50445783 -0.2823652 -0.30563593 -0.05588811 -0.4371879 -0.2681731 -0.5518259 0.44491997 0.12522095 -0.0051780907
with 0.45555478 -0.26310223 0.053015042 -0.24227414 0.25756297 0.5182976 0.21016362 0.17566031 0.17081924 -0.3477433 -0.016383432 0.35725507 -0.6366892 0.13205086 -0.011869103 -0.16983388 -0.19375525 0.45154214 -0.12719363 -0.48439372 -0.060423963 0.05773307 -0.3192301 0.97734857 -0.22240375 -0.45416397 0.44171673 0.3711573 -0.05584617 0.4516406 0.40695018 -0.038831454 0.103923395 0.3475132 -0.0604189 0.016169949 0.08620174 -0.037229225 0.40022883 -0.057530846 -0.2289144 -0.13743103 0.22118463 0.13685115 -0.05986052 0.03923313 0.4449294 -1.3403255 0.021722455 -0.14522195 -0.38181987 0.024841804 0.41909754 -0.09686956 -0.27060854 0.40622655 0.09161808 0.032374844 0.26832044 0.14019205 -0.5539045 0.19500907 -0.14371274 0.52289 -0.45315623 0.042969555 0.09002123 0.66163373 -0.19940835 0.22960104 0.39743438 -0.4178649 0.26749733 0.173168 0.3945324 0.14081992 0.2497222 -0.16268535 0.012877569 0.0016409002 -0.21510409 0.18610102 0.28729707 -0.43307775 -0.35207742 0.38953254 0.038159452 0.77090496 -0.47223124 0.14121813 0.4993345 -0.317453 -0.3571144 -0.12984724 -0.64141923 -0.2528106 -0.44650492 0.30394363 0.27992386 0.07338564
that 0.4393811 -0.30321705 -0.21485674 -0.40779358 0.2865617 0.5292021 0.12185463 0.14265235 0.0014555864 -0.33328623 -0.067530654 0.2610731 -0.67654365 0.014508889 0.08225372 -0.059647862 -0.311495 0.41549015 0.00070418266 -0.39500582 -0.09395708 -0.02476039 -0.42325425 0.93407446 -0.24100667 -0.39044562 0.37760618 0.43186188 -0.06480136 0.4584326 0.42635226 -0.031507123 0.4158922 0.30918816 -0.1618209 0.084498234 0.03445662 -0.07862096 0.1896682 -0.10336573 -0.05891615 -0.122479424 0.12589073 0.1968919 -0.18764853 0.15653865 0.55716985 -1.3563346 -0.064262375 -0.18188079 -0.2902243 0.041843954 0.3302446 -0.030247135 -0.13880767 0.41538492 0.13873202 -0.12723316 0.10213603 0.13023593 -0.48013163 0.10005739 -0.29455927 0.5215959 -0.40522686 0.16685057 0.04292234 0.4874759 -0.18445769 0.07843755 0.26927412 -0.32009554 0.1596611 0.095769286 0.32589114 0.07241842 0.087349705 -0.039976303 0.11170837 -0.120099016 -0.0854579 0.1537568 0.18090633 -0.35936445 -0.33559728 0.41166452 -0.06745754 0.9257516 -0.5045713 0.16336766 0.46609622 -0.2526266 -0.2885562 -0.037041537 -0.39569667 -0.26610625 -0.552408 0.4699851 0.10856417 -0.037635446
for 0.4769691 -0.32763052 -0.22608706 -0.44134733 0.30559367 0.5640897 0.14033784 0.15733036 0.009243414 -0.35214818 -0.07296675 0.279238 -0.7329805 0.020052355 0.081567116 -0.065527335 -0.32898763 0.45126063 -0.0016277209 -0.418758 -0.108524136 -0.027393637 -0.46321025 1.0088056 -0.26090264 -0.42440224 0.4091184 0.45780736 -0.06384644 0.49342147 0.4633035 -0.031209933 0.4430568 0.32566977 -0.17573461 0.09851432 0.042110726 -0.09051755 0.20026542 -0.09836 -0.06459364 -0.12819505 0.13549924 0.20227852 -0.20483103 0.16376542 0.5997923 -1.4596455 -0.07823535 -0.2006743 -0.31489375 0.03944823 0.3522482 -0.04301045 -0.14592999 0.44565347 0.15584157 -0.12349469 0.11331536 0.15041468 -0.5152918 0.1041064 -0.30977356 0.5640504 -0.43977046 0.17354116 0.035724893 0.51726645 -0.19855516 0.07283793 0.2785217 -0.34235147 0.15897474 0.0926548 0.33633655 0.07828555 0.085808806 -0.035620295 0.11249159 -0.11983104 -0.095050335 0.16561098 0.20551403 -0.39279082 -0.36666825 0.45355102 -0.07106186 0.99981916 -0.55261886 0.17671652 0.5146743 -0.28500518 -0.316146 -0.04256734 -0.4391716 -0.28708348 -0.60445005 0.5093138 0.12475329 -0.04719428
this 0.42030883 -0.29469657 -0.20869109 -0.3939855 0.28445986 0.5027922 0.11539067 0.14927426 0.014900291 -0.31560004 -0.056402687 0.24813133 -0.6547986 0.011710993 0.06989392 -0.05560125 -0.2977168 0.38711774 0.0012249295 -0.38508758 -0.09501355 -0.016218904 -0.41038567 0.9008375 -0.22302583 -0.37091997 0.3745043 0.4132836 -0.06700116 0.44288287 0.42117763 -0.029380286 0.40870035 0.31743962 -0.1574273 0.07369784 0.029516244 -0.10006345 0.18163325 -0.09392501 -0.057223924 -0.12649992 0.115135 0.19559237 -0.17402026 0.14519556 0.5448433 -1.3041893 -0.068355076 -0.17041364 -0.27875474 0.043725014 0.3177129 -0.02893975 -0.13766669 0.40445623 0.12349306 -0.11883228 0.095105335 0.14874335 -0.46934152 0.086726606 -0.28013882 0.5055865 -0.39404693 0.16121723 0.040571935 0.46479768 -0.18438463 0.07308602 0.2616216 -0.31218904 0.15039642 0.10175047 0.30553716 0.055091463 0.07753404 -0.037919324 0.1046019 -0.11789408 -0.08948709 0.1436004 0.17101952 -0.3440206 -0.31836364 0.39457604 -0.06551404 0.87676287 -0.48180535 0.1529318 0.43933758 -0.24573137 -0.27219757 -0.040610384 -0.36807027 -0.25544003 -0.5374911 0.44217926 0.102840245 -0.03954073
like 0.4576879 -0.30403396 -0.19518602 -0.41159222 0.27926803 0.5403887 0.13850734 0.16372019 0.021812027 -0.3363358 -0.058337104 0.27502602 -0.6860903 0.020584047 0.061146688 -0.067116916 -0.30673355 0.42149886 -0.010767862 -0.41501194 -0.09551579 -0.014925654 -0.4334151 0.9619786 -0.25578946 -0.40912572 0.4099669 0.44117218 -0.05597812 0.46320677 0.44460142 -0.041098632 0.39658657 0.32310534 -0.1665661 0.07798372 0.035369683 -0.08481876 0.21735118 -0.09276303 -0.06288494 -0.13878672 0.11729146 0.1999398 -0.17880088 0.13366242 0.56549376 -1.3916457 -0.05657106 -0.17584851 -0.31075653 0.06001525 0.34695238 -0.031067122 -0.15443097 0.43478352 0.1217348 -0.11639136 0.112500794 0.14658077 -0.50589025 0.10473568 -0.28210688 0.537234 -0.42954135 0.15612572 0.049788438 0.50519043 -0.20522033 0.0782174 0.2822841 -0.3282435 0.17877646 0.110318035 0.32153514 0.07983618 0.10415942 -0.050884333 0.102573544 -0.110492386 -0.1116585 0.16923425 0.19427608 -0.3786543 -0.3379686 0.42094755 -0.059121925 0.92857516 -0.50926757 0.16072537 0.4693988 -0.2763329 -0.29542193 -0.038935408 -0.42459738 -0.27255523 -0.55478805 0.4586837 0.11573449 -0.040957015
im 0.46017003 -0.30107555 -0.18026306 -0.4037947 0.2852576 0.54967034 0.14350061 0.15332285 0.06307195 -0.33021855 -0.039558403 0.27915505 -0.6681526 0.037434388 0.030393058 -0.08757413 -0.28330082 0.4454947 -0.037106168 -0.43443868 -0.10756644 -0.01666769 -0.40941587 0.99116254 -0.24488999 -0.4210432 0.41246426 0.42673612 -0.06572446 0.47472367 0.4528706 -0.0383657 0.35587767 0.34883592 -0.15023251 0.06311353 0.036855698 -0.08372989 0.23624237 -0.08782023 -0.0876451 -0.15298083 0.12601916 0.20162946 -0.15390594 0.103745036 0.5664694 -1.3868139 -0.027909784 -0.17051731 -0.33758008 0.040310092 0.36380705 -0.057827543 -0.17273265 0.43651268 0.11892046 -0.08625042 0.14624017 0.16998488 -0.537982 0.10861394 -0.2623305 0.55266744 -0.42547512 0.16483782 0.03541846 0.54436976 -0.22363873 0.086613916 0.31114087 -0.33173588 0.20269284 0.13214311 0.32814223 0.075468175 0.106261715 -0.04004978 0.08362379 -0.0972186 -0.110596485 0.18663992 0.21941416 -0.37524673 -0.31292722 0.42229015 -0.04555528 0.8651857 -0.4912076 0.15228868 0.46029645 -0.27990326 -0.29526612 -0.053205963 -0.41458547 -0.25234908 -0.5326456 0.43612078 0.1514228 -0.044115182
so 0.46340007 -0.3167339 -0.2053312 -0.42709553 0.28375337 0.56347823 0.13635466 0.1678598 0.038984783 -0.34640363 -0.04488858 0.28468376 -0.6918189 0.013054973 0.06127565 -0.0704854 -0.30637816 0.4226306 -0.016134437 -0.43176517 -0.106832 -0.0057134004 -0.4338173 0.9915086 -0.2548241 -0.41633525 0.42053336 0.43919453 -0.056693725 0.47349036 0.44896472 -0.04035684 0.3983899 0.32978803 -0.16547118 0.061444152 0.031296577 -0.090263315 0.2280153 -0.09930934 -0.07648118 -0.14310661 0.12435932 0.19667284 -0.1769766 0.1377165 0.56834406 -1.4203609 -0.04921233 -0.17092852 -0.3141351 0.061589073 0.35033903 -0.02600131 -0.16755219 0.4434901 0.13145187 -0.11309217 0.11901483 0.16614048 -0.52633995 0.107856564 -0.2946556 0.55595833 -0.44257298 0.16090429 0.053283304 0.53030145 -0.20255524 0.083783776 0.30849662 -0.35078278 0.18917345 0.11316705 0.32976082 0.072439365 0.10775052 -0.05606467 0.096843794 -0.102046944 -0.11692921 0.1645196 0.2016351 -0.38267875 -0.3417119 0.42473406 -0.06495655 0.93802214 -0.521116 0.16348104 0.48598137 -0.2917542 -0.3077314 -0.05136243 -0.43582666 -0.267741 -0.567265 0.46114996 0.11930472 -0.026071513
be 0.45641232 -0.30933574 -0.20868056 -0.41137725 0.30416766 0.5296273 0.15668766 0.14012302 0.04039614 -0.3398995 -0.06791827 0.27099195 -0.6842867 0.04161718 0.045060933 -0.08497417 -0.3079497 0.43793815 -0.029809752 -0.42008474 -0.1160319 -0.03741915 -0.40261102 0.9906309 -0.22764555 -0.41845632 0.4045623 0.4323814 -0.06824444 0.48741546 0.45828435 -0.041934937 0.3808191 0.36048135 -0.16176398 0.07080814 0.02892965 -0.09661581 0.19584233 -0.08585539 -0.07221388 -0.15098597 0.13311315 0.22191279 -0.15558474 0.10172363 0.5888843 -1.3909838 -0.044818915 -0.18735677 -0.32415804 0.031025903 0.35579905 -0.05955783 -0.1659277 0.41972816 0.1221228 -0.108160764 0.13415186 0.17105272 -0.5375639 0.109177 -0.2753225 0.54710436 -0.4049115 0.18744586 0.025953978 0.51728076 -0.23055722 0.05902172 0.29080728 -0.31792754 0.18899839 0.13319461 0.33739194 0.0656733 0.08757556 -0.02972335 0.107729584 -0.115597695 -0.0927621 0.16302432 0.18999308 -0.35454464 -0.31665283 0.42895108 -0.04627426 0.8708877 -0.48647034 0.15077838 0.44744354 -0.2510889 -0.29087004 -0.052034013 -0.38844594 -0.26167625 -0.5614072 0.45682505 0.13805717 -0.05185635
but 0.44870508 -0.28143352 -0.18679608 -0.40490475 0.283243 0.553222 0.11837981 0.18184924 0.025070436 -0.32923013 -0.054395966 0.28566092 -0.67897075 0.020358685 0.07252169 -0.07247653 -0.28291735 0.40654963 -0.0042594653 -0.43466994 -0.08738362 0.010296488 -0.4356959 0.9442263 -0.26201278 -0.41029906 0.41122422 0.42679435 -0.063810915 0.4580355 0.42590886 -0.031192813 0.39660951 0.32065293 -0.15356727 0.06573456 0.034351412 -0.08460505 0.24000981 -0.100075684 -0.079393454 -0.13708098 0.12155808 0.18544228 -0.18628678 0.15285559 0.543001 -1.3871971 -0.061732095 -0.15586385 -0.29904714 0.0673806 0.33621418 -0.022421263 -0.16301566 0.43656138 0.11880262 -0.1102511 0.11652832 0.14800163 -0.5097017 0.09938111 -0.28481436 0.54050016 -0.4376495 0.12893218 0.062408887 0.5083235 -0.18178512 0.11009059 0.305496 -0.35576096 0.17259486 0.101588085 0.3350836 0.07106844 0.11215648 -0.058216386 0.097796865 -0.10339274 -0.1253848 0.15198454 0.19222182 -0.3785722 -0.33993837 0.41657093 -0.050850626 0.93125755 -0.5170443 0.17000106 0.5021693 -0.28410777 -0.30941692 -0.047467887 -0.4355186 -0.26749715 -0.5446362 0.436367 0.12220739 -0.014347078
future 0.3656528 -0.26806924 -0.26352224 -0.42565176 0.30468616 0.45673978 0.107560605 0.1238757 0.06023809 -0.26006973 -0.014523857 0.24452274 -0.56719416 -0.028162647 0.03689285 -0.07409812 -0.2683757 0.36567715 -0.03040504 -0.404482 -0.12057823 -0.00577128 -0.34042695 0.9143217 -0.135792 -0.36669186 0.35201117 0.33053657 -0.090177424 0.45921177 0.4470436 -0.043128908 0.38974229 0.42358905 -0.1247841 0.0037090327 -0.046322964 -0.17959042 0.15692371 -0.08711778 -0.031385947 -0.22922349 0.08762134 0.2533291 -0.095085196 0.039797828 0.54837 -1.1875147 0.010373925 -0.16022278 -0.3422701 0.06334054 0.32144776 -0.053031538 -0.18925184 0.3827663 0.05267656 -0.123553075 0.10207762 0.26106605 -0.5585315 0.05558657 -0.23586403 0.47944403 -0.35358113 0.21334307 -0.001607099 0.43998238 -0.29193783 0.013966644 0.29300442 -0.23939027 0.23793407 0.1683198 0.26445436 -0.049922366 0.0527501 0.02022892 0.08691034 -0.1683026 -0.046307735 0.14772627 0.10482037 -0.25207877 -0.13135453 0.3462496 -0.028390558 0.5675945 -0.3015085 0.06941623 0.27336004 -0.19563441 -0.17336199 -0.06270205 -0.1672643 -0.17270033 -0.5219702 0.34792373 0.07797553 -0.10684041
by 0.40994436 -0.4154666 -0.5410147 -0.7531471 0.5675383 0.48272416 0.19640668 0.09626858 0.14539215 -0.31752375 0.056223888 0.35839805 -0.6216405 -0.11971892 0.014377078 -0.10496479 -0.3661847 0.46417147 -0.12719588 -0.580256 -0.30800584 -0.053748574 -0.2872875 1.4496934 0.1423865 -0.53570074 0.41188678 0.29355505 -0.21700257 0.75412273 0.8322185 -0.086514175 0.56179786 0.9813401 -0.09907728 -0.232924 -0.32102317 -0.52293324 0.03459147 -0.16821776 0.038981847 -0.60558975 0.15822393 0.61804205 0.11887771 -0.20603615 0.93356526 -1.503153 0.2143898 -0.2763667 -0.64181983 0.022309856 0.47007385 -0.19093554 -0.45009184 0.44269612 -0.08991219 -0.19120249 0.13597187 0.77782214 -1.143338 -0.008297888 -0.28636467 0.622437 -0.41341597 0.5134411 -0.13014632 0.59549844 -0.73532265 -0.23326965 0.48375776 -0.07912183 0.56813085 0.49946904 0.24071546 -0.42094868 -0.026519882 0.19893232 0.1962738 -0.4492482 0.14404386 0.19533084 -0.111476555 -0.07870371 0.28239876 0.36345452 0.027593482 -0.03833275 0.0683173 -0.18964668 -0.073051 -0.033594344 0.047520164 -0.12890962 0.44878295 -0.056130145 -0.78777367 0.28279275 -0.027515104 -0.4017841
was 0.41066235 -0.25070888 -0.16967104 -0.38200593 0.26108423 0.5323089 0.122316025 0.18857159 0.06474054 -0.2879527 -0.021116044 0.29102004 -0.6035921 0.025500888 0.044180714 -0.07879932 -0.24728341 0.3771167 -0.024947163 -0.4359538 -0.08167773 0.03650542 -0.3975369 0.87443644 -0.24931267 -0.38587782 0.4059648 0.3766884 -0.05651489 0.43309328 0.40526834 -0.04082472 0.32386506 0.3329353 -0.1142051 0.025502464 0.017339377 -0.08897076 0.25070176 -0.095672116 -0.08061573 -0.1549046 0.09886493 0.16920449 -0.1407464 0.11196769 0.4754703 -1.2744493 -0.018961636 -0.123133026 -0.29841298 0.0720323 0.31052938 -0.015726449 -0.1636242 0.4216924 0.08654196 -0.085060775 0.13675919 0.16131416 -0.5037692 0.09428643 -0.23678488 0.5036684 -0.41792825 0.10098546 0.047865614 0.50309265 -0.19627406 0.11523929 0.31620914 -0.33282745 0.1883069 0.12256258 0.3137641 0.072369106 0.11712626 -0.05513884 0.07156036 -0.083888136 -0.133174 0.15465923 0.19537531 -0.3309016 -0.26006866 0.36484778 -0.044224795 0.78074896 -0.4335501 0.14737792 0.42880467 -0.2775354 -0.27122217 -0.056070436 -0.3809613 -0.232082 -0.48905343 0.36503676 0.11462505 -0.02004368
just 0.43140736 -0.2699496 -0.17729498 -0.3987506 0.26814854 0.5475782 0.124211706 0.19766934 0.063035324 -0.3050096 -0.027682394 0.29465377 -0.63597566 0.025357043 0.062104724 -0.08525339 -0.25081882 0.38623032 -0.023247581 -0.4519907 -0.09208979 0.03959005 -0.41220227 0.9271859 -0.2512044 -0.40722185 0.42460018 0.41064322 -0.059084676 0.44324872 0.4125683 -0.035497807 0.35100543 0.33588177 -0.12816814 0.02793984 0.019949727 -0.085747436 0.25735283 -0.10580822 -0.08589779 -0.16952464 0.107181676 0.17129236 -0.16157562 0.12445233 0.5065241 -1.3401597 -0.031340245 -0.13371672 -0.31242907 0.07814005 0.3212553 -0.007187563 -0.17805296 0.4342217 0.09980312 -0.08291418 0.12874235 0.16309187 -0.52609825 0.08708201 -0.26080877 0.5212071 -0.439197 0.11197313 0.06030356 0.53177166 -0.19455446 0.13345772 0.32346073 -0.35582528 0.19369091 0.11206545 0.32431966 0.07252353 0.12713063 -0.061390337 0.07799311 -0.08196658 -0.13421658 0.16396078 0.20526326 -0.36532408 -0.29442638 0.37795535 -0.036855403 0.8434319 -0.4714454 0.15403573 0.46341145 -0.30214635 -0.2793048 -0.07055805 -0.4110737 -0.24846193 -0.5139856 0.38310048 0.12697026 -0.015416214
up 0.46335307 -0.33101517 -0.061618686 -0.3221497 0.30125085 0.48074093 0.20889759 0.11708587 0.11632552 -0.35865897 -0.049085807 0.3150222 -0.6823246 0.11125147 0.010765462 -0.15115441 -0.2798373 0.487583 -0.09031069 -0.44471636 -0.11414327 -0.020290032 -0.34996924 1.0530773 -0.18396452 -0.46191534 0.40067208 0.39425248 -0.087386325 0.48680964 0.48033035 -0.043729156 0.22961248 0.3749005 -0.09965242 0.045360733 0.05618168 -0.07211838 0.26895264 -0.049783982 -0.14395054 -0.14637604 0.20084581 0.21559061 -0.068278156 0.030861901 0.5819603 -1.3705354 0.0022604184 -0.21064341 -0.38649738 -0.023709614 0.4304228 -0.12426451 -0.23423997 0.39069524 0.108339876 -0.039526172 0.21819268 0.16717635 -0.58133703 0.16760035 -0.20199096 0.5351444 -0.40166742 0.15819429 0.048230127 0.6097073 -0.27145535 0.11624831 0.3386836 -0.34748933 0.27145678 0.18297039 0.3791255 0.090835735 0.15331072 -0.086981416 0.07482951 -0.070730664 -0.12585141 0.19574355 0.2357018 -0.40426958 -0.3438393 0.44523278 0.0071475166 0.7696452 -0.47869787 0.11694821 0.4416771 -0.25444078 -0.3293713 -0.088805236 -0.5069201 -0.25031015 -0.5178512 0.38820407 0.23819356 -0.02356992
not 0.41930345 -0.27548203 -0.18532011 -0.3887303 0.27340657 0.5060782 0.11444613 0.15026492 0.017313858 -0.30869317 -0.049388606 0.25950873 -0.64008087 0.0130960215 0.06428266 -0.058861732 -0.2734024 0.37831026 -0.014695546 -0.3900815 -0.09164801 -0.0054225004 -0.40315568 0.8825762 -0.2279617 -0.376483 0.37614655 0.4040536 -0.05981649 0.4357684 0.41093275 -0.025306998 0.3721455 0.29437152 -0.14990808 0.071443 0.03232079 -0.07477438 0.20702021 -0.092220806 -0.06656496 -0.124639116 0.10950226 0.17372534 -0.17431793 0.13985826 0.5200542 -1.2922279 -0.060342647 -0.15966159 -0.27600673 0.057628706 0.3195732 -0.024595104 -0.14690946 0.39851364 0.12485441 -0.10459133 0.111938015 0.1338824 -0.46648866 0.08916915 -0.273441 0.49883443 -0.39212456 0.14022665 0.049487036 0.47019655 -0.18005241 0.08242058 0.2738825 -0.31426322 0.14920415 0.091390565 0.29810226 0.07252858 0.09566158 -0.042606764 0.09324734 -0.09600965 -0.10012898 0.14249524 0.18191814 -0.3487339 -0.31502008 0.38190168 -0.060228698 0.8679174 -0.47827196 0.16437493 0.45321512 -0.26134133 -0.2752228 -0.047354493 -0.40073454 -0.25007004 -0.51961124 0.41949847 0.11350216 -0.019159798
when 0.43741602 -0.24733838 -0.14176972 -0.3901461 0.2707229 0.54780215 0.113649935 0.17244759 0.054774616 -0.31264135 -0.039615475 0.28134683 -0.6359937 0.016430061 0.057040084 -0.07255031 -0.24217667 0.3832408 -0.031134898 -0.44185713 -0.07923222 0.03818912 -0.39901212 0.9157131 -0.24397114 -0.39482653 0.40288123 0.37876555 -0.07292857 0.41645297 0.43088874 -0.023433043 0.33184412 0.33194438 -0.11961628 0.0487275 0.03141325 -0.08502477 0.26402476 -0.10233324 -0.09272272 -0.14696297 0.12138258 0.20080593 -0.16151033 0.11751954 0.5170561 -1.3112061 -0.038043294 -0.14688723 -0.3078737 0.06389215 0.31342423 -0.013824225 -0.19883947 0.41422188 0.08352417 -0.0859567 0.12670313 0.15265125 -0.51834524 0.1010901 -0.2564264 0.5320883 -0.42409593 0.10997853 0.0506653 0.5284455 -0.1967925 0.12798126 0.31434876 -0.3456571 0.18516798 0.12796402 0.3123579 0.09095076 0.11519949 -0.049938947 0.0737817 -0.07859587 -0.105675645 0.16517545 0.18133765 -0.34813502 -0.2855505 0.38601348 -0.043961402 0.8138712 -0.45208657 0.15838838 0.45020726 -0.2848715 -0.2828296 -0.051653642 -0.397618 -0.24252383 -0.4775845 0.37312534 0.13917339 -0.010740518
they 0.4485744 -0.30223584 -0.20795101 -0.41873297 0.2907696 0.5446843 0.13634928 0.1684855 0.040598962 -0.33004594 -0.039278135 0.28307393 -0.66626996 0.023275197 0.0557879 -0.07257787 -0.29996756 0.4226382 -0.021703614 -0.43089148 -0.10006161 -0.00653128 -0.420658 0.96025383 -0.243861 -0.4092609 0.40437037 0.43181035 -0.064834714 0.46617922 0.44292414 -0.037935916 0.39356396 0.33079764 -0.14884089 0.058166068 0.025145344 -0.09038973 0.22140956 -0.10190501 -0.06556033 -0.15117505 0.120373964 0.19769993 -0.16915235 0.12831855 0.5616944 -1.3739694 -0.04582042 -0.17143914 -0.3131856 0.055547126 0.34148687 -0.03861148 -0.16572705 0.43186665 0.12472899 -0.11393203 0.12482527 0.16111396 -0.5135733 0.09649831 -0.27879438 0.5386961 -0.43208504 0.15717967 0.048134003 0.5222525 -0.20163342 0.09460258 0.29664034 -0.3264476 0.17723753 0.11564476 0.3259834 0.05789267 0.10921131 -0.046275426 0.10110871 -0.107469395 -0.115040645 0.15929241 0.19572902 -0.36742833 -0.3167848 0.41584167 -0.052207656 0.8804922 -0.49750566 0.16059324 0.4676535 -0.27504024 -0.28429645 -0.055011597 -0.39900044 -0.25546852 -0.5498151 0.43760896 0.13153501 -0.037451126
sit 0.25865236 0.23591882 0.25702196 -0.24070597 0.136227 0.8249301 0.064947546 0.72937644 0.6711937 -0.14594568 0.38159007 0.7905933 -0.3011996 0.053976208 -0.077684015 -0.3222221 0.2501546 0.054739222 -0.28438362 -1.0873506 0.09198637 0.651936 -0.32565388 0.794261 -0.38462195 -0.5024797 0.84774756 0.120336995 -0.0031257821 0.39077488 0.2429793 -0.093343265 -0.31401882 0.57613343 0.25623915 -0.5668967 -0.12359778 -0.13377672 1.1434718 -0.20751324 -0.42291543 -0.52260995 0.08449078 -0.0023280357 0.061337687 -0.029526237 -0.14269574 -1.2423322 0.2919733 0.40239182 -0.46191663 0.48905826 0.3070446 0.2731054 -0.5862919 0.7437229 -0.36909145 0.26569748 0.50023466 0.46712705 -1.0401965 0.114811175 0.06298965 0.48426223 -0.841121 -0.5644365 0.29626057 1.0443121 -0.17377251 0.7434766 1.0026234 -0.8207624 0.58637506 0.34931588 0.4063101 0.088039026 0.6547411 -0.5094807 -0.2516244 0.15037741 -0.7006391 0.13727735 0.3208307 -0.36965033 0.1065547 0.015117776 0.319393 0.07751606 -0.058315568 0.13474125 0.5207906 -0.6641955 -0.25515848 -0.3851609 -0.72335255 -0.11383677 -0.1365094 -0.4815245 0.20308849 0.41062477
have 0.42519176 -0.28931066 -0.19347215 -0.38834724 0.27456003 0.504798 0.12356075 0.15623629 0.027451422 -0.31090632 -0.05452564 0.26923975 -0.6392404 0.027203554 0.06390039 -0.062001016 -0.27921262 0.39209914 -0.010793068 -0.39461178 -0.09923273 -0.016944988 -0.40688136 0.89780897 -0.23457003 -0.3833844 0.37736964 0.4062512 -0.05960806 0.43093476 0.41639432 -0.032989528 0.37341836 0.31231686 -0.14558885 0.0637031 0.033777457 -0.083672486 0.20188811 -0.09976021 -0.059480846 -0.13903663 0.11910489 0.18927415 -0.1617017 0.12260194 0.5211185 -1.2903526 -0.04507411 -0.16451652 -0.28844726 0.04818166 0.30758506 -0.029499961 -0.15675661 0.41025195 0.12103625 -0.098062366 0.110845365 0.15321942 -0.48322454 0.09600109 -0.27475008 0.510625 -0.39989483 0.1366979 0.04581904 0.4822089 -0.1908141 0.09011687 0.27150276 -0.30595616 0.15886909 0.0961768 0.30433762 0.06823947 0.08799157 -0.04870939 0.09553058 -0.10594452 -0.10530186 0.14315495 0.18153979 -0.33473033 -0.30266997 0.39485756 -0.052854512 0.84834886 -0.46400586 0.15666468 0.4460064 -0.25935674 -0.28388393 -0.04663976 -0.38697886 -0.25688788 -0.5113502 0.4157877 0.114315175 -0.0276383
amp 0.46286774 -0.2633826 -0.18920203 -0.4730103 0.31222582 0.66056573 0.14568214 0.25970185 0.1901487 -0.30892664 0.04569134 0.4021401 -0.6572592 0.021387156 0.023612367 -0.13600466 -0.22459748 0.41624206 -0.07884231 -0.6038211 -0.10090117 0.110122204 -0.42584422 1.1013042 -0.26332524 -0.4977672 0.5330025 0.4057994 -0.058918197 0.5433762 0.48420763 -0.057903923 0.3166826 0.4902332 -0.095047385 -0.09017852 -0.029161723 -0.15184061 0.40772048 -0.12702198 -0.14085972 -0.30124292 0.12237976 0.24365973 -0.09224522 0.037790623 0.5231376 -1.4889133 0.053654436 -0.084561594 -0.43232527 0.11915118 0.39471665 -0.012695575 -0.30165574 0.53717595 0.02060725 -0.043033425 0.215585 0.31167674 -0.7336577 0.09573853 -0.23510128 0.6043291 -0.5433594 0.0842882 0.06662367 0.67987967 -0.2928935 0.19259079 0.49194777 -0.41613892 0.31731695 0.2112178 0.37067458 0.036719583 0.18462104 -0.093347214 0.049587544 -0.10490105 -0.20825627 0.18218468 0.21904317 -0.3736924 -0.19667785 0.3876978 0.00902157 0.71486485 -0.39136407 0.12151847 0.4541681 -0.35356006 -0.2853056 -0.12602098 -0.41480684 -0.23498686 -0.5551871 0.2904906 0.14107603 -0.017251229
all 0.41980922 -0.29663953 -0.21637788 -0.4115654 0.27821395 0.5024324 0.12631579 0.1379256 0.03390425 -0.31394657 -0.049216326 0.26311907 -0.64278287 0.015999192 0.055102896 -0.06727955 -0.29057527 0.39837036 -0.01243629 -0.40688625 -0.09930693 -0.010705671 -0.4009575 0.917901 -0.22396682 -0.3886355 0.38211486 0.39700252 -0.05711602 0.45592067 0.4309358 -0.037349235 0.38926902 0.33136982 -0.14940399 0.06118892 0.021684418 -0.096215665 0.18570587 -0.08506947 -0.053808205 -0.15887578 0.11890784 0.20167607 -0.15944691 0.1158668 0.55080867 -1.3042881 -0.04492419 -0.17274787 -0.30428287 0.03703827 0.3283689 -0.03814066 -0.15166523 0.4032396 0.11749892 -0.11682241 0.11337475 0.16870295 -0.5070876 0.08289616 -0.2697851 0.5126312 -0.39135 0.1604193 0.027945813 0.47104183 -0.2062846 0.067025214 0.28318918 -0.2993878 0.18013942 0.11736944 0.30192602 0.050480157 0.076785095 -0.023786388 0.09572752 -0.11741897 -0.08467505 0.15885477 0.17094976 -0.33016503 -0.27591914 0.40021053 -0.05814586 0.8249244 -0.4447482 0.13936159 0.42417392 -0.24614993 -0.26582226 -0.054351844 -0.34538582 -0.23579814 -0.52707213 0.42117086 0.10758697 -0.050343707
can 0.43266946 -0.30281705 -0.22411545 -0.3980866 0.27007708 0.5129006 0.124247335 0.13968565 0.0059133773 -0.3269671 -0.056167394 0.25168306 -0.6537333 0.015380789 0.058823522 -0.050403994 -0.28962117 0.4081132 -0.012586874 -0.3871194 -0.10344665 -0.029550362 -0.4081473 0.92243516 -0.23856327 -0.3721695 0.37223107 0.42494777 -0.062067334 0.44762298 0.41161343 -0.03311437 0.42003706 0.31558347 -0.15466364 0.0754017 0.03302765 -0.079996064 0.17121832 -0.09181627 -0.045130942 -0.13559195 0.12495132 0.19770122 -0.1680331 0.13204081 0.5522904 -1.3070705 -0.04990337 -0.17301649 -0.2970334 0.041008577 0.32260293 -0.03435579 -0.14539106 0.40752193 0.1392569 -0.124644384 0.09163058 0.15264842 -0.48446092 0.09959112 -0.2874899 0.51334304 -0.39459863 0.16876058 0.02898374 0.4604181 -0.18948567 0.053169418 0.2577149 -0.29584628 0.16199231 0.097689755 0.30375245 0.056566894 0.06235792 -0.027198147 0.10492521 -0.11467366 -0.07986716 0.16115862 0.18351242 -0.35109314 -0.3018527 0.40563014 -0.06155675 0.8820831 -0.4794956 0.15105194 0.44659323 -0.2540723 -0.26430795 -0.03835934 -0.3720843 -0.26054212 -0.53423315 0.45317551 0.11513011 -0.05045202
out 0.43653968 -0.28681853 -0.20074968 -0.4149584 0.2789744 0.54641116 0.12566842 0.17700993 0.06577833 -0.31592184 -0.02436162 0.29501688 -0.6458921 0.018790098 0.045589637 -0.08469091 -0.26402068 0.40091574 -0.026309635 -0.45524266 -0.092901975 0.020718226 -0.41089994 0.95410997 -0.24155748 -0.41883704 0.42140457 0.4047061 -0.0546616 0.46608135 0.4426146 -0.038336024 0.3621669 0.3665682 -0.12456612 0.026060438 0.010232054 -0.109913215 0.24208602 -0.09715073 -0.083771594 -0.18030374 0.10740158 0.2035322 -0.1425878 0.09582665 0.52869046 -1.3517673 -0.015367384 -0.14416702 -0.3233251 0.06660685 0.33609143 -0.02218224 -0.18952624 0.4378136 0.0858967 -0.091600314 0.12960742 0.19668488 -0.5627709 0.08735507 -0.26114973 0.52392036 -0.4300587 0.13123439 0.042401403 0.53847647 -0.22158991 0.11058304 0.33277455 -0.33548132 0.20901445 0.12963773 0.3158581 0.043660097 0.107714325 -0.046522595 0.081294715 -0.108655654 -0.11471482 0.1644792 0.19386068 -0.34262156 -0.26706988 0.38915023 -0.04551478 0.7955017 -0.43696505 0.1353339 0.44249701 -0.28250968 -0.27194226 -0.06776476 -0.36615446 -0.24102052 -0.5352295 0.38281086 0.10918789 -0.032140456
now 0.4312095 -0.2909 -0.28718302 -0.46440026 0.301877 0.57555324 0.18025336 0.106392354 0.12381652 -0.28146482 -0.011096547 0.2894438 -0.59328145 0.060492806 -0.06373841 -0.12575284 -0.28570578 0.48131406 -0.08474686 -0.48120993 -0.12916018 -0.044630162 -0.39145482 1.0578355 -0.22365962 -0.44546682 0.44204718 0.4013211 -0.06757722 0.49884012 0.4902335 -0.03442971 0.3509499 0.42840528 -0.1739057 0.00889445 -0.01611393 -0.10764466 0.19119513 -0.052038264 -0.0978629 -0.24203585 0.06893644 0.2765054 -0.08898963 -0.026406353 0.64057297 -1.332841 0.060564037 -0.16629641 -0.41427955 0.04733431 0.38549146 -0.13522919 -0.21743806 0.4623454 0.07342813 -0.08334415 0.18707104 0.26088154 -0.6149704 0.0754158 -0.19497354 0.5757308 -0.41448325 0.22852957 -0.008586782 0.573578 -0.32959914 0.01892971 0.34632096 -0.2345618 0.276335 0.19679706 0.29987213 0.048652165 0.07003822 0.024667349 0.059015233 -0.15256788 -0.08812114 0.22332458 0.24201286 -0.34370646 -0.2049575 0.46464956 -0.049068887 0.6620456 -0.36499256 0.09840054 0.31926587 -0.2410316 -0.23537184 -0.072938755 -0.26247734 -0.20754737 -0.53260636 0.3719948 0.14777386 -0.16039853
are 0.43767968 -0.30542582 -0.20932542 -0.41801146 0.2933179 0.5272565 0.12466817 0.15838124 0.02227638 -0.3148433 -0.047031358 0.26409432 -0.64597654 0.014229964 0.072892174 -0.06420697 -0.2997898 0.40453526 -0.011390875 -0.41108385 -0.102007195 -0.014774051 -0.40626815 0.9452273 -0.23089848 -0.4009586 0.3903171 0.41198137 -0.06481703 0.46645272 0.43539217 -0.034427077 0.40397206 0.34055924 -0.15003212 0.0526572 0.024428597 -0.099413946 0.19572192 -0.09521831 -0.056617204 -0.16106519 0.12581539 0.20392302 -0.15840666 0.110400826 0.55752105 -1.330446 -0.051431887 -0.17526908 -0.30436343 0.05732553 0.33403543 -0.03288616 -0.16180387 0.41317025 0.11345225 -0.11121578 0.112784535 0.17502034 -0.5094738 0.09321069 -0.28227198 0.5246579 -0.40252665 0.16893551 0.029661452 0.48673686 -0.20995778 0.072666734 0.28665286 -0.30819 0.17374875 0.10443345 0.3077594 0.045523167 0.09192553 -0.033803128 0.11120112 -0.11587066 -0.08990501 0.14277428 0.17340459 -0.33754158 -0.2889724 0.40339285 -0.06697391 0.8588942 -0.47313052 0.14178722 0.44271103 -0.2541051 -0.26314524 -0.048441265 -0.3728246 -0.24078307 -0.54218787 0.435898 0.11478655 -0.037046112
he 0.4235839 -0.2639514 -0.19893956 -0.39615667 0.27014562 0.52911764 0.119467616 0.17585665 0.0392433 -0.31327173 -0.04402057 0.28034794 -0.64156264 0.00945309 0.070052095 -0.06355321 -0.27753523 0.377938 -0.015540324 -0.4134009 -0.094045125 0.010601868 -0.4090063 0.8936557 -0.23917773 -0.38465032 0.3953469 0.40688756 -0.055668328 0.44054446 0.4122117 -0.043007504 0.38012943 0.32823166 -0.13938618 0.049646758 0.012378344 -0.09897136 0.2242181 -0.106565654 -0.07149969 -0.15594825 0.10885455 0.18118636 -0.16495337 0.12735878 0.51671225 -1.3133085 -0.04495241 -0.1376822 -0.29323334 0.06665807 0.31855094 -0.019153226 -0.15191793 0.42239082 0.09557344 -0.11205159 0.11220389 0.1642082 -0.49680436 0.08311188 -0.26316366 0.51418257 -0.40753275 0.12860586 0.042207118 0.4932781 -0.187905 0.0960582 0.2882623 -0.32497454 0.1756346 0.11341791 0.3227991 0.063133895 0.10317048 -0.048293434 0.09126674 -0.10178903 -0.113776185 0.14486514 0.172596 -0.33334738 -0.2843132 0.38513136 -0.056937303 0.83837694 -0.4617248 0.15438692 0.44023034 -0.26929665 -0.2742694 -0.049739126 -0.368759 -0.24425715 -0.51927614 0.40614715 0.10262138 -0.03391449
get 0.4238723 -0.2915775 -0.19503221 -0.399155 0.2765553 0.4993627 0.12661567 0.14775984 0.027105227 -0.31034586 -0.047232136 0.26546374 -0.6428228 0.023355534 0.06306312 -0.05903853 -0.27780983 0.39903963 -0.006523744 -0.3919678 -0.098538 -0.015249214 -0.3990446 0.915508 -0.22875357 -0.39025494 0.37448606 0.40666768 -0.06616541 0.43685943 0.4235796 -0.032193277 0.38024798 0.3280146 -0.15321825 0.06826877 0.026052222 -0.09350287 0.19436851 -0.09373736 -0.060098566 -0.14748023 0.12166619 0.19660883 -0.16825336 0.12709336 0.53164357 -1.3087301 -0.048973743 -0.16952826 -0.2924586 0.042432684 0.31489938 -0.027677434 -0.14915758 0.40456092 0.11612254 -0.11427068 0.114545904 0.15753731 -0.49829385 0.09489302 -0.276682 0.509319 -0.40016353 0.1560921 0.032389227 0.47244257 -0.20599003 0.07960847 0.27665922 -0.31554767 0.16894683 0.10360785 0.31028324 0.048436075 0.08087795 -0.034596033 0.09415084 -0.111720316 -0.09336527 0.15317522 0.17948622 -0.34184787 -0.29926887 0.38739386 -0.05956689 0.8482102 -0.4613273 0.14959796 0.4340823 -0.25682405 -0.27657574 -0.04816119 -0.3710811 -0.2512483 -0.53619057 0.43034974 0.115031414 -0.035685163
no 0.4651345 -0.31547153 -0.21404113 -0.4245578 0.3040602 0.56450325 0.1408389 0.15146321 0.042729184 -0.33009 -0.051314376 0.28580847 -0.68897897 0.030654559 0.051671382 -0.08608507 -0.30226243 0.440797 -0.033850454 -0.4408885 -0.10032808 -0.0057651917 -0.42381042 1.0017674 -0.24911344 -0.42853367 0.42836264 0.4397095 -0.062010936 0.47725385 0.46360636 -0.034742914 0.3966562 0.35599717 -0.1623435 0.063640505 0.022905348 -0.09609477 0.2237101 -0.08890684 -0.078998156 -0.16696095 0.12983102 0.21453975 -0.1572215 0.11442383 0.58956605 -1.4190922 -0.03952849 -0.1744992 -0.32898757 0.054253608 0.36311486 -0.048793957 -0.17348538 0.4435377 0.1277326 -0.10515004 0.14198978 0.17780855 -0.543908 0.097659685 -0.27655292 0.55930996 -0.4405773 0.16898121 0.036233358 0.5463174 -0.22985983 0.093630046 0.3215355 -0.3383147 0.19611497 0.13158669 0.33346942 0.06281125 0.099244006 -0.045487463 0.09350117 -0.120161526 -0.11264678 0.16716832 0.20904973 -0.37497994 -0.3222632 0.42936933 -0.051988687 0.8990944 -0.49079978 0.16352893 0.46853167 -0.27435976 -0.29149148 -0.058285125 -0.40188465 -0.257984 -0.5662814 0.44245914 0.13619201 -0.047766764
we 0.42243612 -0.24293959 -0.0798507 -0.3364468 0.28025004 0.61465585 0.14184202 0.23819937 0.17590213 -0.30581045 0.038537975 0.37790516 -0.61675036 0.048300352 0.018429084 -0.13310216 -0.18236801 0.40646517 -0.103646666 -0.55001736 -0.0607224 0.12105789 -0.35875654 0.9332433 -0.26371208 -0.44248295 0.46917376 0.37773722 -0.037044764 0.44282722 0.40483898 -0.04151138 0.22015785 0.37392217 -0.093610965 -0.024842655 0.032346446 -0.09287714 0.39667842 -0.08323482 -0.19868219 -0.23103279 0.17164813 0.13405445 -0.10548311 0.05786456 0.45221546 -1.3520927 0.00520775 -0.08309485 -0.36699897 0.11498358 0.37979388 -0.024847817 -0.26778442 0.4574551 0.06878078 -0.02255052 0.23606417 0.20717636 -0.6044257 0.1153043 -0.19551282 0.5320692 -0.5033411 0.016007856 0.07208213 0.6055538 -0.18701155 0.22056909 0.45264792 -0.42601213 0.25229263 0.16691415 0.36169302 0.1055398 0.23905909 -0.12938234 0.014719045 -0.025852617 -0.2348861 0.16366707 0.24498595 -0.42304093 -0.26474515 0.36162236 0.019988172 0.7948752 -0.43781227 0.14733411 0.4932241 -0.3594441 -0.31470907 -0.13865604 -0.51795715 -0.23068818 -0.48594865 0.30514184 0.21976086 0.05723096
some 0.4207734 -0.27480292 -0.19297281 -0.40448013 0.2859317 0.5355446 0.12138721 0.17012046 0.050110467 -0.31261516 -0.029339032 0.2869197 -0.6399854 0.019651622 0.061057873 -0.08014718 -0.2673128 0.39164525 -0.0160383 -0.4322996 -0.087895826 0.013399915 -0.39993843 0.9281278 -0.23206249 -0.39453053 0.40718168 0.39578107 -0.061176654 0.44741687 0.42258275 -0.03991103 0.3629787 0.34144115 -0.137893 0.038489744 0.008197319 -0.09273463 0.23746264 -0.09908252 -0.076398484 -0.16606523 0.12583652 0.1902001 -0.15154168 0.11080141 0.5267513 -1.3286545 -0.028058125 -0.14498346 -0.31019646 0.06420503 0.3323258 -0.024641559 -0.16851442 0.42534095 0.10234617 -0.09008923 0.1267232 0.17380138 -0.53263897 0.09685077 -0.26319477 0.52047384 -0.42751867 0.13074236 0.045495197 0.51464295 -0.20211926 0.09766475 0.3126661 -0.33625227 0.19110887 0.11753171 0.31982625 0.045525808 0.113180935 -0.052703407 0.08572782 -0.11035642 -0.11252814 0.15326095 0.17456472 -0.33726186 -0.27918118 0.38198602 -0.045374002 0.8082839 -0.44655624 0.14171568 0.43865559 -0.26549363 -0.2651855 -0.070273176 -0.3819856 -0.23492642 -0.5299849 0.39720264 0.11312506 -0.035873935
what 0.44562742 -0.3201712 -0.21069106 -0.41423503 0.2895202 0.50860375 0.1340347 0.12843774 0.012173568 -0.32516333 -0.0694023 0.25293714 -0.6738316 0.017898384 0.06868177 -0.06782341 -0.31248876 0.41725257 -0.008854466 -0.38756275 -0.10299357 -0.040329568 -0.42075548 0.94622785 -0.22644979 -0.39184123 0.3755899 0.4198317 -0.05944812 0.46414846 0.43722537 -0.026719086 0.41147006 0.32869408 -0.16300541 0.09074151 0.030257361 -0.09509324 0.16921274 -0.09307784 -0.05617366 -0.14175922 0.11728587 0.20577702 -0.17351678 0.12572911 0.57997555 -1.3379322 -0.05758446 -0.19437517 -0.3044259 0.030775752 0.33812347 -0.057450093 -0.1558225 0.40742126 0.13117272 -0.11677162 0.10960129 0.14815755 -0.49198675 0.09200566 -0.29106334 0.52330303 -0.39458168 0.18664132 0.03221095 0.47624037 -0.20989168 0.05994377 0.2616183 -0.2987485 0.15796399 0.10458756 0.31252137 0.05358093 0.07622158 -0.021184998 0.11115231 -0.12038797 -0.07270948 0.16091345 0.18138891 -0.3549199 -0.3244548 0.41721585 -0.07564874 0.8878641 -0.484204 0.15560287 0.44557858 -0.24948986 -0.28721556 -0.039083246 -0.37341765 -0.2668887 -0.55091476 0.46074742 0.12584408 -0.060019825
if 0.42343003 -0.27949804 -0.19051725 -0.40018272 0.28235868 0.5185252 0.12389927 0.16502558 0.0352234 -0.30620596 -0.051272605 0.27558067 -0.6350924 0.017776933 0.056888524 -0.067858204 -0.2781208 0.3949528 -0.013033261 -0.41638944 -0.09224532 -0.0010163243 -0.40113693 0.91681796 -0.23179519 -0.38435593 0.3985626 0.407739 -0.06684965 0.43712938 0.4215194 -0.035396315 0.3709739 0.32951608 -0.14848581 0.049669035 0.016869366 -0.091004364 0.21811736 -0.09740209 -0.071957 -0.15540949 0.12374725 0.19851802 -0.16909942 0.12745392 0.53154993 -1.3204477 -0.039772335 -0.15606228 -0.2999817 0.0672733 0.31795567 -0.020011136 -0.1669707 0.41989997 0.1098865 -0.106875814 0.123733796 0.1589947 -0.509327 0.089236885 -0.27175775 0.51794744 -0.4069054 0.13963537 0.04802443 0.49943236 -0.20332915 0.091125436 0.2929647 -0.3218365 0.17803214 0.1190676 0.3193543 0.059149392 0.09823191 -0.04319158 0.08767612 -0.10457878 -0.10583214 0.15900593 0.17834517 -0.3443727 -0.29305384 0.38874748 -0.04377488 0.83527786 -0.4550254 0.14344284 0.44051796 -0.26594076 -0.27487105 -0.053978257 -0.37341544 -0.24880338 -0.5277217 0.40848646 0.12027902 -0.0338016
dissolve 0.2613652 0.23307294 0.28387415 -0.18200266 0.13448495 0.8187415 0.058320746 0.71587694 0.66793436 -0.13368917 0.3664798 0.76398426 -0.30065116 0.059228893 -0.04477039 -0.29735303 0.28015575 0.051106647 -0.2847211 -1.0701419 0.0988945 0.6698533 -0.28457513 0.77741164 -0.36294487 -0.49827942 0.8412207 0.10780313 0.0060094735 0.39411944 0.24205323 -0.09752447 -0.3032768 0.5526462 0.23433319 -0.5493141 -0.10327716 -0.12813015 1.1233106 -0.19892362 -0.42213818 -0.52785516 0.1225324 -0.0016881725 0.06894913 -0.039783783 -0.15149741 -1.198116 0.3077721 0.39533308 -0.47663724 0.47840416 0.3069167 0.25885233 -0.5592196 0.7433637 -0.3326217 0.2867249 0.48137042 0.43783355 -1.0284338 0.08820594 0.07682477 0.49359608 -0.825808 -0.5524664 0.27172953 1.0128628 -0.14900349 0.7547743 0.9851157 -0.8139656 0.5657586 0.34048638 0.41120622 0.111090526 0.6227862 -0.4929769 -0.28204072 0.17651251 -0.70076954 0.12246831 0.3228469 -0.39778414 0.0819991 0.01858409 0.29313663 0.103047736 -0.07828328 0.12855476 0.52165383 -0.67481625 -0.2346481 -0.41729563 -0.71638715 -0.12390413 -0.1438144 -0.4697947 0.22722374 0.42277667
at 0.43908042 -0.2824713 -0.17725979 -0.38604066 0.26901495 0.531129 0.13812731 0.15783897 0.04589815 -0.31466803 -0.034969594 0.2785178 -0.6378454 0.02082318 0.04899842 -0.07535141 -0.27351648 0.39922187 -0.025865765 -0.42014083 -0.08881972 -0.002075898 -0.40487644 0.9242605 -0.23733455 -0.39687264 0.3947249 0.39819086 -0.056887127 0.4575718 0.42131278 -0.027881347 0.36421755 0.3251322 -0.12986736 0.05116549 0.031745974 -0.08396499 0.22390679 -0.097413644 -0.08291803 -0.14707272 0.122817256 0.1819756 -0.15464304 0.11924249 0.5264104 -1.324308 -0.04119758 -0.15941367 -0.30218884 0.057237104 0.33126095 -0.038088083 -0.1596283 0.42206693 0.10388366 -0.09655455 0.12910843 0.16789854 -0.49959764 0.107969925 -0.25156727 0.51462424 -0.41346353 0.14657456 0.04570886 0.5052215 -0.19565365 0.104090236 0.30246317 -0.33321154 0.19075127 0.119442835 0.31992194 0.0645802 0.1091601 -0.05364791 0.0864226 -0.104565635 -0.10813601 0.15799333 0.19251896 -0.3584601 -0.30631867 0.40636584 -0.057335846 0.849446 -0.46302357 0.14574797 0.44782773 -0.26382467 -0.29162654 -0.056896593 -0.39846092 -0.25385624 -0.5185117 0.41182637 0.12168952 -0.021603376
she 0.43134978 -0.28996354 -0.12313817 -0.40379903 0.26814923 0.53460735 0.11741825 0.14724529 0.043828543 -0.30013457 -0.05231751 0.2767569 -0.62939477 0.009330184 0.049462654 -0.035732016 -0.2543883 0.3876112 -0.022453621 -0.37579912 -0.07478963 0.0028772682 -0.40410972 0.885038 -0.22575492 -0.4056237 0.38586098 0.3924258 -0.015147069 0.41507855 0.41527045 -0.009151556 0.34886533 0.31227785 -0.14387996 0.07372201 0.030664187 -0.080445305 0.2531257 -0.08309086 -0.0790119 -0.1300133 0.11982403 0.2055554 -0.16416882 0.09226304 0.4964909 -1.2706312 -0.06711952 -0.13834941 -0.28848094 0.022112982 0.31624186 -0.012491651 -0.18570848 0.38937607 0.12014801 -0.03861686 0.11777988 0.13906145 -0.4707753 0.09638622 -0.25565106 0.4985165 -0.38617334 0.118345276 0.048384525 0.46133655 -0.19503988 0.09800642 0.29053515 -0.33308285 0.15423985 0.08103514 0.28576055 0.06875085 0.07737298 -0.021684768 0.072615184 -0.06589897 -0.10237662 0.17495735 0.17602749 -0.32174528 -0.28665903 0.37734175 -0.07794503 0.8467941 -0.4617505 0.131818 0.48534477 -0.29794273 -0.3050947 -0.047914833 -0.41944057 -0.23591045 -0.5116481 0.4213046 0.09243644 -0.02399258
kidney 0.316138 0.2564419 0.21611486 -0.20221207 0.08324846 0.879334 0.088693656 0.76441115 0.68647784 -0.12178673 0.39098436 0.7782758 -0.2617393 0.06773288 -0.087352574 -0.35256353 0.29566404 0.10048841 -0.2340108 -1.0519218 0.058633912 0.7282757 -0.23281254 0.8459404 -0.44017392 -0.55003595 0.8817127 0.12807545 0.015743233 0.38336784 0.20345093 -0.17442521 -0.3206727 0.5328673 0.28104925 -0.6170382 -0.061582368 -0.132623 1.1720119 -0.22195458 -0.48057818 -0.5606406 0.12738666 -0.0054605813 0.086348794 -0.033231802 -0.22057296 -1.2121907 0.34061393 0.39726725 -0.45393643 0.52478904 0.2992889 0.23292066 -0.64892095 0.7629846 -0.38514668 0.2785665 0.4894727 0.44681317 -1.0144997 0.08132688 0.09348311 0.46794987 -0.88222057 -0.5692941 0.3299552 1.0355756 -0.17262028 0.80957794 1.0120013 -0.8194444 0.5488935 0.39446205 0.45594046 0.10832898 0.6913145 -0.54930127 -0.2550569 0.15683034 -0.75603986 0.113289125 0.27720228 -0.36170316 0.1122014 -0.02650882 0.3453024 0.028149672 -0.016980862 0.096018225 0.54124385 -0.7135056 -0.28496024 -0.3961018 -0.7159051 -0.11376616 -0.14933395 -0.5143755 0.26687333 0.40315026
got 0.40420762 -0.25418946 -0.1743507 -0.37197092 0.2574599 0.48782402 0.12153028 0.14256884 0.04433362 -0.28161722 -0.030464502 0.25800654 -0.5912925 0.026381137 0.041916206 -0.06993877 -0.26073065 0.37819225 -0.030644858 -0.39213544 -0.092998184 0.0016730058 -0.37933162 0.8599324 -0.2200072 -0.37263864 0.38049513 0.37351933 -0.061086718 0.42734537 0.39829415 -0.03173574 0.33326906 0.3216023 -0.123822734 0.04604798 0.018544847 -0.08378946 0.21584421 -0.088390425 -0.077740856 -0.14469953 0.10388749 0.18224385 -0.13343522 0.10263428 0.4878638 -1.2279701 -0.024295041 -0.14578041 -0.28779003 0.059673816 0.3043583 -0.03473834 -0.15266615 0.3918332 0.088059984 -0.08760867 0.12342466 0.16395594 -0.48193318 0.089638226 -0.23732057 0.4793912 -0.38416934 0.13206553 0.040838305 0.47572556 -0.1900728 0.090551846 0.2788098 -0.30375558 0.17735422 0.11695236 0.2935141 0.05625328 0.09790792 -0.04389846 0.07504547 -0.10343546 -0.104151264 0.15031701 0.18125258 -0.32215625 -0.25669968 0.36604294 -0.036557574 0.7629017 -0.41390017 0.13873793 0.40861726 -0.2525532 -0.25837582 -0.058630522 -0.3528098 -0.22400652 -0.48434365 0.37678644 0.108893335 -0.03608494
listen 0.33378866 -0.31613907 -0.4037636 -0.487478 0.3398327 0.3621262 0.17673482 -0.045425367 0.08931558 -0.21465884 -0.015277521 0.20094325 -0.47016782 0.010618563 -0.08356419 -0.101015106 -0.29795885 0.4215525 -0.10838687 -0.33613327 -0.21006271 -0.1525773 -0.25252777 1.0110579 -0.013280066 -0.38155034 0.29827958 0.28281587 -0.11271858 0.5011162 0.5448118 -0.044532564 0.38025743 0.5252812 -0.16646728 -0.039472874 -0.12656577 -0.2284418 -0.025243744 -0.032427832 0.02366502 -0.32188198 0.057217132 0.39831528 0.049769323 -0.16188891 0.7101823 -1.0570053 0.12336839 -0.2451552 -0.42558154 -0.020166116 0.3541967 -0.1975913 -0.21838413 0.30798146 0.019775927 -0.1204096 0.14049073 0.4097027 -0.6560947 0.008323235 -0.17090063 0.46482643 -0.2672825 0.39600584 -0.10711232 0.40748984 -0.4432123 -0.18886136 0.26982194 -0.0015849151 0.30551574 0.2687978 0.17578539 -0.14445741 -0.057454936 0.16067837 0.107285306 -0.28537443 0.067132615 0.2167965 0.0913798 -0.15487345 0.0446896 0.3932581 -0.021174787 0.21389373 -0.11481238 -0.045156043 0.027693428 -0.073686264 -0.048989747 -0.045920067 0.16025159 -0.10086736 -0.50976616 0.2933418 0.06936891 -0.34419614
tramadol 0.46253076 -0.3049586 -0.1801586 -0.4565739 0.30670166 0.6136366 0.15819749 0.22156012 0.103010416 -0.34595767 0.005897287 0.35452607 -0.6921753 0.013364485 0.05554901 -0.0896898 -0.25040826 0.4213057 -0.033643436 -0.534005 -0.08183015 0.06407176 -0.45321897 1.0492495 -0.2793139 -0.46741688 0.47234073 0.41752768 -0.030818405 0.49532294 0.4522777 -0.039208617 0.3743663 0.41335717 -0.10707598 -0.009141619 0.021090984 -0.10879653 0.34262028 -0.12490734 -0.10476695 -0.22903459 0.12469304 0.2076923 -0.14045441 0.09641438 0.5295674 -1.4655484 -0.016650688 -0.12395998 -0.36789724 0.07507388 0.34313852 -0.0102958735 -0.22121932 0.51632553 0.07037014 -0.07712473 0.14879167 0.22694618 -0.63047254 0.097988896 -0.29015112 0.59888977 -0.49220785 0.10751387 0.05611843 0.6038508 -0.24091844 0.17067477 0.3812718 -0.3900901 0.24448234 0.1626644 0.3690681 0.047591772 0.13399595 -0.06601505 0.09412223 -0.092771895 -0.16713533 0.17776075 0.23352687 -0.37400424 -0.28121504 0.42718118 -0.03592425 0.8684472 -0.47024477 0.15641189 0.47966427 -0.3204728 -0.30951974 -0.093722634 -0.43458492 -0.2690896 -0.55918705 0.40072235 0.10459349 -0.0043041823
or 0.43950745 -0.29168496 -0.20177484 -0.40265998 0.28386804 0.52594995 0.13302438 0.15540443 0.041886788 -0.31699783 -0.051898517 0.27474058 -0.64826804 0.015088201 0.05338186 -0.074445106 -0.2834329 0.40233415 -0.010894711 -0.40899646 -0.09326452 -0.004163783 -0.41446108 0.9370183 -0.23970269 -0.386926 0.37949038 0.40796858 -0.06397534 0.45945498 0.41716015 -0.03745263 0.37490416 0.32599628 -0.14566396 0.06084019 0.026940955 -0.084779106 0.21810238 -0.0977088 -0.065339185 -0.15074682 0.114173256 0.18318495 -0.15933101 0.12574485 0.53502375 -1.3310045 -0.04108504 -0.16312075 -0.3081674 0.057967883 0.3343949 -0.04435738 -0.15831617 0.42332754 0.118638545 -0.10028456 0.1214279 0.15504208 -0.49802575 0.09689334 -0.26676634 0.5181149 -0.4110239 0.14876793 0.036146604 0.5045228 -0.20772564 0.08194734 0.288315 -0.32419384 0.18253572 0.11304254 0.3231986 0.05505923 0.09669144 -0.039997086 0.0871737 -0.11217663 -0.09914534 0.1617723 0.19270532 -0.35027993 -0.30340272 0.40117854 -0.04818976 0.86015135 -0.47945303 0.15850778 0.44437546 -0.26031873 -0.28432143 -0.051609937 -0.39000645 -0.2514207 -0.5403603 0.4301831 0.12552199 -0.030706024
shit 0.42100444 -0.28386402 -0.20137481 -0.39141917 0.274336 0.5052385 0.12583025 0.14198105 0.030171549 -0.30229032 -0.046426717 0.25826892 -0.6316371 0.018562716 0.05667806 -0.07162845 -0.2756307 0.4006931 -0.025392728 -0.40087798 -0.09539637 -0.015795683 -0.3899639 0.90663356 -0.23084135 -0.38494498 0.38717407 0.40501684 -0.061022285 0.432311 0.41727075 -0.036028437 0.3779236 0.32466346 -0.14396968 0.06332688 0.023006035 -0.092384525 0.19818269 -0.08286164 -0.06511698 -0.15139869 0.11073551 0.19261602 -0.16126738 0.10958192 0.5371845 -1.2973884 -0.03637983 -0.15612578 -0.29800174 0.057646472 0.32685447 -0.04256489 -0.14661153 0.401512 0.11183626 -0.10304562 0.121465795 0.1551441 -0.4911934 0.08647065 -0.2643068 0.50984377 -0.3997545 0.15483424 0.0367258 0.49245906 -0.19961315 0.07036576 0.27737874 -0.30789602 0.17855924 0.11351503 0.2992458 0.06027884 0.09422309 -0.040865056 0.092623666 -0.112009384 -0.10336792 0.15885079 0.18856671 -0.3334592 -0.2925261 0.39093617 -0.049227368 0.8257084 -0.45188722 0.14726105 0.42734402 -0.25634193 -0.27499834 -0.05334503 -0.3651341 -0.23973912 -0.5175605 0.4097796 0.11333983 -0.043406446
from 0.48501852 -0.34816954 -0.22052155 -0.4534013 0.32314518 0.57786864 0.15420389 0.16923426 0.034790065 -0.3602297 -0.049909625 0.30069435 -0.72753966 0.035687625 0.06835619 -0.08135698 -0.31826392 0.4550903 -0.02419412 -0.46089128 -0.11400855 -0.008248131 -0.45145547 1.0595058 -0.26458582 -0.445476 0.43964094 0.45255038 -0.053252537 0.50860375 0.48311007 -0.038117558 0.4213372 0.38325486 -0.16152744 0.05698929 0.028446909 -0.10932532 0.23361245 -0.10416728 -0.07883029 -0.16957264 0.1380271 0.22611968 -0.16368423 0.1129891 0.6141936 -1.4720553 -0.0426327 -0.18670149 -0.35402438 0.0397858 0.37274432 -0.048280824 -0.18294348 0.46471566 0.12738146 -0.11401038 0.12908134 0.19566476 -0.5693421 0.11283661 -0.29764095 0.59080535 -0.45261386 0.1826686 0.03828195 0.55071855 -0.24381848 0.0886013 0.3190683 -0.3522354 0.20570791 0.12784658 0.34415704 0.051818743 0.09203485 -0.039261334 0.11933523 -0.12127548 -0.11226295 0.1811673 0.20828712 -0.39215428 -0.33341345 0.45884606 -0.06393561 0.94626355 -0.5163562 0.16370961 0.49112585 -0.2870841 -0.31652594 -0.053120878 -0.42968956 -0.27185333 -0.5960563 0.47798333 0.12245464 -0.04436546
your 0.45132586 -0.31125486 -0.20045719 -0.40609375 0.2968567 0.5301037 0.13764311 0.15268978 0.022912167 -0.34066933 -0.06278672 0.2732446 -0.67446476 0.0195812 0.06558373 -0.06373288 -0.2977888 0.420715 -0.012432127 -0.4105747 -0.099062815 -0.020854115 -0.41997862 0.9628934 -0.23571417 -0.40328595 0.39198557 0.42199957 -0.060123634 0.46464914 0.44011417 -0.029598475 0.40818423 0.32973528 -0.15609233 0.07926287 0.025420696 -0.097720325 0.20209636 -0.0983392 -0.06673663 -0.1414627 0.1352375 0.20382635 -0.16992211 0.13702708 0.56647676 -1.374609 -0.059228778 -0.17599903 -0.30979162 0.03319734 0.34293413 -0.043011174 -0.16185446 0.4211952 0.12588595 -0.12047056 0.11137435 0.15750708 -0.5033328 0.102234975 -0.2886532 0.5404016 -0.40689534 0.17689353 0.03578319 0.50214267 -0.21317545 0.06895867 0.27639517 -0.32060418 0.1701929 0.11449503 0.317574 0.054308593 0.083877206 -0.03758157 0.107584275 -0.114899 -0.089959666 0.15954593 0.18393044 -0.35933486 -0.3213908 0.41908887 -0.05966369 0.89943904 -0.50161606 0.15142265 0.46727303 -0.26374173 -0.2876759 -0.039702564 -0.40253025 -0.26539817 -0.5618416 0.45338777 0.12307539 -0.03779724
its 0.40437385 -0.2608817 -0.18379954 -0.38346604 0.26595214 0.5040243 0.11540337 0.17016158 0.055663798 -0.30089915 -0.02546297 0.2738729 -0.6131015 0.016685652 0.049415585 -0.07256548 -0.25650546 0.37531328 -0.029425034 -0.4200328 -0.096584894 0.015931847 -0.37687972 0.89653856 -0.22055823 -0.37832436 0.38977307 0.37909245 -0.0625421 0.4305176 0.4090446 -0.0313468 0.3514144 0.32841063 -0.13141268 0.028340058 0.01492346 -0.089757174 0.23152341 -0.097349085 -0.07358789 -0.15796848 0.11577973 0.18802999 -0.14374354 0.10172539 0.5069758 -1.2665628 -0.029189164 -0.14047933 -0.3060397 0.066793844 0.3209221 -0.024324864 -0.16606078 0.40700173 0.08895261 -0.0973141 0.12537758 0.16676861 -0.5114224 0.083770886 -0.25253087 0.49453342 -0.40370533 0.125453 0.045470756 0.48870802 -0.20532265 0.093577616 0.3026667 -0.31063056 0.1836411 0.122424595 0.3053539 0.05393997 0.10999599 -0.05196402 0.07491913 -0.10144715 -0.1166731 0.14458422 0.18072325 -0.33108872 -0.2654427 0.37532046 -0.031706985 0.78320295 -0.4393802 0.14328077 0.4275897 -0.2639615 -0.256041 -0.061634086 -0.37183753 -0.23334621 -0.49537346 0.37411737 0.11937171 -0.03311695
take 0.398083 -0.27320626 -0.18527497 -0.3643231 0.24989936 0.46888205 0.12538622 0.1317292 0.010931475 -0.2872196 -0.051095285 0.23491228 -0.60559577 0.0169234 0.061979763 -0.050394546 -0.263079 0.37265167 -0.011366716 -0.35479787 -0.09304323 -0.020357603 -0.37813303 0.846081 -0.21032585 -0.3534487 0.34254044 0.38089272 -0.05750625 0.3994597 0.3976738 -0.025128465 0.36376697 0.2907128 -0.14534493 0.064762115 0.017964363 -0.06950808 0.17906213 -0.0927718 -0.04920922 -0.12388485 0.1140804 0.18168528 -0.15418787 0.1292239 0.5025158 -1.2146465 -0.04863542 -0.15366302 -0.26745087 0.042557072 0.29366812 -0.024964321 -0.12791656 0.37870887 0.10894113 -0.10045366 0.09338019 0.14025113 -0.45214036 0.08074013 -0.2646505 0.4736787 -0.37126076 0.15015565 0.030610561 0.4410085 -0.17839734 0.06721509 0.23932463 -0.2750735 0.15170987 0.0884721 0.29108396 0.05360407 0.07708526 -0.03146594 0.09104665 -0.10213722 -0.08967216 0.14894974 0.16912451 -0.31692785 -0.27937546 0.36969784 -0.054229703 0.797433 -0.43760017 0.14010103 0.41630492 -0.239132 -0.25529325 -0.037319575 -0.33902484 -0.23222446 -0.4940792 0.40430903 0.1040868 -0.046498533
one 0.4096955 -0.30284277 -0.23215327 -0.42732337 0.31233412 0.47848064 0.12406245 0.13453412 0.040552158 -0.3092266 -0.034780804 0.25654268 -0.6178119 0.0022696955 0.05478187 -0.0681982 -0.28372636 0.3940049 -0.030499604 -0.40833747 -0.11290073 -0.014264904 -0.36293766 0.9531018 -0.16337475 -0.40080327 0.36939347 0.37115225 -0.075348 0.46837464 0.4579569 -0.034857213 0.39075473 0.40006724 -0.13673086 0.026811577 -0.015759755 -0.14482355 0.16618323 -0.09005297 -0.052600164 -0.2016969 0.12585303 0.2476012 -0.12469447 0.07005343 0.57093066 -1.2795136 -0.020499296 -0.18118416 -0.33420086 0.033597514 0.3278536 -0.05560174 -0.18162751 0.38755277 0.086653665 -0.11372144 0.1139126 0.23422866 -0.5543497 0.07857356 -0.26116487 0.5061242 -0.37327778 0.20239684 0.016525727 0.4703872 -0.26602468 0.034705475 0.29299185 -0.2700979 0.21850461 0.14694795 0.28599223 -0.01644278 0.065846026 -0.0045924783 0.110065535 -0.14318626 -0.06453255 0.14957069 0.13917144 -0.29149863 -0.21610764 0.3781955 -0.048732363 0.7043265 -0.39044103 0.104385704 0.36086008 -0.22388682 -0.22580035 -0.06394893 -0.26553664 -0.21434473 -0.5499603 0.39399487 0.094269894 -0.09061509
diet 0.31488413 -0.17279868 -0.12939022 -0.31210706 0.21010354 0.43263882 0.10283545 0.1802065 0.092541516 -0.23174328 0.0062724715 0.27086425 -0.46585068 0.0067368215 0.042591017 -0.082035504 -0.18088657 0.27220285 -0.028932635 -0.39458075 -0.051197223 0.068006836 -0.30069295 0.7200297 -0.17411274 -0.30928895 0.3500125 0.2856778 -0.04817009 0.35390657 0.33461472 -0.0434818 0.24747546 0.31952146 -0.062213387 -0.03939682 -0.009459542 -0.08944525 0.24206328 -0.10392949 -0.071360745 -0.18676448 0.08780248 0.14891893 -0.09213833 0.060432903 0.37104645 -1.0384297 0.012760876 -0.08106989 -0.25475222 0.09444027 0.25274128 0.006749871 -0.1753809 0.36254382 0.017900998 -0.05022567 0.11978778 0.17824554 -0.47446248 0.066103056 -0.17446144 0.40454644 -0.35644776 0.060305264 0.057446774 0.45062712 -0.16967632 0.116828285 0.30040345 -0.2912568 0.1860165 0.13269632 0.2576489 0.023250436 0.13198414 -0.07697999 0.048518624 -0.07430231 -0.12342422 0.10594786 0.122128434 -0.23521198 -0.15783831 0.25076815 -0.007833307 0.52039725 -0.2792063 0.10277788 0.3107205 -0.22384521 -0.17820503 -0.0650153 -0.2719018 -0.15524201 -0.37915227 0.2408234 0.076910295 -0.0029368124
dreaming 0.4109769 -0.31305215 -0.4592205 -0.39776 0.17857102 0.58058816 0.3326143 -0.21878077 0.33669522 -0.09329486 0.037429933 0.202209 -0.32904795 0.26975402 -0.43060854 -0.304155 -0.2444154 0.6843551 -0.27429664 -0.42217514 -0.19376053 -0.29636946 -0.2874653 1.1005565 -0.30493808 -0.43426692 0.49919707 0.39586818 -0.009619897 0.4371768 0.44110492 -0.014595418 0.10364211 0.3713082 -0.26919305 0.03514525 -0.020035561 0.07431561 0.00026581003 0.19187102 -0.1478951 -0.2574701 -0.09912696 0.38079974 0.12822787 -0.4144032 0.8049345 -0.97341406 0.27795723 -0.21172738 -0.5142204 -0.049695216 0.48540792 -0.44515198 -0.17236187 0.4360947 0.064311944 0.05441124 0.3699495 0.2781901 -0.5274912 0.03265352 0.087721094 0.5657612 -0.26335314 0.36156452 -0.1243037 0.6104145 -0.43267712 -0.17818835 0.3194357 0.10011927 0.2961162 0.28783312 0.18790482 0.22150612 -0.021550456 0.1498686 -0.06457528 -0.13927536 -0.10062527 0.45402205 0.55863816 -0.3585701 -0.08604607 0.6404319 -0.073874034 0.2630412 -0.18049242 0.036802933 -0.044128627 -0.18265167 -0.14667661 -0.05162766 -0.08258013 -0.14202355 -0.28292125 0.2593777 0.3019602 -0.5127738
about 0.46449327 -0.30828792 -0.21230322 -0.4267625 0.2910936 0.56828374 0.13622336 0.16433775 0.04176107 -0.33322972 -0.05146436 0.29205316 -0.693896 0.023246298 0.057520244 -0.07549595 -0.3022436 0.44004187 -0.025198225 -0.44569415 -0.10445465 -0.010322842 -0.43462387 0.99300677 -0.25772914 -0.42876387 0.42741555 0.43639016 -0.06436175 0.4865422 0.45027724 -0.032988835 0.40441236 0.3575096 -0.16354279 0.06293736 0.028111994 -0.09749028 0.2372735 -0.10319824 -0.07687743 -0.15828659 0.12375159 0.2040447 -0.16642706 0.12520976 0.5853591 -1.4239955 -0.035010718 -0.16528144 -0.33249184 0.061598625 0.35503134 -0.035290133 -0.17916006 0.44786853 0.11731144 -0.11125658 0.13163327 0.17969531 -0.54316604 0.09471849 -0.2914305 0.562607 -0.43633848 0.16136947 0.03712026 0.5434767 -0.21886858 0.0861828 0.3056704 -0.34043744 0.19290878 0.11599006 0.34355584 0.07002996 0.09466751 -0.0438687 0.091665946 -0.10961936 -0.11675749 0.17831413 0.21438676 -0.37226102 -0.31345877 0.43685699 -0.058209755 0.9034583 -0.5065014 0.1669511 0.4817337 -0.28303385 -0.29870763 -0.04956662 -0.405999 -0.2721448 -0.5675899 0.44384488 0.13405989 -0.03831982
more 0.39168313 -0.27797115 -0.18700631 -0.36954942 0.2567421 0.4689948 0.10407826 0.13453029 0.010960106 -0.29402596 -0.048008677 0.23716088 -0.59014946 0.017564502 0.06659797 -0.049583066 -0.25756386 0.37152618 -0.015175963 -0.36903948 -0.084733784 -0.018357227 -0.38027802 0.8421461 -0.21019311 -0.35020205 0.35321194 0.3722076 -0.05604282 0.41590673 0.38534123 -0.034543443 0.35737553 0.30426157 -0.13685852 0.06791842 0.024255715 -0.07978065 0.17005035 -0.0902316 -0.054599773 -0.12592122 0.10635597 0.18589747 -0.15510334 0.12054157 0.50135654 -1.2043196 -0.04636102 -0.1449657 -0.2728988 0.041707918 0.29955184 -0.034476332 -0.13179907 0.37546924 0.11318255 -0.10620577 0.08755207 0.14164077 -0.4480258 0.080055766 -0.2512046 0.47276324 -0.35660186 0.15193573 0.029117487 0.4323595 -0.18783073 0.058156762 0.25223836 -0.29038563 0.1489888 0.09265392 0.28627503 0.05011758 0.06416272 -0.030170271 0.0932762 -0.10789767 -0.073019594 0.14078987 0.15941708 -0.3029881 -0.27375755 0.36559528 -0.054777935 0.7887804 -0.4343121 0.1340768 0.40887004 -0.2330928 -0.24332027 -0.040816136 -0.3438311 -0.22719358 -0.50211495 0.40525055 0.093911305 -0.041480374
as 0.47248653 -0.32254997 -0.21181102 -0.41469112 0.2995523 0.5509578 0.15283157 0.14606164 0.04570068 -0.3382185 -0.05941538 0.28326002 -0.6944246 0.04347998 0.040830337 -0.09477144 -0.3068368 0.45108023 -0.037445538 -0.43473187 -0.10749343 -0.033361766 -0.41573164 1.0181085 -0.24272397 -0.42203444 0.41999638 0.44861698 -0.056736354 0.49417138 0.4618818 -0.03791783 0.3865888 0.35419786 -0.16368727 0.062295906 0.028681891 -0.08914381 0.2195218 -0.08056538 -0.07569804 -0.15630312 0.12795182 0.22073969 -0.15484025 0.10391029 0.59500134 -1.4222766 -0.03813959 -0.18261251 -0.33579025 0.047804512 0.3730095 -0.058699775 -0.1621133 0.4278254 0.13716571 -0.10697581 0.14536747 0.17440207 -0.5361325 0.11621879 -0.2764429 0.5623897 -0.42141718 0.17819846 0.038287673 0.54455477 -0.22513273 0.073015235 0.29603758 -0.33199766 0.1977367 0.12861833 0.33737132 0.07601904 0.09335086 -0.031740107 0.09107018 -0.1073281 -0.103473805 0.16908921 0.21557271 -0.38170794 -0.34112853 0.44934216 -0.05860691 0.9077882 -0.51379234 0.1632837 0.46329895 -0.2729823 -0.29859802 -0.054742888 -0.41413513 -0.266827 -0.57218903 0.46976826 0.13792257 -0.058687706
white 0.4283748 -0.27802888 0.3709083 0.032750648 0.23739158 0.28414875 0.38230407 -0.008455685 0.32305855 -0.36427706 -0.05731139 0.37127224 -0.5504433 0.3128759 -0.12901865 -0.33004397 -0.14713457 0.53549564 -0.30538505 -0.41996732 -0.060820397 -0.02515254 -0.095632926 1.012975 -0.0647022 -0.4703998 0.36528504 0.23403168 -0.106514126 0.42164123 0.393235 -0.028246477 -0.3488339 0.31380865 0.033326823 0.008654685 0.12566756 0.043526802 0.41680583 0.08043858 -0.38719526 -0.068410255 0.37099633 0.1548418 0.12937726 -0.1348353 0.38320616 -1.1157017 0.10412647 -0.22687045 -0.4746322 -0.14918669 0.57059175 -0.3038671 -0.38609183 0.23897187 0.11441734 0.19146177 0.46197093 0.10113923 -0.56975913 0.32191372 0.09715816 0.39906263 -0.32310712 0.04002911 0.056929637 0.80025697 -0.2862844 0.26044554 0.3916363 -0.37814784 0.43052864 0.26418814 0.43314475 0.20370579 0.3589643 -0.26502365 -0.024111126 0.10695714 -0.24482302 0.22629456 0.37712663 -0.476896 -0.40894794 0.38801235 0.1811435 0.4058721 -0.39815307 0.023376996 0.36905593 -0.1880372 -0.4057836 -0.21699405 -0.7837892 -0.2208928 -0.2677471 0.17396952 0.52051383 0.13008548
dont 0.4111602 -0.29110637 -0.20695783 -0.3843338 0.27838627 0.48733598 0.12181227 0.11884533 0.008926231 -0.30639455 -0.054621067 0.23172587 -0.6186877 0.021702435 0.048335996 -0.063810155 -0.29377744 0.39450315 -0.020368744 -0.37168467 -0.108629696 -0.040083554 -0.38889962 0.88436645 -0.2172815 -0.36572978 0.3604411 0.40189248 -0.067692466 0.42794877 0.41236028 -0.03385985 0.3891791 0.30453238 -0.1575925 0.07359661 0.021071339 -0.08809409 0.16749746 -0.08761527 -0.05028739 -0.12699789 0.11585817 0.20037304 -0.15544154 0.11334491 0.5487483 -1.254283 -0.048225023 -0.17667872 -0.28099546 0.035339314 0.31330043 -0.052399736 -0.14446604 0.3806565 0.121159926 -0.11260417 0.10217939 0.14503516 -0.46349952 0.08821908 -0.26322982 0.49201888 -0.36872613 0.17169392 0.033955745 0.4524192 -0.20473748 0.039776035 0.25378928 -0.27244478 0.16297148 0.10074781 0.28638723 0.051563803 0.07296824 -0.015477717 0.09946962 -0.11658847 -0.07804778 0.1508914 0.17140831 -0.33222535 -0.28194016 0.3981994 -0.06378039 0.8202312 -0.4546269 0.14329912 0.41221836 -0.2259089 -0.26098588 -0.036062155 -0.33367673 -0.24198927 -0.5130425 0.42324272 0.113380335 -0.06505272
lean 0.46552858 -0.30614322 -0.20277248 -0.4203896 0.2876103 0.56548506 0.13763782 0.16148536 0.058112558 -0.33669817 -0.034716763 0.29087138 -0.6758454 0.027253281 0.05528434 -0.07604406 -0.28443956 0.42971662 -0.034701508 -0.4488832 -0.10315106 -0.0040804045 -0.4204857 1.000533 -0.24737516 -0.42131868 0.42801306 0.43684682 -0.0536698 0.4752564 0.44440475 -0.03927063 0.38339764 0.36561707 -0.14998198 0.053817894 0.026195413 -0.09254101 0.24556696 -0.092240945 -0.0930021 -0.17372155 0.122686245 0.2154585 -0.16066325 0.098421045 0.5702825 -1.4054278 -0.030427158 -0.16075015 -0.3401263 0.05020664 0.3509233 -0.039889667 -0.18744002 0.4540567 0.11149615 -0.095040105 0.1477992 0.19412906 -0.559265 0.09552764 -0.2659586 0.5660729 -0.43790913 0.15720482 0.04210144 0.5451535 -0.23420854 0.09318291 0.32960543 -0.34993967 0.20025451 0.12494095 0.32785365 0.07238799 0.10699995 -0.03862019 0.08191089 -0.10561164 -0.11465945 0.18018952 0.2115251 -0.36759335 -0.30697033 0.41948134 -0.057285782 0.8721639 -0.489076 0.15364543 0.46016863 -0.2823584 -0.29439422 -0.07021523 -0.41217998 -0.26214594 -0.5640059 0.4357343 0.12969184 -0.04154511
do 0.42060688 -0.2810592 -0.1967373 -0.38219732 0.27181786 0.50036246 0.12775886 0.12486457 0.018780751 -0.29637992 -0.05553225 0.24289137 -0.6214863 0.033676233 0.048521303 -0.07343225 -0.2862736 0.3933531 -0.019543622 -0.37390575 -0.09503933 -0.03216809 -0.39396676 0.88505226 -0.22405405 -0.37968963 0.3735635 0.39365184 -0.05714557 0.42931223 0.41414097 -0.027803171 0.3724659 0.3020085 -0.15495495 0.07807683 0.03020422 -0.07196813 0.18436281 -0.08623214 -0.05966412 -0.12907928 0.11047299 0.19047134 -0.16027878 0.11723235 0.5332328 -1.2589566 -0.04703896 -0.16620857 -0.2919685 0.045971822 0.31784734 -0.052734397 -0.15067247 0.39516228 0.12555607 -0.10631058 0.10957701 0.14041597 -0.46503437 0.087063245 -0.2546099 0.49399263 -0.37552395 0.16551259 0.03930592 0.47127712 -0.19316627 0.06051238 0.26361567 -0.28963932 0.15894254 0.10244914 0.29691204 0.06358912 0.0743237 -0.035670564 0.10042186 -0.10703997 -0.09461974 0.15749145 0.19191034 -0.3407679 -0.29346576 0.39966425 -0.062428888 0.81984746 -0.45531526 0.15005556 0.43050048 -0.24445228 -0.27431667 -0.0440116 -0.36462045 -0.2507418 -0.5105513 0.42365968 0.122703925 -0.05388626
zack 0.28501776 -0.19982494 -0.12578376 -0.29491416 0.18150237 0.37234408 0.08885049 0.12627974 0.12047405 -0.17676544 0.011596959 0.23066638 -0.3957695 0.037047803 0.021520525 -0.07326768 -0.1536711 0.2859891 -0.048563816 -0.337237 -0.050624326 0.015526716 -0.27303156 0.6607041 -0.16569819 -0.28564817 0.32920334 0.27898937 -0.021926608 0.3082651 0.3126744 -0.032156806 0.21211925 0.298673 -0.069660075 -0.011419949 -0.027864153 -0.10039051 0.19777949 -0.044533107 -0.0781695 -0.17058092 0.080223754 0.16318563 -0.027894558 0.015393888 0.36234826 -0.8511991 0.023391351 -0.09173331 -0.2675381 0.05758747 0.22928414 -0.03921584 -0.17247498 0.32924953 0.0034371384 -0.04076284 0.101650245 0.18794729 -0.4223374 0.047100928 -0.14071085 0.3836724 -0.2880478 0.08763207 0.016830053 0.3894015 -0.18713084 0.07944168 0.26070502 -0.21870716 0.1706967 0.1479153 0.21683875 0.019806648 0.07299714 -0.059248116 0.02878969 -0.075859755 -0.11522821 0.13620338 0.16839716 -0.231562 -0.13774922 0.26873058 -0.008857952 0.4462561 -0.26071775 0.091135085 0.2506325 -0.18860371 -0.18295215 -0.093656 -0.22421029 -0.14041887 -0.32821533 0.22344437 0.057273302 -0.05715692
time 0.4114834 -0.28198722 -0.20190974 -0.3925929 0.27675468 0.49611795 0.13071504 0.14424594 0.032828424 -0.29962677 -0.04239218 0.25514302 -0.6135847 0.023380145 0.054950017 -0.07145743 -0.27284864 0.388423 -0.019237302 -0.3918645 -0.0979906 -0.016061744 -0.38130116 0.89711094 -0.2142745 -0.37664178 0.3646097 0.38487092 -0.053294152 0.43603414 0.420557 -0.039507333 0.36071974 0.3201121 -0.13434061 0.05808443 0.016807465 -0.09222107 0.20184122 -0.08304231 -0.060215913 -0.14987136 0.116734624 0.19542237 -0.14265212 0.10833187 0.51988494 -1.268161 -0.041754708 -0.16028285 -0.30699697 0.045166843 0.31725013 -0.044086337 -0.15853743 0.39023212 0.11240814 -0.10347004 0.11959886 0.16732967 -0.48620796 0.096002325 -0.25526136 0.49219075 -0.38344905 0.16038626 0.027844617 0.46736002 -0.20416988 0.07716147 0.27492163 -0.29220927 0.17703693 0.10834721 0.29123634 0.04377512 0.08393034 -0.026951784 0.08725532 -0.110397704 -0.09339247 0.15309106 0.18133949 -0.33345327 -0.27130717 0.3845835 -0.053271372 0.7932862 -0.44083798 0.1385723 0.4179315 -0.2402832 -0.2680121 -0.0515376 -0.34573027 -0.23514369 -0.51082104 0.40160754 0.11609311 -0.04827895
been 0.42224 -0.28634557 -0.19847697 -0.40127206 0.27955267 0.5257333 0.1349722 0.16035007 0.055448256 -0.30183962 -0.042900585 0.27007642 -0.63608915 0.033035908 0.051541515 -0.07910666 -0.28143626 0.40879685 -0.029234434 -0.41318485 -0.092030056 -0.009505908 -0.39573598 0.9262419 -0.22589985 -0.39350656 0.38872313 0.40635 -0.06118508 0.4564159 0.42526072 -0.039819885 0.36670682 0.3366402 -0.13195539 0.04227086 0.024025362 -0.09156161 0.21724077 -0.09016542 -0.06957464 -0.16465682 0.12079595 0.19454725 -0.14420605 0.09719238 0.52594316 -1.3091627 -0.029362077 -0.14733557 -0.3101268 0.047343783 0.33165583 -0.046136785 -0.16611804 0.4138526 0.10808023 -0.102412045 0.12198081 0.17496036 -0.51439714 0.0936232 -0.26345238 0.5153058 -0.40397212 0.14813147 0.033024646 0.5086312 -0.21012728 0.09004541 0.2928532 -0.3093376 0.18187283 0.12802032 0.3069348 0.06312687 0.09009847 -0.041368317 0.09482146 -0.104496434 -0.09800688 0.16168498 0.19693258 -0.34163976 -0.28837883 0.39067367 -0.049203623 0.8219101 -0.4591318 0.14961556 0.43127725 -0.25559154 -0.27677536 -0.050408565 -0.36337548 -0.24432826 -0.52320975 0.40975565 0.12372306 -0.036930382
love 0.3739278 -0.24469323 -0.15174922 -0.3271303 0.2256201 0.47895068 0.12637866 0.1356908 0.058987938 -0.27058533 -0.040041104 0.25152624 -0.55717546 0.042008847 0.034210477 -0.07367416 -0.22485757 0.36005247 -0.026975246 -0.3701002 -0.07665756 -0.00067722826 -0.35252142 0.80579835 -0.21587187 -0.34660742 0.3622208 0.3553154 -0.046843674 0.38092455 0.36693203 -0.036432482 0.30127904 0.28785467 -0.12163282 0.055229727 0.03312253 -0.07779041 0.20762618 -0.075463034 -0.0881392 -0.12231681 0.11410504 0.16461726 -0.128841 0.100973696 0.46527022 -1.1468196 -0.02906577 -0.14057525 -0.26949048 0.05070082 0.28874636 -0.040298216 -0.14377303 0.36736166 0.105723694 -0.07084001 0.13111895 0.13820192 -0.43693557 0.089625694 -0.21382424 0.46231806 -0.36530852 0.1238886 0.04206135 0.45894608 -0.17041357 0.09393597 0.26036263 -0.28452453 0.17082646 0.1087229 0.28021803 0.0756137 0.10589853 -0.050914824 0.060905784 -0.06997818 -0.115162194 0.15041131 0.17719634 -0.31114063 -0.27855027 0.35499364 -0.046153307 0.7390786 -0.41423467 0.13372535 0.40209162 -0.23984826 -0.2534287 -0.055902064 -0.36660162 -0.22569141 -0.43692872 0.34813553 0.1221777 -0.03200434
high 0.34629714 -0.21697143 -0.13437177 -0.3160751 0.22413608 0.43389264 0.117230855 0.15815392 0.07867977 -0.25473258 -0.02191691 0.26394227 -0.5069604 0.020647315 0.04137534 -0.082205795 -0.20062026 0.3244008 -0.043603607 -0.38685042 -0.0704314 0.03174194 -0.30796757 0.77009887 -0.181911 -0.32965693 0.34709436 0.3219215 -0.05383107 0.37811875 0.34776282 -0.044269744 0.25587195 0.30365518 -0.091835335 -0.005118939 0.009025995 -0.07873014 0.2211901 -0.0826718 -0.080236934 -0.15801074 0.10394779 0.1583676 -0.101473354 0.069335856 0.4168963 -1.1006653 -0.0042160735 -0.10225006 -0.2703181 0.06231289 0.2861142 -0.02711884 -0.16217816 0.3579404 0.06475034 -0.059120376 0.13668028 0.15535443 -0.45640013 0.0958857 -0.1965252 0.42682782 -0.36001343 0.09174598 0.046747282 0.45915538 -0.17437941 0.1034682 0.28595704 -0.28146482 0.18351495 0.11108628 0.2736878 0.050438557 0.124421716 -0.05921923 0.055043943 -0.070905134 -0.1119002 0.12124667 0.15846857 -0.27457544 -0.2184016 0.3021916 -0.014197038 0.62106955 -0.34186193 0.10848872 0.3449185 -0.22542007 -0.21145754 -0.0648389 -0.3270205 -0.19226933 -0.42059433 0.29559067 0.1073471 -0.015539002
black 0.45790714 -0.3564936 -0.38180697 -0.36960018 0.20722319 0.5953994 0.4128924 -0.26341498 0.4276456 -0.13549715 0.032976154 0.23627567 -0.37279868 0.35917035 -0.50803477 -0.39510363 -0.26059052 0.7877994 -0.37321088 -0.49044332 -0.20311637 -0.3187612 -0.27077597 1.2555088 -0.31998375 -0.5044105 0.5485434 0.41868418 -0.014659973 0.4930576 0.46994755 -0.02549819 -0.025621533 0.40220204 -0.28199935 0.05476062 -0.004696529 0.10101968 0.04103266 0.21829839 -0.24557848 -0.25995824 -0.046836663 0.40167555 0.18849474 -0.4829911 0.87884116 -1.0746796 0.32973334 -0.26405787 -0.61488146 -0.07055386 0.59601843 -0.5505792 -0.23951246 0.46819055 0.092432916 0.11156686 0.4810356 0.29853275 -0.61246526 0.08113258 0.1647879 0.6029082 -0.2987002 0.3811831 -0.13502699 0.7714443 -0.4957451 -0.13723598 0.36637667 0.07841523 0.40218386 0.33706605 0.24023269 0.28671283 0.033900585 0.115222074 -0.07017254 -0.10042162 -0.14307536 0.51459426 0.67297554 -0.43388015 -0.17366482 0.717867 -0.028390776 0.25273612 -0.22332975 0.014119192 -0.023621656 -0.2012507 -0.21870077 -0.09825572 -0.2060812 -0.17319706 -0.29964265 0.2519576 0.42937905 -0.5112396
her 0.468777 -0.31018037 -0.17076941 -0.43469217 0.29677603 0.57793504 0.14963996 0.16774707 0.08591247 -0.3457157 -0.031916164 0.30315796 -0.68639785 0.035361234 0.044515867 -0.07997242 -0.28806052 0.4411276 -0.044951987 -0.47077212 -0.10118083 0.0012020883 -0.42071852 1.0273539 -0.24996209 -0.45481715 0.4404629 0.4409184 -0.038622815 0.47909328 0.46023878 -0.032924134 0.35597238 0.3748286 -0.15252683 0.03655941 0.023313217 -0.09655207 0.28263816 -0.08966446 -0.10351182 -0.17612198 0.1341634 0.22169393 -0.15294196 0.094136775 0.5700465 -1.4188142 -0.02994216 -0.15394127 -0.35512635 0.04836919 0.3763459 -0.045130845 -0.20619725 0.4580402 0.11483277 -0.06515985 0.1546392 0.19608265 -0.5742524 0.11149893 -0.26163155 0.5697287 -0.45390356 0.1420153 0.04460936 0.563876 -0.24103178 0.105946615 0.3500416 -0.36803165 0.22561418 0.13289008 0.3419437 0.06750674 0.11662381 -0.05551682 0.076175295 -0.08250911 -0.12216019 0.1931315 0.22224107 -0.37258115 -0.2960901 0.43240494 -0.048063785 0.87880373 -0.4983777 0.14683832 0.48036912 -0.31155574 -0.3141119 -0.07166848 -0.4453162 -0.26294214 -0.55892164 0.4336511 0.13420697 -0.034880504
has 0.40373546 -0.25528362 -0.17822117 -0.38913628 0.2611513 0.5190683 0.119215 0.17949417 0.05873145 -0.29868796 -0.022248967 0.28741404 -0.6037683 0.023037551 0.04925357 -0.07774804 -0.25531435 0.38341436 -0.022328587 -0.42257217 -0.08253663 0.014511583 -0.3917565 0.8941238 -0.22765465 -0.39480278 0.38871542 0.38041297 -0.0555374 0.44148868 0.40812093 -0.032080855 0.33493045 0.3435807 -0.1128885 0.026034104 0.021181718 -0.09672104 0.23677593 -0.10278743 -0.07392571 -0.16563354 0.11350094 0.1858634 -0.14049526 0.09626409 0.48867226 -1.2735926 -0.020402502 -0.13275816 -0.2967505 0.057541788 0.3100942 -0.029524667 -0.17195898 0.42097065 0.091245584 -0.08501609 0.12140548 0.17036982 -0.5098332 0.09276767 -0.24134348 0.5032861 -0.41672534 0.119335435 0.043294445 0.50128245 -0.19762719 0.10122133 0.30132267 -0.32574826 0.19272615 0.121506706 0.3037097 0.061971955 0.10044346 -0.062100954 0.08303537 -0.093685016 -0.12420641 0.15407528 0.18688354 -0.32767183 -0.26091668 0.3620665 -0.040387433 0.77216375 -0.42949462 0.14520763 0.41475207 -0.26108208 -0.26448795 -0.056427125 -0.3750858 -0.22775915 -0.49854997 0.36239573 0.11204609 -0.017355619
still 0.38586685 -0.266143 -0.18369748 -0.37809068 0.26849037 0.47539753 0.12027612 0.13560797 0.041428816 -0.2818569 -0.035523176 0.2483572 -0.58908594 0.01222355 0.046919446 -0.07411322 -0.2584703 0.36348772 -0.022206113 -0.38528493 -0.09029632 -0.007534428 -0.36414492 0.852307 -0.20431997 -0.36565474 0.35649124 0.36824945 -0.05469501 0.42099243 0.3928747 -0.0393696 0.34511852 0.31557384 -0.1313041 0.03832727 0.011021032 -0.10190071 0.18648943 -0.08062723 -0.058738258 -0.14848694 0.10549069 0.18571885 -0.1345167 0.092132464 0.50543374 -1.2087247 -0.03429969 -0.14927453 -0.28908992 0.052293617 0.30715272 -0.040340655 -0.1500535 0.38369173 0.09058054 -0.09845785 0.11690513 0.16088766 -0.4671346 0.09045945 -0.23986016 0.47356293 -0.3666041 0.14853658 0.03130967 0.45348045 -0.20745862 0.07470479 0.27537888 -0.28697678 0.17123653 0.121621296 0.2786234 0.03893266 0.085202314 -0.02521489 0.07890014 -0.10822106 -0.08181174 0.146924 0.17201252 -0.31569958 -0.26020223 0.36556795 -0.042511784 0.74901795 -0.40514174 0.1261103 0.37736854 -0.22805305 -0.24048446 -0.05169463 -0.32799888 -0.2181867 -0.48471648 0.37948203 0.105623394 -0.04383628
how 0.41858655 -0.2918567 -0.19950467 -0.3975697 0.26667938 0.5231063 0.13448858 0.1409447 0.031528458 -0.30271724 -0.055381503 0.26971477 -0.6327847 0.027862415 0.051058494 -0.07094353 -0.2733854 0.3989574 -0.013045861 -0.40068984 -0.092159435 -0.011848001 -0.40605175 0.91406155 -0.22552668 -0.38885006 0.38312238 0.40570134 -0.05426648 0.4430419 0.41211173 -0.033823654 0.38855472 0.32066447 -0.1461404 0.065123335 0.025875082 -0.09218934 0.1943587 -0.08653212 -0.07282487 -0.14367817 0.12137393 0.1867901 -0.16450064 0.120984934 0.5342124 -1.2984284 -0.039661024 -0.1615035 -0.2995951 0.054918084 0.31995204 -0.03198362 -0.15580192 0.41544122 0.11061225 -0.104487576 0.1222855 0.15523516 -0.4924777 0.0840498 -0.26529965 0.5188555 -0.40697646 0.15810755 0.041540153 0.48877463 -0.19495292 0.07809779 0.28676543 -0.30964324 0.17147286 0.115144916 0.31335333 0.068684325 0.10166412 -0.04627055 0.08209407 -0.10567143 -0.1037834 0.15432437 0.18889436 -0.34243163 -0.3069237 0.3960391 -0.05514183 0.84498966 -0.46394777 0.15086511 0.43329248 -0.25495926 -0.27859893 -0.045525964 -0.36767888 -0.25251123 -0.5224099 0.42262265 0.11637211 -0.055454496
after 0.5016179 -0.3577659 -0.22677618 -0.4745843 0.33170843 0.6246989 0.16041782 0.1880966 0.058034945 -0.3718929 -0.029514989 0.33258307 -0.74312526 0.034273777 0.06684752 -0.09662591 -0.30940682 0.4665601 -0.03859266 -0.5114009 -0.12258748 0.013833381 -0.47949454 1.1136663 -0.2899532 -0.48137957 0.47751507 0.4560924 -0.052577876 0.5352027 0.5027485 -0.04000597 0.42902902 0.40980163 -0.16294147 0.03682777 0.029015344 -0.12406168 0.27943107 -0.11630437 -0.08786553 -0.20509294 0.12990792 0.24559094 -0.16121128 0.10198132 0.6205301 -1.5489233 -0.038948372 -0.16150671 -0.37747008 0.061580505 0.3814572 -0.045196425 -0.21770665 0.5036867 0.12744857 -0.09776146 0.1489457 0.2312476 -0.63368845 0.10292024 -0.3197189 0.6293251 -0.48824716 0.1681244 0.037932206 0.6017289 -0.27298048 0.12174149 0.35885647 -0.37181026 0.23812795 0.15083776 0.37874988 0.048924383 0.11389763 -0.03224592 0.11766502 -0.12455286 -0.13113157 0.18363704 0.2326291 -0.40132266 -0.33459342 0.48007512 -0.059539016 0.9542953 -0.51825833 0.16101095 0.50228727 -0.30526894 -0.33328438 -0.06537743 -0.4416104 -0.28468567 -0.62153184 0.471613 0.12564535 -0.04533683
pain 0.38508782 -0.25445062 -0.16228218 -0.3572538 0.25310513 0.47648823 0.11481176 0.14015345 0.045068946 -0.28999215 -0.039614983 0.25018188 -0.57913214 0.022515723 0.05138379 -0.06401963 -0.24490868 0.3655243 -0.016513707 -0.37736973 -0.091838874 0.0033794502 -0.36259308 0.8467994 -0.2119339 -0.3611043 0.36026767 0.37134227 -0.053254865 0.40531385 0.38644284 -0.03528476 0.3277626 0.2988248 -0.12237199 0.048195608 0.0194518 -0.0812892 0.20716418 -0.08249995 -0.07061599 -0.13877684 0.11540745 0.17881486 -0.14042293 0.09845291 0.48396114 -1.1924609 -0.03178234 -0.14416061 -0.27662835 0.04606915 0.30228493 -0.039335 -0.14843598 0.37462264 0.09381978 -0.09082656 0.11557625 0.1498711 -0.46588278 0.08552795 -0.23133643 0.46706542 -0.37012732 0.13545032 0.037640877 0.45710015 -0.18800297 0.08298941 0.26730743 -0.28899205 0.17688082 0.10808157 0.28911445 0.050378516 0.087571174 -0.035442945 0.08617613 -0.08641529 -0.09605156 0.15066046 0.1695979 -0.31269366 -0.2743128 0.35491893 -0.042152397 0.7593122 -0.4279594 0.13716574 0.3997209 -0.23914503 -0.25705472 -0.050482128 -0.35564458 -0.22029577 -0.4814885 0.36949667 0.11151453 -0.029696006
soundcloud 0.36999604 -0.3202555 -0.42657992 -0.66997194 0.53219837 0.4806741 0.15022999 0.14457707 0.14014468 -0.2899613 0.095571764 0.3640904 -0.555681 -0.123634264 0.037455197 -0.08044509 -0.30327514 0.39207363 -0.0981217 -0.5740591 -0.25902173 0.03209353 -0.24972866 1.3123018 0.11320969 -0.5090909 0.40837505 0.2555998 -0.22061692 0.6933518 0.7683693 -0.105059184 0.49580798 0.92091054 -0.060664136 -0.26113254 -0.29545754 -0.48658884 0.110719636 -0.19731477 0.024945011 -0.59225297 0.16703373 0.5363582 0.09662612 -0.17427516 0.78027993 -1.4223703 0.19661817 -0.21023202 -0.5957812 0.07128338 0.41378966 -0.13435209 -0.44930485 0.44544542 -0.094059445 -0.15791678 0.14578886 0.74026823 -1.0954635 0.0053174626 -0.27570868 0.5683276 -0.44694912 0.4115586 -0.08038054 0.59575504 -0.65864044 -0.14390664 0.48294055 -0.1385836 0.5537887 0.4739884 0.26744083 -0.3982099 0.015593197 0.13294904 0.16640207 -0.4005822 0.14048651 0.032907907 -0.23915604 0.11621003 0.42873558 0.06628292 0.06653396 -0.4853695 0.30906653 -0.21438043 -0.24581347 0.07091698 0.20796323 -0.09137558 0.58291566 0.092084594 -0.73822534 0.22961162 -0.023250965 -0.32155824
need 0.35212937 -0.23540208 -0.17163736 -0.32724246 0.23473042 0.4115401 0.10803129 0.11957808 0.031936046 -0.24942821 -0.046224996 0.22038282 -0.5260059 0.02176304 0.047156855 -0.06230468 -0.239324 0.32573822 -0.01631975 -0.33094615 -0.088003114 -0.017363947 -0.32263738 0.7640079 -0.17277366 -0.32464492 0.31096655 0.32355326 -0.059041385 0.3725529 0.36113843 -0.03327575 0.31711838 0.28252548 -0.11778335 0.049282264 0.0064847684 -0.080055475 0.16164692 -0.07595959 -0.05444155 -0.12942073 0.10245173 0.16569366 -0.1256468 0.09358557 0.44980755 -1.0772007 -0.030275596 -0.13961501 -0.25280315 0.04515613 0.27289456 -0.03410474 -0.1328851 0.33086407 0.08938884 -0.089770816 0.10173357 0.142435 -0.42983687 0.074252285 -0.2142611 0.42083967 -0.32141253 0.13328369 0.031391736 0.3969968 -0.17407808 0.054066125 0.23341572 -0.24838461 0.15248927 0.092818365 0.24961564 0.031192467 0.07169502 -0.019941766 0.08138186 -0.100284755 -0.07463675 0.12654516 0.13754928 -0.26796895 -0.22666444 0.32512918 -0.0348973 0.66043854 -0.36153537 0.117648244 0.34415644 -0.2058474 -0.21859153 -0.038157277 -0.2848087 -0.200316 -0.43634894 0.338749 0.09523057 -0.049108587
don 0.4643989 -0.30691203 -0.22349198 -0.43912718 0.30119532 0.5646484 0.13920182 0.16417602 0.059952483 -0.33450803 -0.04442713 0.29939342 -0.6842204 0.029533956 0.038106106 -0.091293536 -0.29819947 0.44007662 -0.042928457 -0.45972723 -0.11170898 -0.007960257 -0.4268715 1.0180762 -0.24087612 -0.42791292 0.4382136 0.4341424 -0.063307114 0.4822168 0.46214002 -0.044320304 0.40126893 0.3757212 -0.16035816 0.042700224 0.011446196 -0.11162136 0.2344253 -0.09849786 -0.08254428 -0.19062775 0.12461808 0.22871794 -0.15802516 0.10270679 0.5880735 -1.4172826 -0.01993177 -0.16328539 -0.35450536 0.06328873 0.37077254 -0.044890072 -0.1929881 0.45256507 0.106454976 -0.10520094 0.1476844 0.20500994 -0.57507664 0.100869164 -0.27749524 0.5700104 -0.4507441 0.1666244 0.042907424 0.5523966 -0.24075386 0.077877164 0.33042353 -0.33016095 0.21230265 0.14351475 0.3347945 0.056877203 0.10625482 -0.03735739 0.08547039 -0.1192737 -0.11298525 0.17354971 0.20376082 -0.36728966 -0.28702214 0.42389944 -0.044576224 0.84878033 -0.47480133 0.15311642 0.45240608 -0.27952197 -0.2812012 -0.06367893 -0.37916514 -0.2605766 -0.5640117 0.42643833 0.12775984 -0.059770778
really 0.38860154 -0.27035764 -0.19609573 -0.3702316 0.26481876 0.4614066 0.1258013 0.11517175 0.030607004 -0.28510195 -0.04792681 0.23521216 -0.5875412 0.017040329 0.043376032 -0.07174983 -0.26725087 0.3783086 -0.021983325 -0.35879558 -0.10206049 -0.03282448 -0.36269635 0.8593047 -0.2034618 -0.36256576 0.3480169 0.36640066 -0.060915057 0.41531315 0.40047702 -0.024272788 0.35118356 0.31272435 -0.13800712 0.059148636 0.015618435 -0.084469736 0.16403925 -0.07156762 -0.058828 -0.14184791 0.09831321 0.19679153 -0.1423275 0.09441483 0.52068084 -1.1967233 -0.030933766 -0.15560694 -0.2854865 0.028131397 0.31347278 -0.047839954 -0.14011663 0.36255395 0.10543357 -0.10504485 0.10886308 0.15318924 -0.46519032 0.08235429 -0.23651835 0.47550577 -0.3583251 0.16944157 0.028191162 0.43687302 -0.20017709 0.045743126 0.24742799 -0.25947767 0.16669898 0.10677155 0.2814516 0.0504225 0.06971857 -0.019941771 0.08513714 -0.11315062 -0.07559091 0.15085533 0.17282136 -0.31188983 -0.2608172 0.38176513 -0.052098162 0.75869524 -0.41582802 0.1310517 0.37748897 -0.22454073 -0.24522206 -0.039550558 -0.32207105 -0.22240967 -0.48944953 0.3972467 0.107781 -0.06257541
his 0.45112348 -0.29518107 -0.2059077 -0.41784483 0.29153204 0.565043 0.14821126 0.17567317 0.08414923 -0.3211976 -0.023140436 0.31063795 -0.66483825 0.026574343 0.038598668 -0.1002819 -0.285488 0.42450792 -0.03926157 -0.4725639 -0.099906124 0.014242245 -0.4098747 1.0079145 -0.25084934 -0.42855665 0.44153792 0.42316544 -0.063939355 0.48276746 0.46158218 -0.03988595 0.3677525 0.38737422 -0.13737114 0.031519398 0.0043456582 -0.112385705 0.25426924 -0.092391804 -0.08977544 -0.19276676 0.11608002 0.21288703 -0.14186586 0.08761223 0.56522745 -1.3896922 -0.016321883 -0.14910023 -0.34907135 0.06383896 0.36467913 -0.043944042 -0.19373325 0.4523153 0.10006448 -0.090253904 0.15885918 0.2084828 -0.57720506 0.09423088 -0.25687185 0.5634885 -0.44216293 0.1510921 0.03338497 0.5613034 -0.23653483 0.10620664 0.34174824 -0.34233016 0.2308844 0.1507155 0.3333251 0.06535705 0.116115615 -0.04866415 0.08249314 -0.10873121 -0.11989074 0.18030457 0.20750833 -0.369435 -0.27861014 0.4177796 -0.04086843 0.816569 -0.4571445 0.14792559 0.43940154 -0.28551185 -0.27559784 -0.073909625 -0.3847094 -0.24321689 -0.5495043 0.39697695 0.12938286 -0.046995297
will 0.3730022 -0.255848 -0.1962495 -0.36980072 0.2510781 0.45748317 0.116689496 0.13056627 0.04365279 -0.28005633 -0.04421716 0.2404281 -0.565179 0.015234044 0.051727302 -0.07329884 -0.25197095 0.36200038 -0.017389957 -0.37737802 -0.09749344 -0.012785063 -0.3493338 0.83408916 -0.1921961 -0.35015187 0.34428865 0.35968727 -0.05495881 0.4103067 0.37726223 -0.035555866 0.34600142 0.3102604 -0.12938985 0.03975275 0.005498221 -0.09254312 0.18191023 -0.079725794 -0.06379467 -0.14426771 0.09472497 0.18444714 -0.13389033 0.09058594 0.49018374 -1.1749711 -0.029144332 -0.1455829 -0.2848331 0.047886442 0.29042876 -0.032910857 -0.15723954 0.37376136 0.08717069 -0.10556917 0.10313424 0.16530953 -0.47109726 0.08575999 -0.22991994 0.45675853 -0.35379127 0.14304195 0.028009757 0.43415684 -0.20026085 0.061326884 0.2594842 -0.27031153 0.16422196 0.11590183 0.28082696 0.042592432 0.079792045 -0.02933816 0.087575205 -0.109938286 -0.08438442 0.14364144 0.16388693 -0.29951045 -0.24104348 0.35089803 -0.042570945 0.7162185 -0.396564 0.12310037 0.36292073 -0.22761087 -0.22419608 -0.04300027 -0.30314824 -0.21372405 -0.47886816 0.36048204 0.10411485 -0.05456779
song 0.3330048 -0.24881051 -0.18426104 -0.32558638 0.23407371 0.3851937 0.098147124 0.0970987 0.011562273 -0.24750204 -0.042094212 0.19553825 -0.51303524 0.006387795 0.04169838 -0.04791173 -0.24661085 0.31504986 -0.006770759 -0.30596796 -0.07924427 -0.027747182 -0.31194052 0.73735505 -0.15839526 -0.3078519 0.28418896 0.32179743 -0.04629397 0.3585616 0.35037738 -0.024493938 0.31826574 0.27409196 -0.11830688 0.053380996 0.013262616 -0.096394025 0.13187239 -0.06126431 -0.040263 -0.11712155 0.082640454 0.17564104 -0.1188753 0.079026625 0.45492005 -1.0211947 -0.03290689 -0.1416481 -0.24261047 0.031599298 0.2680905 -0.042489827 -0.11610412 0.30457434 0.09124935 -0.10395966 0.08280605 0.14048187 -0.38916555 0.07021445 -0.20820518 0.4086125 -0.28599504 0.15418684 0.017172929 0.36273792 -0.1837584 0.03547741 0.21143833 -0.2217539 0.13102147 0.094142914 0.2340094 0.02750019 0.050894495 -0.0067953514 0.08165562 -0.10721621 -0.044762548 0.11903125 0.13228601 -0.2631391 -0.21243177 0.324817 -0.05647017 0.65529704 -0.3573321 0.097658105 0.32061684 -0.17572716 -0.19695528 -0.024141576 -0.2629926 -0.19030705 -0.42590192 0.34229586 0.0867014 -0.06518171
