1350 100
codeine 0.6817341 -0.013475684 0.71370673 0.12056496 0.18342835 -0.031621087 0.32701755 0.655174 -0.69378555 -0.49346536 0.71505857 -0.82646513 0.084112085 -0.43192193 0.17632788 0.15371251 -0.036794633 -0.4807733 0.24463336 0.34841082 0.31387955 -0.0734795 -0.27958962 0.14101802 0.15043467 -0.29992127 0.33927062 0.113197505 0.49108237 0.46896198 -0.82306296 0.6765708 -0.7762124 0.19901972 0.22132142 -0.063978426 0.14700834 0.15224132 -0.5671956 -0.17681539 -0.6925192 -0.3476671 -0.3618196 0.10003456 0.1552522 0.7962721 -0.12862681 -0.42871013 -0.05968392 -0.038697254 0.033918247 -0.48837218 -0.6222191 -0.060485598 0.009088182 -0.1880896 0.24881111 -0.29237688 0.17546143 0.20063432 -0.38510552 0.53662276 -0.33117077 0.56388557 0.2015788 0.07101485 0.1194443 0.6830138 0.030800905 0.14514117 0.02252297 0.69124615 0.1361397 0.07299848 0.12640156 0.097857654 0.027769146 -0.19387841 -0.013248562 0.2478897 -0.24876499 0.012807354 0.10533189 -0.0014437904 -0.023363944 0.40732697 0.46593294 -0.1394289 0.12533104 0.3190381 -0.07569065 -0.59041137 -0.29696578 -0.6392898 0.3868584 0.008187644 -0.12583728 0.26780495 0.7388701 0.2199185
like 0.6644053 -0.009869578 0.69533044 0.10310681 0.16352184 -0.04045777 0.30423987 0.63788354 -0.6781728 -0.4784178 0.69642544 -0.7936051 0.06998842 -0.41174766 0.17212795 0.14408673 -0.04457992 -0.46784216 0.24597654 0.33503738 0.31070253 -0.058475442 -0.26478156 0.123120025 0.1409223 -0.28594103 0.33077073 0.12754136 0.47374853 0.4376974 -0.80328834 0.67504656 -0.7296725 0.19078825 0.21443608 -0.05430289 0.14516309 0.14522897 -0.5375274 -0.16887452 -0.67006016 -0.3341229 -0.355026 0.1076382 0.15217501 0.78401077 -0.12303685 -0.4160371 -0.035704024 -0.027521702 0.028406644 -0.4849517 -0.61123705 -0.07612809 -0.0028158787 -0.16615184 0.22969908 -0.27316645 0.1619593 0.19388744 -0.36336195 0.51525795 -0.34350303 0.54157984 0.19323197 0.05905609 0.12006678 0.6710191 0.031209216 0.13607502 0.022006292 0.67802525 0.111761555 0.078871936 0.106910676 0.09900688 0.027569786 -0.19458787 -0.013891997 0.24664576 -0.23632751 0.017846491 0.10532497 -0.007617091 -0.027840862 0.40109113 0.44045737 -0.13491152 0.11394606 0.32149592 -0.06981625 -0.57730836 -0.28515264 -0.6245468 0.36970928 0.0010400066 -0.12431112 0.2599536 0.7087289 0.22089598
im 0.62559694 -0.015191269 0.65556836 0.10074994 0.15241684 -0.03805308 0.29034472 0.60906166 -0.6432309 -0.45483166 0.6528157 -0.7557167 0.06683504 -0.39274913 0.16032968 0.13640943 -0.030607477 -0.437024 0.2410755 0.32398283 0.29631788 -0.053494073 -0.24502926 0.120402366 0.1345119 -0.28054863 0.31550825 0.12194504 0.45525968 0.42037007 -0.7683556 0.64335895 -0.70220596 0.18471552 0.20436355 -0.056844946 0.13237444 0.14175011 -0.5206603 -0.15725993 -0.6433979 -0.3155805 -0.34063393 0.09560112 0.14252865 0.742648 -0.11067375 -0.4007359 -0.038332444 -0.029688476 0.023400925 -0.45843124 -0.58305424 -0.07045977 0.0021968829 -0.15970135 0.22102685 -0.26175556 0.15782408 0.19188078 -0.34881836 0.48574895 -0.3320596 0.5177757 0.18517159 0.059797697 0.11373717 0.64088416 0.023002587 0.12615295 0.014257593 0.6482383 0.11018308 0.063622914 0.10846799 0.097404264 0.027224291 -0.18131122 -0.010084722 0.22403367 -0.22650193 0.010689813 0.09958924 -0.003548099 -0.034988824 0.38136593 0.42790118 -0.12358687 0.11504549 0.30592388 -0.06394048 -0.5425799 -0.27451417 -0.594044 0.35855266 0.0052973707 -0.111511186 0.24720724 0.68090516 0.20330937
sit 0.19747676 -0.0076777423 0.249538 0.06964646 0.11367538 0.023946142 0.127322 0.23831771 -0.24111503 -0.17760041 0.27358758 -0.29305816 0.074801944 -0.2168023 0.016895277 0.07018468 -0.0013951567 -0.20989944 0.068384305 0.11052686 0.095136255 -0.087418966 -0.12965229 0.058625236 0.02215213 -0.117234446 0.12170006 0.0033746348 0.17630152 0.20196362 -0.30565926 0.20851567 -0.32710958 0.05826622 0.10885459 -0.031910222 0.06803879 0.04150373 -0.2153621 -0.08769111 -0.2566064 -0.13357101 -0.12065629 0.03040337 0.0874855 0.26809257 -0.0836664 -0.15005204 -0.08916419 -0.068260364 0.060275536 -0.14650747 -0.22257382 0.019288843 0.01437484 -0.106635466 0.11174043 -0.13880773 0.11407461 0.040429484 -0.15312245 0.2203422 -0.05472904 0.2109725 0.072850846 0.045637302 0.022416012 0.22705239 -0.0076969904 0.054719586 -0.009847215 0.26065022 0.082574785 0.03797867 0.036984038 0.016955357 -0.004616399 -0.0702838 -0.02980863 0.11071062 -0.07377143 0.0252445 0.028928999 -0.027316146 0.040688183 0.11629939 0.15692149 -0.06215796 0.061038423 0.055585574 -0.01903707 -0.18023449 -0.11799115 -0.18939497 0.13215667 0.005126215 -0.08422801 0.083809 0.2846664 0.11538431
amp 0.5983757 -0.011204345 0.61943245 0.09180535 0.14814912 -0.033997785 0.2769086 0.5770855 -0.60321504 -0.42860964 0.62783784 -0.7208553 0.075396635 -0.37625626 0.14972967 0.13484672 -0.022086617 -0.41970718 0.21909596 0.31122604 0.2832299 -0.062268674 -0.24406856 0.112897255 0.12058019 -0.2639591 0.29964656 0.111588046 0.42889145 0.4144438 -0.72215956 0.6002556 -0.66972035 0.1834737 0.1987234 -0.06555309 0.13125142 0.12956391 -0.48748192 -0.15377463 -0.6051518 -0.29412004 -0.3197285 0.092794485 0.14494988 0.7041895 -0.101764634 -0.38173538 -0.055579722 -0.034059804 0.035230465 -0.43358737 -0.54982877 -0.066261 0.009114781 -0.15831527 0.2092495 -0.2570043 0.15137112 0.18045634 -0.33011067 0.4779716 -0.30833903 0.4989378 0.1783651 0.062148795 0.11600613 0.61814994 0.02874973 0.12539697 0.014905103 0.61100805 0.11059251 0.07157284 0.10782779 0.08979882 0.037136804 -0.17504106 -0.000748782 0.215588 -0.21370804 0.01838778 0.09665491 -0.0012577752 -0.017998433 0.36183518 0.4011464 -0.113798395 0.109567456 0.28648356 -0.07137232 -0.52660716 -0.2481451 -0.5611054 0.3450555 0.008177538 -0.11799509 0.23256733 0.63494945 0.19156049
dissolve 0.1848359 -0.01786753 0.22147904 0.06488621 0.11839185 0.027044253 0.10614994 0.19900858 -0.23149061 -0.16552861 0.24567108 -0.2726009 0.09072585 -0.20167468 0.0057427916 0.060244247 0.0080520185 -0.19791219 0.042991105 0.102524616 0.0854729 -0.082231335 -0.098737985 0.047580436 0.025070423 -0.10188888 0.09200853 -0.0057916497 0.14583635 0.18439347 -0.26226494 0.17887539 -0.29897028 0.038087063 0.09875637 -0.021419836 0.06462714 0.039759807 -0.1811673 -0.076223105 -0.23969427 -0.13204634 -0.102068946 0.02883106 0.069704734 0.24354987 -0.08694017 -0.12765513 -0.09084186 -0.07603427 0.058178093 -0.12911393 -0.1970314 0.011148663 0.03356943 -0.1035692 0.11438775 -0.12664674 0.10676707 0.035961792 -0.14088348 0.20396651 -0.036902305 0.17886792 0.0847799 0.025605736 0.005152315 0.21193409 -0.02181914 0.039967533 0.0011976212 0.22518012 0.087360576 0.022756869 0.038732845 0.0037790074 -0.0015044879 -0.06057813 -0.015941069 0.099599384 -0.06921856 0.025037555 0.044801187 -0.04653099 0.040912945 0.110663496 0.14292677 -0.05659408 0.054757714 0.055103745 -0.030397326 -0.17451882 -0.101261936 -0.16009381 0.11326756 0.006793796 -0.08803147 0.07565355 0.26003724 0.104704574
get 0.6652071 -0.011104302 0.6925307 0.10284328 0.16199239 -0.03737957 0.31140366 0.63891554 -0.6784342 -0.48226213 0.6921607 -0.80257195 0.079392806 -0.41723907 0.17589734 0.13831457 -0.0427855 -0.46789402 0.25179195 0.3363451 0.31701744 -0.058305036 -0.2628117 0.11983869 0.1435282 -0.28417623 0.32816288 0.1328076 0.47902492 0.4490923 -0.8057324 0.67643803 -0.73517966 0.20112962 0.21353495 -0.061457064 0.14534779 0.14612816 -0.5407169 -0.17387605 -0.6697356 -0.32876882 -0.35016474 0.10066296 0.15573443 0.7866679 -0.124332175 -0.4202734 -0.039047655 -0.03043289 0.029420491 -0.48274487 -0.6114191 -0.0767267 0.0037323523 -0.16679917 0.22724089 -0.27496812 0.1677799 0.19883592 -0.3721184 0.51495373 -0.3479454 0.5459832 0.19484812 0.06711244 0.12008633 0.67775804 0.030570695 0.13053997 0.019531008 0.68109924 0.118707664 0.06982586 0.11161053 0.10084586 0.03558313 -0.1961495 -0.015987404 0.24645957 -0.23187673 0.011650311 0.106500275 -0.012635357 -0.02731765 0.4071989 0.44361153 -0.13083073 0.1211548 0.32594398 -0.0788884 -0.58198017 -0.28746572 -0.62503284 0.38217434 0.00041014104 -0.13087064 0.25808507 0.713154 0.22280933
kidney 0.13339037 0.0037834554 0.19481063 0.04711693 0.115216404 0.009166221 0.087387845 0.17135574 -0.19353595 -0.1321084 0.18041833 -0.21041897 0.09017108 -0.15920593 -0.013377503 0.019923454 -0.010690451 -0.15393715 0.014272662 0.06958595 0.059260514 -0.08056371 -0.10435088 0.059441257 0.009636476 -0.09886997 0.07495971 -0.012868189 0.11731957 0.15250316 -0.21153475 0.13783194 -0.24735256 0.051922172 0.08657933 -0.043609597 0.061573643 0.04649185 -0.1456874 -0.052379098 -0.18736053 -0.082324244 -0.07802018 0.004209974 0.07493099 0.203146 -0.058039095 -0.108518116 -0.07305997 -0.05249467 0.04362461 -0.09325401 -0.16048329 0.02918998 0.028987 -0.09228481 0.10673664 -0.106852174 0.07783447 0.04634733 -0.12133833 0.14225985 -0.020317743 0.13229692 0.06639443 0.04424527 -0.0085282065 0.15923272 -0.030711215 0.050691858 -0.01145052 0.18072456 0.079621635 0.026604785 0.022152197 0.020897323 0.026389906 -0.065870486 -0.01756936 0.09220645 -0.046562176 0.0059908596 0.026800266 -0.031885345 0.04751742 0.09689266 0.13052641 -0.048131492 0.06151676 0.026413657 -0.025574222 -0.11692493 -0.07530469 -0.12483313 0.09591979 0.00903027 -0.06875454 0.06036569 0.19501957 0.07490306
tramadol 0.71933776 -0.016024167 0.7401335 0.11857187 0.17470936 -0.0489366 0.33687523 0.69873154 -0.73446107 -0.5075834 0.7534687 -0.8626731 0.084908806 -0.4520714 0.18062265 0.1489275 -0.04281105 -0.50166667 0.26731497 0.36997417 0.34405488 -0.063819975 -0.2815288 0.13519487 0.16226088 -0.31226376 0.35420167 0.14150053 0.51630026 0.48494902 -0.8599699 0.7310014 -0.7952682 0.214758 0.23708309 -0.060634978 0.14876409 0.15753612 -0.58805025 -0.18547013 -0.7220146 -0.3540238 -0.39222413 0.10475924 0.16439648 0.8382405 -0.13328718 -0.45647225 -0.051407985 -0.033246163 0.025307281 -0.51732624 -0.662307 -0.07412432 -0.00022909328 -0.18364275 0.24385196 -0.2957352 0.17466292 0.2281242 -0.40052202 0.5650264 -0.3775946 0.5978541 0.20819253 0.074325845 0.13519579 0.72902644 0.029600454 0.14389871 0.024543826 0.731157 0.1321557 0.08791994 0.13059144 0.10483486 0.034847997 -0.20578283 -0.01854452 0.26380792 -0.25053898 0.015048232 0.11323531 -0.0034848663 -0.03554926 0.43831024 0.48399958 -0.14172654 0.12382023 0.3564004 -0.07169696 -0.6299618 -0.3048725 -0.66750133 0.40284857 0.009117361 -0.13207394 0.2878097 0.76448506 0.24279952
got 0.6171977 -0.014718112 0.6449697 0.09404965 0.14877827 -0.042223174 0.28922123 0.5911002 -0.62996113 -0.4427641 0.6447349 -0.7369393 0.0685966 -0.3871808 0.15724726 0.12804835 -0.036812875 -0.43087107 0.23146977 0.3222715 0.28989854 -0.062328167 -0.24636614 0.11265115 0.1386339 -0.26266745 0.30799118 0.12045868 0.44495252 0.41165367 -0.7416121 0.6225148 -0.68833274 0.18382536 0.19667532 -0.049583457 0.13535069 0.136709 -0.50384766 -0.15967944 -0.6231366 -0.3052541 -0.32888564 0.09577845 0.13777138 0.7223291 -0.10890175 -0.38913533 -0.040936273 -0.030115813 0.019743033 -0.44956896 -0.56107134 -0.061891727 -0.0011918022 -0.15106073 0.20894553 -0.25355437 0.14859095 0.18624577 -0.33934113 0.4797374 -0.324406 0.50606155 0.17821097 0.056393325 0.115646094 0.62255627 0.028137859 0.12572066 0.019745696 0.6260024 0.11223199 0.07000042 0.10692632 0.091422275 0.03234556 -0.18154903 -0.013794805 0.22036888 -0.22325896 0.0125577245 0.100221716 -0.0036663434 -0.031013748 0.3740556 0.41685122 -0.11985196 0.10965748 0.30028084 -0.07189448 -0.53507566 -0.26028603 -0.5736433 0.34953558 0.0076896097 -0.11058518 0.23340318 0.66136193 0.21038021
take 0.57620645 -0.005503605 0.59055924 0.08838351 0.14024603 -0.036631823 0.2665954 0.55560213 -0.57585955 -0.40648934 0.5973221 -0.69101447 0.066095725 -0.36031365 0.14686732 0.11797411 -0.03790273 -0.39653692 0.21622586 0.29785165 0.27069002 -0.050509416 -0.22716415 0.10447558 0.12764168 -0.25294456 0.28625748 0.11428521 0.40388334 0.3842582 -0.6880454 0.57569605 -0.6352261 0.17358898 0.17982 -0.05192155 0.12833977 0.123509556 -0.46271577 -0.14913706 -0.58117086 -0.28456935 -0.30771968 0.08313057 0.1287908 0.67568934 -0.10348859 -0.3591678 -0.0313775 -0.021271951 0.021585826 -0.41273946 -0.52257234 -0.060288534 0.0009283839 -0.14269261 0.19847989 -0.23745425 0.14120007 0.17584756 -0.31603253 0.44757807 -0.30311558 0.47153702 0.16132352 0.050853465 0.10622851 0.58220756 0.023953758 0.118159786 0.01343155 0.5810299 0.10680199 0.059779447 0.10131301 0.08681781 0.021250509 -0.16338289 -0.011658557 0.20898041 -0.20612621 0.006508942 0.09725958 -0.010105579 -0.031630635 0.34318987 0.3798419 -0.1198758 0.10198452 0.27799186 -0.058956474 -0.4915979 -0.24354279 -0.52962977 0.3240337 0.0027158244 -0.11006051 0.22517522 0.60763043 0.19726668
diet 0.46464312 -0.008975198 0.48799938 0.078142256 0.11646487 -0.023855409 0.21963869 0.4551994 -0.47675422 -0.3338009 0.48975316 -0.55917764 0.04847007 -0.28966564 0.12348371 0.09697171 -0.027142223 -0.32711518 0.17114438 0.23905155 0.21840961 -0.047437735 -0.18722032 0.0821251 0.10333021 -0.20079853 0.23491693 0.09154978 0.33473775 0.32169056 -0.56606835 0.4714823 -0.52686197 0.14090158 0.15108912 -0.037862085 0.1053263 0.1056627 -0.3760807 -0.12400457 -0.4769355 -0.22974487 -0.24946116 0.076174565 0.10971088 0.55620444 -0.087412864 -0.2966184 -0.027178597 -0.01750463 0.024287311 -0.33950403 -0.42610168 -0.045039203 0.006754214 -0.12063703 0.16104032 -0.18992448 0.11916578 0.14700748 -0.25692475 0.36514276 -0.24327819 0.38304713 0.13318059 0.04334898 0.08673051 0.4834436 0.018862812 0.094545215 0.008765005 0.4726754 0.08683672 0.051459074 0.08735572 0.07532493 0.02073868 -0.13084471 -0.008229634 0.17621616 -0.17119671 0.01285634 0.08195847 -0.0088812215 -0.02065634 0.28581128 0.31791788 -0.0920427 0.087008245 0.23146957 -0.051811624 -0.41086373 -0.2036784 -0.44485086 0.2634566 0.002985895 -0.092665605 0.18287094 0.49657533 0.15887032
dreaming 0.375909 -0.08336536 0.4342584 0.11672556 0.07387426 -0.012786295 0.19017468 0.3688903 -0.3925986 -0.27516586 0.35318333 -0.43011758 0.00070964714 -0.23685716 0.09607207 0.14417669 -0.03954985 -0.23313846 0.1448421 0.24585536 0.16340493 -0.061091676 -0.18545902 0.10410602 0.09887685 -0.17994024 0.21078223 0.07371826 0.31557605 0.24994074 -0.46996734 0.37819317 -0.45305997 0.060689323 0.15114845 -0.03480174 0.04106124 0.079395905 -0.34108353 -0.07232137 -0.3486749 -0.2133323 -0.27285132 0.049371526 0.03065564 0.43499398 -0.07322604 -0.20281279 -0.012504054 -0.021851284 0.016413262 -0.26607764 -0.31302193 -0.03220337 0.035304133 -0.09989009 0.14669168 -0.14724736 0.1076218 0.10645625 -0.23200983 0.2847812 -0.18164393 0.33294043 0.1351847 0.10592756 0.07501279 0.40626693 0.076894335 0.124639206 -0.007457756 0.34261972 0.063498534 0.012241875 0.085068755 0.11017335 0.02481894 -0.077484265 -0.016323898 0.098496795 -0.1891365 0.031037526 0.050068848 0.071168184 -0.025798932 0.25687736 0.26175928 -0.048552305 0.0027121166 0.18739519 -0.008203226 -0.29405135 -0.16834572 -0.41292068 0.24480446 0.014702008 -0.046559233 0.14193112 0.43497768 0.09981291
white 0.4050621 -0.0022295832 0.5357683 0.114181496 0.11560372 -0.045902718 0.21077697 0.41136432 -0.48972666 -0.3554065 0.433246 -0.6050105 0.0555961 -0.21103305 0.13392243 0.11166767 -0.028897483 -0.37179458 0.16769773 0.28757805 0.20382203 -0.054976255 -0.17162958 0.12846291 0.16463 -0.23620056 0.2743596 0.10459435 0.3587618 0.2904828 -0.5433981 0.43880838 -0.5602998 0.10213344 0.13159688 0.0048107817 0.06537837 0.10485823 -0.3790198 -0.12838641 -0.50463736 -0.15490118 -0.3638448 0.063219376 0.068281546 0.54232526 -0.09353424 -0.27957812 0.011734397 -0.022365222 0.06786022 -0.36534137 -0.41417664 -0.0827812 -0.045243997 -0.124145254 0.14457785 -0.2462267 0.1247565 0.09841999 -0.23482527 0.31749585 -0.23976755 0.3729056 0.13098682 0.042806253 0.057738956 0.39710137 0.041205708 0.10099686 0.016594129 0.4970485 0.089107156 0.045631118 0.078253835 0.08078578 0.058169667 -0.086717136 0.009089581 0.113698915 -0.1806982 -0.038687132 -0.023954779 0.009299559 -0.035495516 0.26201195 0.35221052 -0.11815291 0.11886729 0.16660693 -0.03244411 -0.3836742 -0.23621894 -0.4998741 0.2747943 -0.0144930575 0.013535946 0.1998438 0.5802159 0.05394178
shit 0.6451418 -0.019208152 0.67574567 0.10787776 0.15931156 -0.036587175 0.30283913 0.6230846 -0.65882725 -0.4605943 0.6731019 -0.7758459 0.07243828 -0.39717755 0.16797733 0.13408415 -0.04221574 -0.4440226 0.2400673 0.32992738 0.30681872 -0.06490973 -0.2589166 0.11648075 0.1374219 -0.28005126 0.32311755 0.124028765 0.46787667 0.43164262 -0.78317624 0.6582399 -0.7174143 0.1875014 0.20326093 -0.055130057 0.1381279 0.13969588 -0.5246967 -0.1622779 -0.6571314 -0.3246322 -0.34630406 0.09368631 0.14155139 0.7590125 -0.11313324 -0.40874925 -0.04305366 -0.030564085 0.021852951 -0.46785378 -0.58824545 -0.06649371 -0.0025863564 -0.15647945 0.22687276 -0.26503646 0.16455811 0.19898559 -0.36368057 0.50415194 -0.3337404 0.5269811 0.19000517 0.06223253 0.11926454 0.65494186 0.027851347 0.13141249 0.018057104 0.6564416 0.108850345 0.070234135 0.10859786 0.10380884 0.033331767 -0.18966267 -0.011167386 0.23880534 -0.23313239 0.008754389 0.10593693 -0.0061682607 -0.037458416 0.39748046 0.43434435 -0.12912732 0.11124187 0.314986 -0.071681574 -0.5646143 -0.27427045 -0.60719603 0.36949545 0.0007687816 -0.117247336 0.25383013 0.69050807 0.21672158
listen 0.5691385 -0.055369902 0.56204224 0.06616476 0.102526486 -0.033883996 0.2645346 0.56238765 -0.57745475 -0.4115034 0.5900766 -0.692507 0.035317916 -0.35967818 0.1504726 0.18093754 -0.014136101 -0.38998744 0.19564292 0.31843176 0.30137217 -0.07108699 -0.23042002 0.118555695 0.11327852 -0.26531047 0.2852986 0.108483806 0.43977022 0.40789962 -0.66089416 0.5692436 -0.65494525 0.16711545 0.20894635 -0.07377437 0.13121495 0.100508966 -0.44827947 -0.13238369 -0.54646015 -0.26421496 -0.3320631 0.10671337 0.11598416 0.6692897 -0.08380012 -0.35840487 -0.076457016 -0.0009754349 0.062708244 -0.39967984 -0.5329291 -0.084824905 0.036693558 -0.13813041 0.19092534 -0.22190967 0.16052568 0.15997458 -0.3150204 0.4656864 -0.2950472 0.50815916 0.18986641 0.106061846 0.09840793 0.61782104 0.04515946 0.14369482 0.0066634747 0.5857535 0.10861168 0.037992146 0.12580511 0.09791685 0.048871495 -0.17720152 0.04845047 0.17249474 -0.19107598 0.029902894 0.0863287 0.011582114 -0.028232336 0.33290738 0.3804739 -0.1012207 0.09151848 0.25394756 -0.061484806 -0.49194103 -0.23358184 -0.5662087 0.35857463 0.011180607 -0.122592695 0.19679041 0.61443967 0.16703941
lean 0.6357955 -0.011843053 0.6575226 0.102984115 0.1549064 -0.044201627 0.2981824 0.60836065 -0.64071184 -0.45853674 0.6611965 -0.7632597 0.074728936 -0.3991584 0.16338585 0.13078724 -0.03425566 -0.43987957 0.23878732 0.32556367 0.30001894 -0.06384443 -0.24744326 0.12248997 0.14208545 -0.2778788 0.3181795 0.121378824 0.46086267 0.42530277 -0.7733175 0.64457965 -0.70792735 0.18608949 0.20553268 -0.05588981 0.14360285 0.14033744 -0.5165858 -0.16670206 -0.64126605 -0.31800818 -0.34260952 0.091520466 0.14433005 0.7542176 -0.109436266 -0.40123263 -0.04344765 -0.027535051 0.02762551 -0.4676492 -0.5829818 -0.06911897 0.0007474882 -0.16068631 0.21471003 -0.26106793 0.15516631 0.19315751 -0.35366434 0.49651214 -0.33429477 0.5313556 0.17970465 0.06268511 0.124719225 0.648164 0.03126238 0.124766536 0.015825437 0.64295816 0.11185425 0.06719595 0.1129233 0.09137565 0.036950476 -0.18209368 -0.017339513 0.22696623 -0.22832316 0.007573688 0.10927635 -0.007017439 -0.030137343 0.39241534 0.42605075 -0.123984925 0.11114698 0.3118538 -0.06801262 -0.55880636 -0.27446324 -0.60015136 0.3666375 0.009884124 -0.12226804 0.24077612 0.6781629 0.21282355
zack 0.3579064 -0.018725969 0.39044645 0.055344973 0.077878036 -0.019720573 0.16507423 0.35156247 -0.36679333 -0.2670861 0.38116184 -0.4360973 0.04018332 -0.23327115 0.09895176 0.08890237 -0.009191155 -0.25476807 0.14305292 0.19212803 0.16084813 -0.039414544 -0.14175205 0.071049646 0.06273113 -0.15642607 0.18229426 0.066958874 0.26759574 0.23781203 -0.4545097 0.36473444 -0.418022 0.100410365 0.12195073 -0.034789454 0.09178279 0.08601667 -0.30079803 -0.09481887 -0.37051204 -0.19043124 -0.20860675 0.06481562 0.08587876 0.43925732 -0.057906803 -0.22826177 -0.020731783 -0.011537727 0.017042946 -0.26557544 -0.33834562 -0.03822037 0.012146177 -0.093277626 0.1315648 -0.15052699 0.084305435 0.10857359 -0.20899135 0.27944756 -0.18029238 0.29687703 0.11613837 0.032255054 0.06565132 0.3733924 0.027438825 0.079935685 0.00938401 0.36400074 0.06766846 0.044121135 0.06156068 0.06869006 0.021993993 -0.12010904 -0.013647167 0.13224705 -0.13963267 0.017870815 0.065173276 -0.0031665065 -0.024237406 0.22247136 0.24045455 -0.06637581 0.074862905 0.18185568 -0.039664976 -0.3111356 -0.1517076 -0.3425132 0.20701456 0.009450193 -0.067258425 0.14606148 0.38641065 0.10827979
one 0.685827 -0.018569203 0.7057778 0.09964516 0.16213207 -0.040611472 0.3139536 0.6603251 -0.6932582 -0.49205902 0.719494 -0.82655555 0.07376523 -0.4339296 0.18342555 0.157713 -0.028268589 -0.4781138 0.25122964 0.35990188 0.33623636 -0.063338906 -0.27251253 0.12881969 0.1490147 -0.30472314 0.33814147 0.13320675 0.5018567 0.46593484 -0.81899214 0.69084424 -0.77098805 0.20944206 0.22378977 -0.06574868 0.15511166 0.14438449 -0.55268806 -0.17678173 -0.6837067 -0.33696294 -0.36966947 0.106668115 0.15565799 0.808933 -0.11658434 -0.43009716 -0.055794172 -0.021329116 0.041702587 -0.4988033 -0.63662714 -0.079015106 0.009535815 -0.17160456 0.23546302 -0.28291333 0.17428902 0.20881122 -0.3832941 0.53829074 -0.3586325 0.5795056 0.20575097 0.07179053 0.12958044 0.7081346 0.032515403 0.14660585 0.016851798 0.70280486 0.11855467 0.07035078 0.120068364 0.105799876 0.03438498 -0.19860606 0.0054994705 0.2477738 -0.24184608 0.013141863 0.1113529 -0.012104391 -0.030195642 0.4087362 0.46126053 -0.1346654 0.119286686 0.33246642 -0.07919926 -0.59522724 -0.29180646 -0.6446436 0.39851108 0.005693763 -0.13397524 0.25768483 0.7338868 0.22373828
black 0.50215536 -0.094606385 0.6149062 0.15689704 0.098121986 -0.027573122 0.2588274 0.49755442 -0.55261713 -0.39484972 0.4964961 -0.621193 0.018026842 -0.3093854 0.14601462 0.19806673 -0.05751984 -0.3499507 0.20490779 0.3423473 0.22699419 -0.08134164 -0.25631577 0.14401776 0.13917437 -0.25923184 0.28950372 0.098069735 0.43596032 0.34972104 -0.64113533 0.53472966 -0.6313271 0.08653175 0.19467677 -0.025405303 0.059257567 0.10188797 -0.47716314 -0.1067309 -0.5142554 -0.27436137 -0.38508284 0.06979636 0.041770093 0.5994761 -0.110086486 -0.29122427 -0.009296923 -0.022407044 0.036588307 -0.3833979 -0.44644102 -0.052844252 0.026450874 -0.13203613 0.19768305 -0.2222234 0.1498274 0.15263635 -0.31691536 0.38145167 -0.26798737 0.45711437 0.18908304 0.12522878 0.09769697 0.5404069 0.098489545 0.16453898 -0.014922404 0.4870164 0.077807106 0.023155004 0.11218641 0.13752796 0.03637569 -0.10480579 -0.02705599 0.13061649 -0.24938825 0.029260196 0.062000014 0.0854943 -0.046608638 0.33706322 0.37208226 -0.09151352 0.031946693 0.2530362 -0.022562439 -0.4214116 -0.25100726 -0.57381517 0.34458745 0.014485462 -0.0465571 0.21288168 0.62551504 0.114794634
love 0.51405704 -0.013766118 0.53054035 0.08130829 0.1306544 -0.033766296 0.2303431 0.49509534 -0.5283534 -0.37298816 0.532454 -0.6229325 0.05073565 -0.31626454 0.13504826 0.11389964 -0.024144404 -0.3553856 0.19659315 0.26114982 0.24305183 -0.047899865 -0.19833224 0.09202604 0.109288774 -0.22157407 0.25326297 0.095003486 0.365759 0.342823 -0.61954784 0.5196729 -0.56942856 0.15386261 0.16945855 -0.041725233 0.11169408 0.11338024 -0.4244792 -0.13560586 -0.5137604 -0.25206932 -0.27797377 0.08402797 0.12146622 0.607119 -0.08983149 -0.32182977 -0.03144757 -0.01707084 0.02101038 -0.37472546 -0.4702013 -0.051789466 0.0057566604 -0.12489513 0.17604408 -0.21468808 0.1251248 0.15421788 -0.2833693 0.392992 -0.27325583 0.42425036 0.14468142 0.048423756 0.092344694 0.51981056 0.02196206 0.09840163 0.011208274 0.52190256 0.09180696 0.058275465 0.09105592 0.08189971 0.021359578 -0.15101327 -0.0099273175 0.18947326 -0.18327081 0.015114403 0.08691268 -0.0038869872 -0.029934403 0.3168008 0.34610233 -0.09981041 0.08803595 0.2550939 -0.059243847 -0.4503074 -0.21352299 -0.48029235 0.28418013 -0.0030620126 -0.09953204 0.1926943 0.55148584 0.1668102
high 0.5401728 -0.011184591 0.5650615 0.088860534 0.12725143 -0.033043344 0.2552099 0.52206033 -0.5481414 -0.39121673 0.5624954 -0.6477354 0.062221482 -0.3335539 0.14489144 0.11761122 -0.028124025 -0.37883878 0.20268719 0.2765702 0.25754574 -0.055285007 -0.21899366 0.10817057 0.12659921 -0.23071538 0.26834133 0.10135245 0.38777563 0.35693866 -0.6501985 0.54208255 -0.60298944 0.1564865 0.17156546 -0.04415285 0.11452392 0.115489826 -0.43761456 -0.13806522 -0.54276 -0.26408234 -0.2992936 0.07919152 0.11582839 0.6354431 -0.09738791 -0.33404556 -0.035078175 -0.0266322 0.028428517 -0.3966747 -0.49775258 -0.058298267 -0.004327188 -0.13293025 0.18796927 -0.22350436 0.1360868 0.16163108 -0.29908335 0.42141378 -0.28210056 0.447036 0.15152705 0.049001772 0.09898632 0.54475045 0.019753508 0.109323755 0.017568786 0.54690737 0.09929281 0.06043671 0.09679712 0.09078945 0.032500476 -0.14654884 -0.006909151 0.19073954 -0.18894964 0.009232935 0.078168154 0.0011405523 -0.023689624 0.3263715 0.3638448 -0.10999121 0.09344092 0.26443028 -0.060725205 -0.46716878 -0.22964537 -0.5148124 0.3126953 0.0005824962 -0.09457541 0.21533994 0.57770914 0.17788616
dont 0.5853365 -0.010106558 0.6073573 0.09502614 0.14237982 -0.032537967 0.27476823 0.5626649 -0.5984845 -0.41914216 0.6168894 -0.70682895 0.06401228 -0.3662533 0.15258418 0.13122113 -0.029833972 -0.4045213 0.21468303 0.2988564 0.275941 -0.052004986 -0.22922954 0.109803796 0.12636954 -0.253416 0.28899884 0.11408972 0.41669723 0.39522308 -0.70918214 0.59568053 -0.6503106 0.17704926 0.18797939 -0.051118765 0.1245276 0.12915482 -0.48165292 -0.147786 -0.5864839 -0.2964254 -0.3123099 0.085350685 0.13889329 0.68887776 -0.11128901 -0.37064695 -0.03452256 -0.019679062 0.02480826 -0.4188852 -0.54154456 -0.06803247 0.0027702653 -0.14719571 0.19832721 -0.2450845 0.1444325 0.17985186 -0.32058296 0.45620453 -0.3106263 0.48237643 0.17639951 0.051314313 0.11306956 0.5921248 0.02149976 0.11226507 0.022358073 0.5894879 0.09907779 0.067897946 0.10559484 0.09352845 0.033834606 -0.17225866 -0.005171554 0.20932907 -0.2105046 0.012659096 0.090967074 -0.0005971756 -0.026849395 0.35688892 0.39600548 -0.1180042 0.096550286 0.29128137 -0.06570746 -0.51027393 -0.2535968 -0.54761696 0.33418524 0.0081679085 -0.11336291 0.22538315 0.6223091 0.19851612
pain 0.65237457 -0.01472404 0.6758359 0.10585923 0.16451657 -0.041964646 0.304256 0.6241946 -0.6574093 -0.4664432 0.6833018 -0.7863646 0.07016161 -0.40689704 0.16534567 0.14350526 -0.0357135 -0.4533543 0.24047157 0.33508012 0.3126346 -0.05971453 -0.26069322 0.11754861 0.14096102 -0.2881184 0.32474703 0.12598588 0.4719153 0.4388667 -0.7841899 0.6621911 -0.71841776 0.19294298 0.2067463 -0.060438216 0.14537321 0.14099683 -0.53456956 -0.16691461 -0.65599746 -0.32477406 -0.35393375 0.10025874 0.15158555 0.7717691 -0.11643868 -0.41359994 -0.039978974 -0.02881586 0.032676015 -0.47226992 -0.59463084 -0.07564297 0.0019318747 -0.15670568 0.22237025 -0.26861006 0.15823746 0.1992305 -0.3666271 0.5043163 -0.33388436 0.5408721 0.191664 0.05794615 0.11973475 0.6634214 0.024918782 0.12880135 0.022030642 0.66378576 0.115274824 0.0724978 0.11334547 0.10377161 0.029084357 -0.19127427 -0.002967532 0.23816049 -0.22918189 0.009226685 0.103018515 -0.012111214 -0.03633601 0.3927729 0.43866223 -0.13557063 0.10844997 0.31869963 -0.07131057 -0.561207 -0.27311245 -0.6086657 0.37041432 0.0025401546 -0.123343706 0.24616644 0.6907654 0.219961
syrup 0.5702388 -0.0050260196 0.59016484 0.08637643 0.1409002 -0.02593364 0.26693162 0.554221 -0.58321166 -0.40814522 0.59236616 -0.6820947 0.07153466 -0.3490675 0.15770991 0.1149224 -0.041564472 -0.3815944 0.21094546 0.2889211 0.27190974 -0.05689209 -0.22495827 0.108901694 0.1258167 -0.2433429 0.28257897 0.11571694 0.39376354 0.37660044 -0.6777533 0.5761675 -0.62005305 0.17770837 0.18865769 -0.040659934 0.1305991 0.1289615 -0.45598623 -0.15578061 -0.57369536 -0.28017905 -0.29199746 0.09629811 0.12321693 0.6720238 -0.111506805 -0.35398847 -0.045212116 -0.03070888 0.027557798 -0.40944818 -0.5229098 -0.06484691 -0.002962514 -0.14598677 0.20295778 -0.23789755 0.13974811 0.16368517 -0.30451727 0.44152656 -0.294119 0.46859536 0.16806717 0.051676102 0.11265755 0.5694122 0.018561874 0.111925334 0.014658921 0.569419 0.09630361 0.06836093 0.09697109 0.095405936 0.017426671 -0.16622224 -0.017057791 0.21161321 -0.19783482 0.013123739 0.09123553 -0.014055868 -0.02079181 0.34759295 0.3861946 -0.12052973 0.09849829 0.28573632 -0.06822102 -0.48368746 -0.23911273 -0.52666783 0.3265253 -0.00066208985 -0.112300925 0.20939335 0.59189 0.19756278
lil 0.5631762 -0.106365986 0.6462068 0.16320354 0.109370746 -0.02744845 0.28190583 0.5515065 -0.58361953 -0.41292402 0.5415538 -0.65368605 0.008173018 -0.34954616 0.14208357 0.20726465 -0.066920534 -0.3660608 0.22401293 0.36506987 0.24414538 -0.079685114 -0.27910227 0.15244928 0.12982611 -0.2734418 0.29843834 0.1106537 0.45511165 0.3762234 -0.69781834 0.574801 -0.67514867 0.095429495 0.21777198 -0.042021334 0.08001506 0.107572906 -0.51019955 -0.12647563 -0.5265812 -0.30577505 -0.39233112 0.06739925 0.048126344 0.65187943 -0.11384983 -0.3151456 -0.023866076 -0.019651065 0.018993337 -0.3963196 -0.48058605 -0.063720554 0.042490546 -0.13961853 0.21589138 -0.23400691 0.15143211 0.15512402 -0.3316478 0.4306743 -0.2865824 0.49185783 0.2000553 0.14049222 0.11130289 0.6070717 0.09890998 0.17158318 -0.0068647955 0.52963644 0.088866815 0.020894928 0.11849947 0.1444774 0.042059444 -0.13229787 -0.017337417 0.16209278 -0.26235676 0.026704278 0.085673735 0.08391688 -0.03291734 0.3770964 0.3919806 -0.08651441 0.024177687 0.28160232 -0.030032733 -0.45018792 -0.24895963 -0.60281 0.37390348 0.017534776 -0.0751939 0.21259828 0.6529166 0.14334719
need 0.48427245 -0.014438743 0.49956897 0.07667186 0.11323165 -0.03551093 0.23088865 0.4743488 -0.49752513 -0.3457019 0.51616 -0.58503276 0.050287608 -0.30636904 0.12922646 0.10387603 -0.025035718 -0.3370876 0.17740694 0.25038415 0.23358199 -0.044537254 -0.18871936 0.09508871 0.1004136 -0.21480756 0.243941 0.09205265 0.35474393 0.33259502 -0.58849394 0.49254864 -0.5418118 0.14281948 0.16134453 -0.046073586 0.111440234 0.10161877 -0.3962356 -0.12150867 -0.49387726 -0.24652492 -0.26494867 0.07885134 0.11142173 0.579517 -0.08587342 -0.3091129 -0.0326465 -0.013999628 0.020386536 -0.35288903 -0.446168 -0.05574865 0.0079605775 -0.11528343 0.16445675 -0.19526978 0.120510735 0.14756611 -0.26599598 0.3819379 -0.25609982 0.40010664 0.13889214 0.051972885 0.08847416 0.50579226 0.019982655 0.10171736 0.013673186 0.49769244 0.082376726 0.0529224 0.084947586 0.07455344 0.021142488 -0.14270772 -0.006308222 0.17206432 -0.1710999 0.014640706 0.082104646 -0.004552585 -0.027012559 0.29169804 0.32996705 -0.098714225 0.087571986 0.23258185 -0.05446466 -0.42849222 -0.2073593 -0.46100202 0.27957693 0.003427237 -0.08852567 0.18478109 0.5204343 0.15750098
nigga 0.57088107 -0.013759882 0.5910011 0.08458728 0.15338156 -0.03593182 0.25986007 0.55812466 -0.5887015 -0.41656113 0.60487926 -0.69167095 0.05687545 -0.358241 0.15405917 0.11800621 -0.031690754 -0.40387854 0.22248307 0.30117777 0.26623532 -0.059209377 -0.22444858 0.10185446 0.11425687 -0.24497676 0.28610712 0.108406164 0.41641232 0.39026535 -0.70388204 0.5839166 -0.64361334 0.16965815 0.1915417 -0.04948372 0.1221452 0.1267061 -0.4779843 -0.14785016 -0.57531923 -0.28544262 -0.31369945 0.090588845 0.13224466 0.68083787 -0.10489044 -0.3724044 -0.041725263 -0.027726322 0.018483484 -0.42141446 -0.5309291 -0.05185087 -0.008388055 -0.14270227 0.19930634 -0.2288217 0.13916773 0.17029904 -0.3273091 0.4368493 -0.30634663 0.475261 0.17084192 0.050293736 0.10408294 0.5777825 0.025270555 0.12094404 0.011371958 0.58628654 0.10052453 0.07128229 0.09334514 0.097605295 0.030024678 -0.1653253 -0.016740527 0.21532412 -0.2096893 0.009602265 0.08686155 -0.012298842 -0.022623831 0.36039355 0.3831976 -0.12019587 0.10167718 0.28974426 -0.0723113 -0.5056074 -0.24999298 -0.5436914 0.32282448 -2.357177e-05 -0.114687376 0.2180635 0.6225323 0.19709638
cough 0.5674958 -0.009321414 0.57663363 0.097049735 0.12820126 -0.036960952 0.26812333 0.5318309 -0.5773208 -0.39947778 0.5941775 -0.67504984 0.06936811 -0.34545824 0.14508897 0.118175924 -0.040453684 -0.3803575 0.21325012 0.27812788 0.2630702 -0.05403187 -0.21873401 0.097910695 0.12800276 -0.23410502 0.2713115 0.11406504 0.40323365 0.38113436 -0.6777513 0.56854826 -0.6293615 0.17119022 0.1740558 -0.041562285 0.13019897 0.12034318 -0.45563343 -0.15321797 -0.5696052 -0.28149456 -0.2926325 0.08673002 0.12112034 0.65907866 -0.1084359 -0.35743725 -0.032459132 -0.02112246 0.024465619 -0.41899878 -0.51346993 -0.06777095 -0.005503625 -0.14297113 0.19163236 -0.24021709 0.138621 0.16340587 -0.31067574 0.44460857 -0.28302258 0.45706522 0.16061343 0.06288986 0.10253417 0.56513405 0.016752489 0.12079808 0.019244619 0.5764936 0.105996944 0.068326354 0.08847116 0.08881927 0.021466698 -0.16444543 -0.013966826 0.20931181 -0.20383075 0.018842338 0.10155682 -0.0013522514 -0.024009118 0.34267285 0.3795117 -0.106225155 0.10585103 0.27703518 -0.06661802 -0.48702297 -0.23228453 -0.5218594 0.3251626 -0.0014000459 -0.104741745 0.2076442 0.592599 0.19633298
ban 0.66173375 -0.004520057 0.6741941 0.11530506 0.16734417 -0.033946667 0.3077302 0.6327064 -0.6636201 -0.45791128 0.68869156 -0.77798915 0.067162424 -0.40401798 0.17310257 0.15299791 -0.04356003 -0.45911747 0.23377094 0.33259657 0.31042486 -0.06876885 -0.25093737 0.1140171 0.13818502 -0.2801298 0.3221156 0.11607966 0.46660966 0.4400383 -0.7865387 0.6451633 -0.7182089 0.18402918 0.20984711 -0.046580575 0.13384457 0.14267519 -0.5218477 -0.16460635 -0.6501076 -0.33036798 -0.3523542 0.08195096 0.16002049 0.7634628 -0.12952872 -0.4094735 -0.034579292 -0.012263684 0.011643192 -0.4791013 -0.5899706 -0.06366738 -0.0030315944 -0.15696746 0.23788466 -0.26190233 0.15661226 0.2072878 -0.3587817 0.49760947 -0.3429829 0.5353902 0.1939469 0.045340996 0.10974727 0.6636864 0.020188365 0.13968058 0.020137126 0.6549632 0.124881744 0.082887456 0.12702261 0.08557827 0.035514705 -0.1807566 -0.007856434 0.24088338 -0.2319096 0.0012609411 0.12066805 -0.0028962991 -0.043868385 0.3930382 0.41966242 -0.12068017 0.110274255 0.30538908 -0.07536956 -0.5739323 -0.26693663 -0.60706675 0.37061357 0.0036299208 -0.11598606 0.26586768 0.69575536 0.2092717
soundcloud 0.6725725 -0.07025129 0.5953976 0.010913295 0.08505328 -0.060174596 0.31033224 0.6851514 -0.6913088 -0.47472206 0.7239133 -0.81991225 0.020420274 -0.4284638 0.18582672 0.23665562 0.023408195 -0.46028358 0.22232498 0.38323778 0.3948561 -0.07596212 -0.24238248 0.14378347 0.12096059 -0.32362843 0.31702614 0.122887075 0.50851613 0.5179988 -0.744927 0.67445856 -0.77660954 0.24444836 0.2541108 -0.13131505 0.1811431 0.114034764 -0.4677473 -0.14139797 -0.6234017 -0.26112753 -0.39883998 0.16019335 0.1684878 0.7934345 -0.075395204 -0.45749265 -0.12464423 0.025441818 0.12785394 -0.46150902 -0.660816 -0.12886335 0.07114306 -0.15557332 0.19562538 -0.2587831 0.19648291 0.1828933 -0.37067705 0.56811523 -0.36170486 0.6231067 0.22747675 0.13667049 0.11368675 0.7476525 0.02996327 0.17319438 0.007727909 0.7270348 0.124582 0.04800985 0.17193843 0.099732585 0.088934 -0.2429726 0.13965304 0.20161173 -0.1758568 0.038683433 0.112898655 8.474003e-05 -0.018529985 0.37493426 0.43149644 -0.13108806 0.13502595 0.26644796 -0.098139025 -0.5851895 -0.27547678 -0.6622183 0.43582967 0.030688308 -0.17136246 0.19279888 0.6961606 0.17519978
friends 0.35848328 -0.00832229 0.45024544 0.08717549 0.09486355 -0.036682997 0.18240526 0.35298568 -0.3928189 -0.2842545 0.3728346 -0.49900055 0.0430768 -0.19188339 0.103501864 0.099430114 -0.01741313 -0.30304694 0.14587894 0.22891848 0.1661661 -0.0324335 -0.14923179 0.110865474 0.1329486 -0.19859982 0.23064692 0.081977054 0.3070021 0.2495546 -0.45854238 0.374815 -0.4670515 0.07596508 0.10262228 -0.01649514 0.07189856 0.08784258 -0.3083849 -0.10235018 -0.40410575 -0.14425285 -0.29453883 0.05017779 0.059772443 0.45923886 -0.07765967 -0.23466459 0.01043369 -0.010614193 0.045184843 -0.30140954 -0.34808624 -0.05961813 -0.029363528 -0.10707843 0.11844104 -0.20031005 0.11200026 0.091132864 -0.19607143 0.26530117 -0.21021247 0.31331694 0.109143645 0.040248066 0.051742967 0.3501245 0.027428677 0.087759025 0.0152925765 0.4105278 0.08239606 0.044148687 0.07929268 0.073354304 0.037192006 -0.086374186 0.0032270602 0.11358855 -0.14432934 -0.020448888 -0.00803837 0.0017950956 -0.022274729 0.22850506 0.28785464 -0.08774752 0.08132832 0.1517048 -0.016827514 -0.3221415 -0.19232133 -0.4143576 0.2426907 -0.022202702 -0.0011171354 0.17262179 0.47624418 0.055735324
np 0.6977399 -0.102310605 0.5832841 0.0015731882 0.08551238 -0.061001394 0.325753 0.7013833 -0.68136084 -0.46494687 0.7425859 -0.83918303 0.016428282 -0.44346616 0.1675953 0.2548474 0.026250834 -0.4713209 0.20262057 0.38320798 0.403741 -0.092066444 -0.26108646 0.13740279 0.10347914 -0.33552948 0.32008126 0.124404356 0.53497416 0.5368941 -0.7467809 0.65689266 -0.77478075 0.24116725 0.24843854 -0.13207485 0.18841349 0.107562855 -0.46619976 -0.13110529 -0.63413304 -0.2686784 -0.39940116 0.16781412 0.19131164 0.8073788 -0.07469029 -0.4464653 -0.13990186 0.026508624 0.14026287 -0.4780379 -0.6666198 -0.15193342 0.081952065 -0.15547286 0.20842499 -0.23595081 0.20053248 0.17013842 -0.34926653 0.58759564 -0.38538224 0.6369975 0.24019733 0.13712455 0.11276756 0.7807936 0.027313383 0.20127952 0.008374904 0.719993 0.14029641 0.049508996 0.19383523 0.08765458 0.09750724 -0.260503 0.15420206 0.18620093 -0.18249403 0.070547424 0.11526089 -0.0036180285 -0.038937226 0.382421 0.46001288 -0.1296647 0.14242783 0.26453662 -0.0926838 -0.59693766 -0.2591594 -0.66928154 0.42718357 0.034695867 -0.17376906 0.19887356 0.7064856 0.18029605
future 0.5485406 -0.010660667 0.57649577 0.08647164 0.14050798 -0.029082207 0.25742432 0.5338048 -0.56265545 -0.39558396 0.58034515 -0.66299504 0.071587056 -0.3461617 0.14410453 0.11789511 -0.034136664 -0.39162433 0.2008013 0.27920917 0.25961488 -0.053198855 -0.21919437 0.105725825 0.11577687 -0.23981024 0.27273822 0.09952269 0.39110473 0.37200415 -0.6711544 0.5560956 -0.62170756 0.15848058 0.17757091 -0.048897922 0.1258145 0.12340955 -0.45521468 -0.14149585 -0.5556341 -0.28110147 -0.2961238 0.08046002 0.1299709 0.65327257 -0.10174457 -0.34995684 -0.03705547 -0.03389224 0.021649944 -0.40316123 -0.51107025 -0.060185492 0.0046071117 -0.13827169 0.19027053 -0.23103216 0.14547187 0.16558512 -0.31084812 0.42976457 -0.27974105 0.4573724 0.16630358 0.05167106 0.105031885 0.56250554 0.022604002 0.11531095 0.015810646 0.56364703 0.101972826 0.05961272 0.09005 0.088223554 0.026872689 -0.16164176 -0.012253182 0.21002987 -0.1960474 0.010798701 0.095161214 -0.0073099392 -0.023292912 0.3333306 0.37591743 -0.10838996 0.092552684 0.27047625 -0.06502158 -0.477725 -0.23300844 -0.5181665 0.3147128 0.0012737853 -0.10582777 0.21197487 0.5969828 0.1903762
taking 0.5202616 -0.008977495 0.5294141 0.090678364 0.13268068 -0.035493203 0.23715732 0.5000692 -0.530929 -0.37190843 0.54025465 -0.6229749 0.054974824 -0.32049784 0.13241577 0.1066819 -0.026425458 -0.3560288 0.19403213 0.26830944 0.2478316 -0.043933798 -0.19750099 0.09330693 0.11058269 -0.22086954 0.25591633 0.100013584 0.3639297 0.34432697 -0.61519897 0.5316722 -0.5657018 0.15085997 0.16413978 -0.04407506 0.10651697 0.10921562 -0.42217642 -0.12725684 -0.530259 -0.24740775 -0.27888846 0.08017869 0.12046934 0.60818255 -0.093688376 -0.328317 -0.03397346 -0.022156477 0.016994335 -0.37705094 -0.4779881 -0.051817056 8.0467595e-05 -0.122934096 0.18158779 -0.21028994 0.12521723 0.16805343 -0.2894034 0.41054705 -0.26627174 0.43170133 0.14883426 0.054765478 0.101579785 0.53194416 0.028757717 0.10302192 0.021254178 0.5202208 0.09454019 0.06523912 0.091795325 0.071178354 0.029555652 -0.14733906 -0.013476508 0.18655589 -0.1823908 0.0024463404 0.078763165 -0.002767539 -0.026613792 0.31773967 0.3466337 -0.10220676 0.09092289 0.26208317 -0.0561285 -0.4576937 -0.21691968 -0.48570633 0.2943792 0.0110784 -0.09396746 0.20893127 0.5521561 0.17077355
video 0.5694782 -0.049578477 0.64067847 0.11140247 0.122111194 -0.020709008 0.2702787 0.55284876 -0.5848922 -0.4391442 0.5810209 -0.67747337 0.045290925 -0.38239095 0.15549526 0.17184632 -0.02958001 -0.38823152 0.22710817 0.33969444 0.2520038 -0.054625954 -0.23890229 0.119006924 0.107892275 -0.24614392 0.313456 0.11032266 0.4492005 0.3771827 -0.7279442 0.596178 -0.68909067 0.14587833 0.21374644 -0.0483101 0.12205869 0.1252875 -0.5034408 -0.14945988 -0.56293887 -0.30052778 -0.34745315 0.10398984 0.10669878 0.69033295 -0.095457226 -0.3329413 -0.016724095 -0.022954836 0.039020717 -0.42612392 -0.543581 -0.06057131 0.025129858 -0.14640144 0.21414547 -0.25020042 0.1402754 0.18039723 -0.3467064 0.4401685 -0.3015275 0.502221 0.19870394 0.09578587 0.08963036 0.61700606 0.07267363 0.14721951 -0.010131824 0.5550998 0.088617444 0.07214086 0.10355309 0.112459265 0.02320122 -0.176012 -0.025727063 0.18309511 -0.2289998 0.049494073 0.09174079 0.045039825 -0.039749637 0.3754194 0.37493235 -0.095017016 0.08282999 0.29699624 -0.061384063 -0.4852636 -0.25602904 -0.5880066 0.34201786 0.012434117 -0.089299224 0.21954422 0.6377308 0.16868657
feel 0.49527925 -0.014723652 0.52451557 0.08259357 0.12892725 -0.02930053 0.22958441 0.48481858 -0.50369763 -0.3606394 0.5219151 -0.59767383 0.061625 -0.30837274 0.13518424 0.109243095 -0.02855082 -0.35797802 0.19002979 0.26278287 0.24158548 -0.04008377 -0.20532784 0.10190092 0.1127356 -0.21591474 0.24349605 0.09196521 0.35680124 0.33521014 -0.60536367 0.50832325 -0.5462215 0.15107864 0.15677992 -0.04268069 0.10908613 0.106894426 -0.40660793 -0.13279895 -0.5029606 -0.24437925 -0.26057985 0.080925725 0.117677405 0.58195996 -0.08484083 -0.31244665 -0.034153104 -0.015902447 0.026459841 -0.3723131 -0.45822453 -0.04826309 0.0007263865 -0.12835932 0.17441568 -0.20134968 0.122046046 0.14506204 -0.27605164 0.38580352 -0.2643092 0.41466302 0.14908244 0.042528998 0.09506083 0.51250166 0.01614291 0.09416268 0.019016715 0.510193 0.08815154 0.057650432 0.08935873 0.07816151 0.032390643 -0.14305805 -0.005087047 0.1848339 -0.17483814 0.012317102 0.082961544 -0.00732171 -0.023570348 0.3019147 0.33196193 -0.101342015 0.08460384 0.24108092 -0.057620827 -0.43593165 -0.20922042 -0.4653639 0.2784611 -0.0039254143 -0.098547585 0.18834063 0.5336815 0.16766115
go 0.6128898 -0.010675472 0.63652325 0.093611665 0.14595428 -0.04273305 0.28001907 0.58814985 -0.6218882 -0.442147 0.64252 -0.73803353 0.07191367 -0.38467163 0.16440019 0.1353582 -0.04047161 -0.4283836 0.22893576 0.32059136 0.28624925 -0.058428805 -0.24281773 0.11965501 0.13612403 -0.26942286 0.3045406 0.115609266 0.43839628 0.41863966 -0.74679416 0.6266174 -0.6879992 0.18021056 0.20183009 -0.04875134 0.1286665 0.12950347 -0.50373966 -0.15866682 -0.62540984 -0.31140223 -0.33552474 0.09636079 0.1388325 0.7234298 -0.115591526 -0.3922669 -0.033668187 -0.022544833 0.027399015 -0.45009404 -0.5647458 -0.066756725 -7.704771e-05 -0.1571071 0.21733965 -0.2540217 0.14733453 0.18392187 -0.34383786 0.47851923 -0.31774095 0.51032895 0.18012038 0.0635187 0.11728243 0.62874967 0.028333334 0.12925759 0.019940095 0.6241456 0.1125846 0.06754566 0.1065381 0.099226706 0.034235924 -0.1756796 -0.0066562113 0.2188904 -0.22375531 0.00938575 0.097234584 -0.009813621 -0.027885476 0.37293035 0.41092026 -0.12192202 0.10837086 0.30342388 -0.06534846 -0.5290651 -0.26597378 -0.5837284 0.35471606 0.0009627266 -0.11568255 0.23335734 0.662302 0.20712103
really 0.55668306 -0.0090721175 0.5735311 0.09001076 0.1289992 -0.037325528 0.26139036 0.526189 -0.5614803 -0.39900148 0.5720008 -0.6638893 0.058884844 -0.33689633 0.14633834 0.11485187 -0.03609695 -0.38537657 0.20481804 0.28292337 0.2595778 -0.045141965 -0.22254045 0.10445106 0.11827786 -0.23331654 0.2771906 0.10756247 0.38978443 0.3707094 -0.665528 0.55631506 -0.6094859 0.1617477 0.17283049 -0.045164462 0.12200765 0.12236701 -0.44883284 -0.13959187 -0.5573274 -0.27779672 -0.29830968 0.0799883 0.123765185 0.6482213 -0.10298472 -0.34672076 -0.032144573 -0.026367031 0.021979606 -0.39462018 -0.5093049 -0.05653972 0.0075484347 -0.14043939 0.18715298 -0.23075475 0.14090249 0.16809914 -0.3003995 0.42901275 -0.28304055 0.45718017 0.16237144 0.05774419 0.10677555 0.56389755 0.01966064 0.10909357 0.022255518 0.55335295 0.100125335 0.062165 0.101393685 0.08387613 0.024366984 -0.15844873 -0.008279842 0.20298414 -0.19856583 0.0071602236 0.084041886 -0.001069073 -0.028918335 0.3306732 0.37456346 -0.10417985 0.088939264 0.27177948 -0.056101874 -0.48151782 -0.23636502 -0.51396376 0.31100956 0.0032936195 -0.10362997 0.21475741 0.5831098 0.18358989
time 0.587789 -0.0071922275 0.60425776 0.09581269 0.13962075 -0.030855915 0.26633725 0.5639896 -0.59202737 -0.41830847 0.610699 -0.69983184 0.07044796 -0.3627886 0.15709218 0.12112424 -0.034282744 -0.39972463 0.22073856 0.30231062 0.27818987 -0.053775143 -0.23198523 0.111354396 0.12554249 -0.24920528 0.2911734 0.11147797 0.4157676 0.39198267 -0.70743936 0.5873913 -0.64503664 0.1685972 0.1857152 -0.04602714 0.12345967 0.12660775 -0.47312328 -0.15516518 -0.58758795 -0.29103532 -0.31638035 0.08955507 0.1348409 0.68415767 -0.10298657 -0.36574844 -0.03154235 -0.023447808 0.027358947 -0.42522284 -0.5316637 -0.06351632 0.0065698167 -0.14130574 0.2049863 -0.23754188 0.14619097 0.1782281 -0.32269737 0.45511252 -0.29998034 0.48504463 0.17094874 0.05367472 0.10654109 0.59128124 0.022585342 0.1145919 0.021846583 0.5918628 0.10568315 0.06611209 0.103113376 0.08935509 0.02288156 -0.16670321 -0.0114708515 0.2154676 -0.21075548 0.014709289 0.10062421 -0.010306204 -0.030953722 0.34891254 0.38716424 -0.11843332 0.10509396 0.28170255 -0.07021099 -0.5070783 -0.25023586 -0.54387337 0.33171612 0.0034868852 -0.10835212 0.22706471 0.6200749 0.1908978
think 0.5768186 -0.009082512 0.60161895 0.0922723 0.14144048 -0.038526393 0.27297723 0.55906755 -0.5909826 -0.41921818 0.6002234 -0.69054615 0.05841225 -0.3586856 0.14521903 0.12943175 -0.031587016 -0.40399283 0.21205854 0.2983935 0.27692485 -0.05646252 -0.23007502 0.10744531 0.12732628 -0.24672315 0.28862658 0.108220115 0.4123746 0.3929635 -0.69963557 0.5879197 -0.6436536 0.17444386 0.18628255 -0.047519065 0.12783545 0.12547065 -0.4711611 -0.14541921 -0.58422583 -0.29228532 -0.30829415 0.08792278 0.13490376 0.6835951 -0.10909876 -0.36371285 -0.035415612 -0.026496846 0.02452657 -0.42363024 -0.53254807 -0.059004802 0.00450229 -0.14488459 0.19831406 -0.23714948 0.14356914 0.17291582 -0.32523552 0.45357016 -0.2989871 0.47677463 0.1730743 0.060451526 0.110148266 0.5893643 0.020711195 0.11613164 0.015566653 0.58761656 0.104208454 0.06249953 0.10347369 0.094129056 0.032641202 -0.17046241 -0.0088571645 0.21082431 -0.20151179 0.013330753 0.096705414 -0.0039146463 -0.030521816 0.34827292 0.39130354 -0.11349483 0.093700826 0.27779594 -0.061608348 -0.5008263 -0.24311152 -0.5445519 0.32990128 0.0034955177 -0.112148724 0.22205986 0.61987287 0.19766936
said 0.572504 -0.010950899 0.596105 0.095783316 0.14266434 -0.032908197 0.26093063 0.55259514 -0.58042794 -0.4082883 0.58948416 -0.6788888 0.06176527 -0.35842225 0.14101994 0.12364485 -0.034948878 -0.3952454 0.20519178 0.296792 0.27325305 -0.05595491 -0.23176196 0.11062303 0.121463604 -0.24625449 0.2821528 0.110737786 0.41025633 0.38011432 -0.68986124 0.5754528 -0.63590485 0.16150747 0.18355629 -0.04475991 0.12073489 0.12954566 -0.46506253 -0.14592877 -0.5753502 -0.27776888 -0.31084624 0.08580654 0.124003604 0.67230356 -0.10709592 -0.36109272 -0.043231744 -0.025676472 0.03032648 -0.40778285 -0.52638143 -0.0569245 0.006518411 -0.14071324 0.19329934 -0.23953074 0.14090031 0.17889735 -0.31881854 0.44550088 -0.29878795 0.47281432 0.1619482 0.06349336 0.10761583 0.5770541 0.02515508 0.12045091 0.015879223 0.5759059 0.099746235 0.06929026 0.09765242 0.08508509 0.03288879 -0.16562009 -0.011079854 0.20462233 -0.19762352 0.0111240195 0.0894963 -0.0065844855 -0.024660446 0.34818873 0.38692835 -0.11351849 0.10288939 0.27731884 -0.065670386 -0.49443948 -0.24791679 -0.53883344 0.3198992 0.0074068145 -0.11018779 0.22097558 0.61544776 0.18788801
know 0.5144027 -0.005586602 0.5321789 0.07943601 0.121634595 -0.026941475 0.23452604 0.48780453 -0.51772255 -0.36805585 0.5322612 -0.6125459 0.057759956 -0.32057685 0.13006853 0.10503721 -0.03363844 -0.35234192 0.18534777 0.26395416 0.23975118 -0.042823646 -0.19902165 0.090130456 0.10953596 -0.22162399 0.24943085 0.10127721 0.3655093 0.34753844 -0.6117989 0.5121375 -0.5691508 0.15424845 0.16157246 -0.0454944 0.10851753 0.11385795 -0.41306925 -0.13541274 -0.5189132 -0.25765392 -0.26816764 0.072871774 0.11317467 0.60411143 -0.09779968 -0.3261782 -0.035131443 -0.022979261 0.02139084 -0.36350602 -0.4682076 -0.051319186 -0.0022189382 -0.12878643 0.1769976 -0.2066492 0.1238588 0.14978658 -0.28782552 0.3997356 -0.2647794 0.41677076 0.14823048 0.048241105 0.09858644 0.5198998 0.01765386 0.099066935 0.015401726 0.5158887 0.08739671 0.06084731 0.09228759 0.07611559 0.027550215 -0.1435368 -0.003130795 0.1854071 -0.18413883 0.008072758 0.080216356 -0.0021065515 -0.020162001 0.30990463 0.33896688 -0.097666845 0.09308309 0.24522218 -0.05405934 -0.43788975 -0.21908489 -0.47260615 0.29183763 0.005160977 -0.09717337 0.19534618 0.5425795 0.17158729
wayne 0.45263922 -0.10398669 0.5399035 0.14763017 0.089416325 -0.007935441 0.22627026 0.43968055 -0.4730684 -0.32728225 0.4281488 -0.51219356 0.00072578137 -0.28467706 0.13118848 0.184688 -0.04050568 -0.27901152 0.1657869 0.30489576 0.19962211 -0.08592827 -0.23444442 0.12687327 0.12654974 -0.21247745 0.25431764 0.0854162 0.39116812 0.31127626 -0.5544218 0.46728522 -0.5424643 0.06695804 0.18775581 -0.04329328 0.04605854 0.09722926 -0.41110995 -0.08357507 -0.4284477 -0.26954526 -0.32866403 0.06560581 0.029099124 0.5307306 -0.09832929 -0.25642347 -0.016942132 -0.024011731 0.029196607 -0.32962546 -0.38571092 -0.043242235 0.047785245 -0.12239739 0.18847065 -0.17834528 0.14123376 0.1413115 -0.28914517 0.3417936 -0.22825913 0.39560384 0.17474923 0.13129723 0.091712706 0.4965544 0.090464115 0.15222512 -0.014158639 0.40218472 0.07266157 0.009586917 0.09738217 0.13694064 0.02290848 -0.09107754 -0.029952006 0.11836721 -0.22936249 0.04800734 0.06887255 0.09317675 -0.048020296 0.31311756 0.32317314 -0.06572611 0.009299446 0.22479902 -0.0047281524 -0.35670012 -0.2151855 -0.5109751 0.30394742 0.010693171 -0.050590612 0.18038653 0.54080075 0.12669909
took 0.6211974 -0.013973859 0.6363418 0.09760885 0.15145262 -0.043686427 0.2840717 0.593802 -0.63144237 -0.441092 0.6398496 -0.748688 0.062990405 -0.39075494 0.1678541 0.13088769 -0.041654307 -0.43401474 0.23047008 0.32140613 0.2887992 -0.058273036 -0.24756208 0.12005914 0.13242224 -0.26273483 0.30864695 0.11256345 0.44699275 0.41540492 -0.75273216 0.6253387 -0.6915725 0.18120761 0.20103885 -0.04813012 0.1370249 0.13027705 -0.50594366 -0.15454604 -0.6294764 -0.31244057 -0.3330505 0.09106806 0.14400017 0.7297848 -0.11009685 -0.3959529 -0.03624308 -0.024598204 0.019412186 -0.44546676 -0.5619557 -0.06715182 0.0067737056 -0.1478244 0.21555504 -0.25741035 0.14773338 0.18891034 -0.35253197 0.4873032 -0.3207942 0.510631 0.18212554 0.06897105 0.11813442 0.6376051 0.025909536 0.12287536 0.018878503 0.6235378 0.10411033 0.06331926 0.109295525 0.10048665 0.03013903 -0.17699768 -0.009325005 0.22783504 -0.22458804 0.0068042916 0.10638596 -0.006316299 -0.025933158 0.37353733 0.41892886 -0.12187629 0.10769611 0.30104256 -0.06374354 -0.53256935 -0.26383665 -0.58310723 0.3503126 0.01049315 -0.11402484 0.23798181 0.66349643 0.19729675
youtube 0.54457605 -0.043306496 0.6079135 0.11598353 0.09993918 -0.021030646 0.24289732 0.5118914 -0.55990237 -0.407462 0.555387 -0.62482655 0.0462355 -0.344114 0.15309985 0.16394772 -0.022563003 -0.35113198 0.21091573 0.30980754 0.23559304 -0.066126615 -0.21965775 0.12791653 0.102037825 -0.23170242 0.2766199 0.113476254 0.42606327 0.3580898 -0.68217295 0.5517993 -0.6391758 0.13565296 0.18798989 -0.04361348 0.11621495 0.10251675 -0.4695956 -0.1323157 -0.52589685 -0.2838803 -0.34108225 0.09726203 0.11113167 0.6488658 -0.08608615 -0.32486835 -0.015760096 -0.020861315 0.045426644 -0.41082117 -0.509406 -0.055444222 0.02363337 -0.14250909 0.20023979 -0.23109266 0.13472444 0.16241775 -0.33131713 0.41811493 -0.2670081 0.4678837 0.17645372 0.06835925 0.079953566 0.556973 0.05514531 0.14314762 0.0076437015 0.5360273 0.07977478 0.073447086 0.086685136 0.11013736 0.025065394 -0.17184408 -0.022523254 0.16603857 -0.23281582 0.047735248 0.09229893 0.03821404 -0.048145525 0.3462105 0.34880143 -0.0813131 0.09051265 0.28382912 -0.05462852 -0.45564932 -0.23966347 -0.5403284 0.3303188 0.01988973 -0.08585269 0.21399824 0.6068311 0.15275964
kodak 0.46603954 -0.09791531 0.56370384 0.14348708 0.09366494 -0.018760681 0.23238264 0.46525675 -0.47981432 -0.34063533 0.4428934 -0.54340005 6.872552e-05 -0.30144072 0.13018695 0.18420012 -0.05432987 -0.29258245 0.1744378 0.32035893 0.19533505 -0.07419165 -0.23356593 0.13344528 0.114969246 -0.22744945 0.26662415 0.08652248 0.4030023 0.30523524 -0.58774394 0.4860234 -0.5806891 0.066812575 0.1927252 -0.04405897 0.06555043 0.092485644 -0.43758935 -0.095227316 -0.43360382 -0.2773659 -0.3402513 0.06112974 0.029095724 0.55808043 -0.09333491 -0.25634253 -0.015360055 -0.026444517 0.014559948 -0.33358085 -0.40430972 -0.04993262 0.050595775 -0.12273936 0.19516502 -0.18677439 0.13284302 0.13320068 -0.29514983 0.34964806 -0.23473263 0.41956952 0.17463563 0.12335398 0.08801805 0.50076574 0.08826165 0.15003142 -0.017589036 0.41971996 0.08024328 0.015776483 0.107577756 0.13142173 0.022365816 -0.104350574 -0.028459799 0.12963028 -0.23321736 0.03187127 0.0634504 0.08440857 -0.042481534 0.32519796 0.32741827 -0.063310504 0.005891687 0.24151596 -0.009249571 -0.38208565 -0.21152249 -0.52507806 0.31880948 0.015650688 -0.05946991 0.19131641 0.55489826 0.12026086
prod 0.7602845 -0.09486583 0.6733287 0.025731472 0.10844087 -0.051596545 0.34517452 0.7532503 -0.7678657 -0.52879924 0.80709136 -0.9256009 0.03155633 -0.47234452 0.19352707 0.24807724 0.02328685 -0.5175713 0.23599035 0.42970827 0.43641776 -0.09876502 -0.2785692 0.15423931 0.13750154 -0.3612579 0.3520323 0.1364337 0.57339066 0.57259935 -0.82705015 0.7375118 -0.8555923 0.25735366 0.28174797 -0.13126197 0.18292987 0.12664688 -0.5306812 -0.15613182 -0.69473934 -0.30261606 -0.4326192 0.1681462 0.19755898 0.88116705 -0.090533346 -0.506618 -0.14068972 0.014099527 0.13313755 -0.52570677 -0.71349037 -0.13799223 0.06983766 -0.16555151 0.2250144 -0.27275202 0.21923392 0.21011877 -0.41035786 0.6281054 -0.4045291 0.6933021 0.2474417 0.1435613 0.12918901 0.83803815 0.043618016 0.2078561 0.003511872 0.8032278 0.14713325 0.05018107 0.19284031 0.11761758 0.08755029 -0.2743226 0.13837449 0.22188397 -0.20791033 0.06270862 0.122558005 -0.0072520515 -0.028671334 0.4200794 0.5003933 -0.14635056 0.15414731 0.29884017 -0.093837984 -0.6537219 -0.2925704 -0.7448789 0.47906563 0.024327211 -0.18404454 0.223076 0.7886879 0.2040419
people 0.5788598 -0.016568827 0.60108 0.087036386 0.14067692 -0.03713662 0.26718462 0.5568417 -0.5840663 -0.41751605 0.5991244 -0.6903523 0.069211096 -0.35978198 0.15261424 0.12149025 -0.035476368 -0.39851537 0.21886128 0.30130425 0.27812573 -0.053730555 -0.22495583 0.10935504 0.12349645 -0.2458276 0.2854193 0.106028795 0.4095703 0.38752612 -0.6964692 0.5866885 -0.63938856 0.16781712 0.19117296 -0.052718323 0.12310418 0.12581934 -0.47077674 -0.14458528 -0.5828549 -0.28956828 -0.30702537 0.09186031 0.13370366 0.6798962 -0.10538058 -0.36641207 -0.036687803 -0.018824877 0.02706726 -0.421982 -0.529158 -0.06772217 0.0016999022 -0.14107107 0.19880678 -0.2378213 0.14542712 0.16937487 -0.32010567 0.445304 -0.2986843 0.4774877 0.17156552 0.054006826 0.11055073 0.59007686 0.020880012 0.118552394 0.014440929 0.5853979 0.101949655 0.06249486 0.09790382 0.09413608 0.02698535 -0.16966951 -0.003119093 0.21187288 -0.20897341 0.0066547226 0.08953006 -0.0076267454 -0.02867623 0.34800994 0.39164487 -0.11967917 0.09994057 0.28004754 -0.06639669 -0.5052648 -0.24083005 -0.53731304 0.32916337 0.003573538 -0.10310403 0.22248869 0.61485845 0.18884791
weed 0.5078492 -0.01175981 0.5193313 0.07526272 0.12648414 -0.024109103 0.23667206 0.4890689 -0.5145894 -0.36731482 0.53221 -0.6106636 0.056798324 -0.30931747 0.12676503 0.11084078 -0.033003826 -0.355519 0.19158117 0.2599189 0.23671928 -0.051810615 -0.19347656 0.090416655 0.10858451 -0.21387872 0.25512713 0.09977077 0.36493897 0.3362138 -0.61168 0.5161288 -0.55770755 0.14955038 0.16807899 -0.04618157 0.11443168 0.108239695 -0.40682304 -0.1331853 -0.51212883 -0.2536155 -0.27078062 0.08054013 0.11074153 0.5973796 -0.08875012 -0.3223368 -0.030507086 -0.02190698 0.018429322 -0.36253875 -0.4631119 -0.053449944 0.00064094574 -0.12744167 0.17371175 -0.20424119 0.12923764 0.15621653 -0.27842695 0.39704093 -0.26211923 0.41256303 0.14912473 0.043586794 0.098999634 0.51468575 0.025305256 0.09768363 0.018958379 0.5146456 0.089774914 0.059915643 0.085947156 0.079652056 0.02019102 -0.14984821 -0.0032499982 0.18983261 -0.17525202 0.009315345 0.081529886 -0.011889359 -0.021977464 0.31082195 0.33451957 -0.09828693 0.09107383 0.25068843 -0.05893716 -0.4408743 -0.21546504 -0.46949387 0.28146654 0.0021323238 -0.08979126 0.1957201 0.542636 0.17238326
still 0.56308866 -0.007557152 0.5764087 0.087823965 0.1387424 -0.03799994 0.2580446 0.54198796 -0.56958014 -0.40036258 0.5865174 -0.67512214 0.06371767 -0.35286155 0.14647835 0.1184888 -0.03001915 -0.38946247 0.20921095 0.2880674 0.27026337 -0.055653617 -0.2185276 0.108845025 0.11743399 -0.24743192 0.28054988 0.10751655 0.39945033 0.37540492 -0.67490715 0.56988436 -0.6212051 0.17180258 0.18139213 -0.04474494 0.1185466 0.12523182 -0.4558827 -0.1484071 -0.56325704 -0.2843399 -0.29614463 0.08341493 0.12247531 0.6589607 -0.099283084 -0.35922155 -0.03376375 -0.018578997 0.022665784 -0.40490654 -0.51432246 -0.06018687 0.0069946256 -0.13483581 0.18898168 -0.22738162 0.14261343 0.17154089 -0.31684294 0.43344477 -0.2902455 0.46510017 0.16724452 0.05910819 0.10706627 0.57448304 0.025751788 0.110055536 0.015420087 0.5722918 0.10311007 0.066546045 0.10276986 0.08597048 0.025373504 -0.1661875 -0.0043857857 0.21139498 -0.20233808 0.012168335 0.09494942 -0.005736459 -0.029777322 0.34349194 0.37898177 -0.11358022 0.0924043 0.27487203 -0.060982 -0.48907772 -0.23324953 -0.5214222 0.3202504 0.009607363 -0.101070106 0.21335651 0.5979191 0.18964031
man 0.5668859 -0.013304679 0.5956217 0.091449834 0.14480248 -0.035704996 0.25643986 0.55039656 -0.5784354 -0.41257775 0.59404033 -0.68392843 0.0652979 -0.35840997 0.15557551 0.11974697 -0.029338172 -0.39921883 0.21383335 0.29723996 0.2692711 -0.053693708 -0.23091194 0.11453003 0.12718455 -0.24693294 0.27931467 0.10645569 0.40302888 0.38177976 -0.68991077 0.57418436 -0.628041 0.16757095 0.18816876 -0.052266132 0.12237298 0.1303509 -0.46872282 -0.14629996 -0.58027637 -0.2891463 -0.30541173 0.08388719 0.13242099 0.66611636 -0.10300447 -0.35706005 -0.032893673 -0.022383092 0.020249352 -0.4203682 -0.522343 -0.059659205 0.0023138511 -0.14969549 0.20025367 -0.23193106 0.13745485 0.16784741 -0.3121374 0.4473798 -0.3011499 0.47612745 0.16376783 0.048092484 0.1021021 0.57905424 0.018383935 0.113403745 0.017725607 0.5811727 0.10363072 0.069254145 0.10151243 0.089655794 0.026807074 -0.15870348 -0.0065536858 0.21591286 -0.20275752 0.017572181 0.09713422 -0.008466544 -0.023651892 0.34933 0.38251185 -0.11373453 0.1044355 0.2769901 -0.05920094 -0.49952707 -0.24351989 -0.53404796 0.3235197 0.0023263348 -0.10768713 0.22221018 0.612195 0.19463505
life 0.43213415 -0.007567204 0.4528283 0.07367519 0.10985059 -0.018113576 0.19950236 0.4206913 -0.44305256 -0.32231554 0.4615727 -0.53150463 0.043759294 -0.27474433 0.11976235 0.09209899 -0.030392256 -0.31268093 0.16509674 0.22144105 0.2122811 -0.037551135 -0.17921679 0.086346425 0.099679165 -0.195766 0.2166696 0.08045748 0.30908617 0.28605777 -0.5300396 0.44872066 -0.48228553 0.13112967 0.14526786 -0.037417606 0.10090588 0.09549311 -0.35378113 -0.10957651 -0.4396959 -0.21678588 -0.22435221 0.06860428 0.099688575 0.5118607 -0.08137051 -0.27831736 -0.028133951 -0.015892334 0.022820065 -0.32439378 -0.40892965 -0.041657116 -0.003345748 -0.11761953 0.15454224 -0.18512885 0.1041991 0.13082394 -0.24500164 0.33633277 -0.2331159 0.36260262 0.12659803 0.03245199 0.08632708 0.44787264 0.011439151 0.08476291 0.019408248 0.44537374 0.0834108 0.05047352 0.068443194 0.070319824 0.025101312 -0.12615602 -0.0030969358 0.15804015 -0.15465567 0.0130449645 0.06762144 -0.010846794 -0.023225624 0.26441005 0.29260245 -0.09120775 0.079565585 0.21611278 -0.04715408 -0.3776325 -0.18736422 -0.4135774 0.24764235 -0.0034862806 -0.081670605 0.17063612 0.46492973 0.14501664
peso 0.6891741 -0.10569056 0.5631932 -0.024363056 0.058308814 -0.05500852 0.3008744 0.6966466 -0.684285 -0.46199694 0.73497075 -0.83312416 0.010399511 -0.442858 0.17667913 0.2684664 0.043284144 -0.4520583 0.20278347 0.38539964 0.4249932 -0.078152955 -0.24534509 0.14635415 0.10434955 -0.32797617 0.3092063 0.119109854 0.5314339 0.531568 -0.7200191 0.6683504 -0.7749952 0.24997135 0.25685146 -0.15038082 0.18056288 0.09041417 -0.4441485 -0.12065467 -0.6076818 -0.23725784 -0.40435064 0.16595444 0.18743956 0.8038328 -0.058597684 -0.46576878 -0.16048424 0.039302684 0.16439378 -0.46728948 -0.6674941 -0.16351436 0.09324835 -0.14645806 0.17846821 -0.24547777 0.19686686 0.17419735 -0.34912607 0.58124524 -0.38030475 0.63777024 0.23730174 0.15550844 0.10686024 0.7731747 0.04225142 0.20016053 -0.0036423237 0.73709565 0.13707878 0.044383574 0.18966714 0.094235346 0.09989057 -0.2631528 0.1927692 0.16858816 -0.16140802 0.0580597 0.10620047 -0.0032915438 -0.020759616 0.37134746 0.43069437 -0.12932551 0.1388578 0.23941915 -0.10986821 -0.59238386 -0.25531536 -0.678071 0.44861892 0.03797793 -0.18495725 0.1824256 0.6926619 0.16591324
lmao 0.4601238 -0.01123809 0.47510356 0.072244704 0.11094629 -0.0276639 0.20875774 0.44711238 -0.46983805 -0.33129138 0.4708741 -0.5461708 0.054003347 -0.27766284 0.117572114 0.101381026 -0.021258293 -0.3213567 0.17461368 0.23919562 0.21837662 -0.05000717 -0.17681472 0.078227445 0.09090606 -0.20083493 0.22042044 0.08212048 0.3317045 0.30443633 -0.5519353 0.456806 -0.51180184 0.138485 0.1462641 -0.04254346 0.09797409 0.102472894 -0.36756682 -0.12493613 -0.46339175 -0.22739783 -0.24889489 0.07291695 0.10195945 0.54436994 -0.08076623 -0.29125765 -0.032176513 -0.018162476 0.018194446 -0.32558146 -0.420931 -0.04865368 0.0022079162 -0.12136498 0.1559365 -0.1823725 0.10943033 0.14068067 -0.25990233 0.35120532 -0.241308 0.3810139 0.12790138 0.045873526 0.08452223 0.45428967 0.014849282 0.08968441 0.01451025 0.46774855 0.08097446 0.05314734 0.07652365 0.076596476 0.024044978 -0.12835333 -0.008176 0.1659264 -0.16606426 0.008546681 0.07010878 -0.005807845 -0.015475067 0.27450523 0.30301866 -0.08667369 0.078622416 0.2229966 -0.051708814 -0.3992801 -0.19975005 -0.43291095 0.2542084 0.010925068 -0.0827884 0.1777752 0.47863442 0.14748962
much 0.4658539 -0.0067223655 0.47915116 0.06880168 0.1154319 -0.023431588 0.21756318 0.4550249 -0.47698158 -0.33291602 0.48832667 -0.56345075 0.05009119 -0.29015696 0.12346014 0.09529669 -0.030383112 -0.3232332 0.17817146 0.23954417 0.21789178 -0.037826855 -0.18720554 0.082091354 0.10218603 -0.20596051 0.23295088 0.09127449 0.32822153 0.31544456 -0.5614542 0.474023 -0.51748616 0.13981195 0.15061219 -0.03643525 0.09912106 0.103590935 -0.37906697 -0.118832216 -0.47011468 -0.23139042 -0.24549235 0.07655991 0.10643396 0.5523636 -0.08929075 -0.28963783 -0.025353841 -0.015166154 0.023048364 -0.3390549 -0.42912787 -0.052406073 7.105957e-05 -0.11035482 0.15880659 -0.18609305 0.11071424 0.14314497 -0.25816506 0.3658823 -0.24711685 0.38088855 0.1323171 0.04196485 0.08878006 0.4786158 0.018781494 0.093284905 0.016297396 0.47243774 0.077548556 0.05365514 0.079136014 0.06905075 0.016266935 -0.13218574 -0.00429191 0.17412461 -0.16650768 0.0073742736 0.07649223 -0.0024218683 -0.02337827 0.28139699 0.31567428 -0.08955125 0.07808212 0.23329335 -0.04750629 -0.39771557 -0.2022933 -0.4364219 0.26485175 0.0052472474 -0.084439956 0.18403158 0.49311066 0.16032556
drinking 0.42137364 -0.009012119 0.43673104 0.07088505 0.11217688 -0.019267067 0.18445016 0.41803423 -0.43557435 -0.30903584 0.44875112 -0.51517177 0.049365595 -0.2556056 0.109581694 0.087145545 -0.02347657 -0.29719204 0.16682795 0.21236992 0.20283595 -0.040787723 -0.16553739 0.07492373 0.08468086 -0.1783601 0.21552026 0.078267895 0.30593476 0.28480476 -0.5172931 0.42646912 -0.47584495 0.12765495 0.14025392 -0.03837802 0.08881223 0.086986914 -0.34752607 -0.10584716 -0.42202902 -0.2057893 -0.2283544 0.064867355 0.09886018 0.5054371 -0.08047295 -0.27480736 -0.022547832 -0.022338225 0.0089417575 -0.31256 -0.38124865 -0.04628885 -0.0056293253 -0.110130906 0.14252773 -0.16875984 0.103720985 0.12117165 -0.23026805 0.31952164 -0.2273768 0.35125843 0.124075204 0.03753442 0.07395488 0.42929986 0.01799654 0.078022994 0.01055418 0.4255145 0.0725584 0.04639948 0.06390924 0.07483514 0.018657522 -0.13033827 -0.014864787 0.15286034 -0.15167065 0.010597287 0.06588467 -0.011988366 -0.016941998 0.26613304 0.28699517 -0.088190675 0.07254924 0.21608296 -0.05645884 -0.37264627 -0.17494655 -0.39685515 0.22911544 -0.0017874219 -0.085604906 0.16800912 0.4598064 0.14202593
back 0.54179835 -0.015503319 0.5684807 0.086612925 0.13300115 -0.03687113 0.2551396 0.5237194 -0.5509362 -0.38895953 0.57096666 -0.64772207 0.05625411 -0.33596727 0.14330205 0.12237296 -0.031403422 -0.37911248 0.1979463 0.27735138 0.2597597 -0.046020508 -0.2176678 0.10717856 0.114641316 -0.2368486 0.27047983 0.107045874 0.39383978 0.3708765 -0.65501416 0.55313855 -0.6045828 0.15988635 0.1739314 -0.04970955 0.11804769 0.1136145 -0.4457185 -0.14394139 -0.55187047 -0.27547532 -0.29394332 0.079457924 0.12824798 0.6452377 -0.09899915 -0.34633029 -0.03695008 -0.016591161 0.024710758 -0.39095876 -0.49362692 -0.05829793 0.0077428916 -0.1370436 0.1844247 -0.22150747 0.13514107 0.16792427 -0.2986813 0.42005554 -0.28692153 0.4528486 0.16333246 0.05992728 0.10527574 0.5576424 0.029348617 0.108821176 0.01339017 0.5528601 0.10013881 0.060466703 0.09693213 0.088706575 0.028467005 -0.152021 -0.01171645 0.20053972 -0.18825044 0.0050249808 0.09095178 -0.0031587684 -0.031708524 0.33279693 0.36920848 -0.114347875 0.087968566 0.2706668 -0.061414205 -0.46854204 -0.23359822 -0.5138484 0.31277043 0.00565936 -0.10659663 0.20653433 0.58171284 0.18304396
good 0.6122072 -0.015770199 0.63348424 0.093799226 0.15137807 -0.03585381 0.27969357 0.5897896 -0.6209238 -0.4385715 0.6302655 -0.7343473 0.07169031 -0.37340188 0.1620167 0.12843655 -0.035345417 -0.42714325 0.22168124 0.3157737 0.2839529 -0.05411024 -0.23987395 0.11792081 0.13603818 -0.26790428 0.3027828 0.11919691 0.4328272 0.41261196 -0.728183 0.6150743 -0.68297744 0.17949189 0.19795257 -0.049822263 0.1373979 0.1281295 -0.50051016 -0.16207778 -0.61311066 -0.30212238 -0.3306077 0.091654465 0.13862029 0.7231095 -0.11301606 -0.382788 -0.037676126 -0.027685566 0.023855656 -0.44220123 -0.563997 -0.062447865 0.0031064763 -0.15474483 0.21043444 -0.2534228 0.14786613 0.18093598 -0.34045103 0.47171777 -0.31500322 0.50476193 0.18251896 0.062048305 0.11566762 0.6196529 0.024584267 0.122884735 0.019359302 0.62182885 0.11162929 0.07359431 0.10747251 0.092174575 0.028103225 -0.1726825 -0.008822406 0.2280842 -0.21708627 0.01226376 0.10248016 -0.0084442375 -0.027677685 0.37424943 0.4051879 -0.12688 0.10185921 0.30124325 -0.07133376 -0.5292459 -0.26129365 -0.57520187 0.3511114 -0.00019603784 -0.11558393 0.23397058 0.6551004 0.20292924
want 0.5043635 -0.008615205 0.52436906 0.08451844 0.11877464 -0.0325906 0.22957718 0.48679924 -0.50428236 -0.3617308 0.5281978 -0.6038908 0.05237027 -0.30631733 0.13340984 0.10749918 -0.029191002 -0.3451689 0.18658035 0.2608202 0.23077883 -0.044142608 -0.20316508 0.08840921 0.104166694 -0.21764894 0.24495268 0.100055024 0.35581002 0.3378307 -0.60764295 0.5126138 -0.55536866 0.14728965 0.16236192 -0.045108024 0.109186746 0.10650654 -0.4038075 -0.12438912 -0.50570697 -0.24952815 -0.26379836 0.0741985 0.115069024 0.59139013 -0.09215763 -0.31309676 -0.0299515 -0.025740178 0.017054984 -0.3590812 -0.45522612 -0.05776456 0.0054895314 -0.11839954 0.17633225 -0.21090388 0.123380885 0.15260799 -0.27353615 0.3884493 -0.2649637 0.4129176 0.14628394 0.042993844 0.09364012 0.5070282 0.020019496 0.097861335 0.019929402 0.5115778 0.084590144 0.05680466 0.0855794 0.07748247 0.02935211 -0.1389588 -0.009013298 0.1842428 -0.17990494 0.0056165745 0.08048289 -0.00884391 -0.026522534 0.30516675 0.33864892 -0.096060745 0.08143737 0.24833024 -0.055263907 -0.43518424 -0.21231124 -0.4662598 0.28459767 0.008453409 -0.09587308 0.19762543 0.5329444 0.17090318
even 0.5617719 -0.011451643 0.5861583 0.084156945 0.14189255 -0.035810746 0.26125765 0.5431443 -0.5734834 -0.3992046 0.586273 -0.6690689 0.06662023 -0.34648603 0.14328681 0.12316863 -0.036170244 -0.3901609 0.20791234 0.28505012 0.26568535 -0.053937458 -0.21646072 0.10606473 0.117305204 -0.24840486 0.27672714 0.10787595 0.4059548 0.3759926 -0.68045944 0.56755 -0.62810147 0.16233532 0.18038473 -0.046451677 0.118904285 0.118544325 -0.4555965 -0.13960826 -0.5647898 -0.28577772 -0.3055077 0.08677906 0.1284407 0.66305095 -0.10211253 -0.35834903 -0.03567473 -0.016846979 0.019704932 -0.40835527 -0.51244384 -0.065654434 0.001106314 -0.1412984 0.19544652 -0.23120193 0.13916987 0.17354248 -0.3096055 0.43882877 -0.29763952 0.46616837 0.16516 0.052375913 0.100583464 0.5750545 0.028219096 0.11320179 0.02070104 0.5710934 0.09363275 0.06503161 0.09799857 0.09134689 0.02775635 -0.16269843 -0.0034746951 0.20724638 -0.19675454 0.0112967 0.094648875 -0.009406998 -0.030654183 0.3367336 0.37142926 -0.11631378 0.09591715 0.27373815 -0.061525952 -0.48405218 -0.24065098 -0.5310701 0.3165007 -0.0006366627 -0.10216683 0.21504156 0.5972095 0.19074644
death 0.5919307 0.024547258 0.54763645 0.10806804 0.09722676 -0.06764211 0.2453116 0.4662424 -0.48589513 -0.3613904 0.55588657 -0.6337066 0.10704196 -0.2866567 0.17622846 0.055014335 -0.015273298 -0.33787912 0.2054439 0.26056623 0.26580176 -0.0069171716 -0.20681372 0.13954169 0.1534006 -0.19055752 0.28035775 0.058629375 0.3844972 0.340332 -0.6250687 0.5261939 -0.555492 0.20480038 0.14863038 -0.1090973 0.10882807 0.12361621 -0.4029571 -0.13176286 -0.5158839 -0.2943057 -0.22867942 0.022335134 0.12823768 0.6360093 -0.050858304 -0.33850676 -0.033079304 -0.037222955 0.0088338265 -0.3670062 -0.47268286 -0.053708725 0.039148107 -0.15664583 0.17566684 -0.26650783 0.1389183 0.13952374 -0.28826055 0.4611337 -0.26764014 0.47179353 0.13535531 0.06338754 0.13095042 0.55913126 0.016227715 0.09973256 0.035761245 0.49868494 0.11623394 0.0417958 0.14105405 0.017319132 0.040395755 -0.1499719 -0.015305761 0.2122479 -0.2096118 0.0042801662 0.097875975 0.0366274 -0.0054076575 0.3342563 0.37892094 -0.100839265 0.0837436 0.25084677 -0.059780233 -0.51914155 -0.19770789 -0.47450167 0.32437032 0.0039360994 -0.062265474 0.21473739 0.52029747 0.14081533
small 0.6285497 0.019323358 0.5908548 0.092072226 0.110268354 -0.07017684 0.27393395 0.5100247 -0.5321716 -0.38575122 0.6026712 -0.67071545 0.10981466 -0.31332132 0.18827797 0.062070545 -0.018821271 -0.38144743 0.22641192 0.25904664 0.27883804 -0.01835134 -0.2418616 0.13789037 0.14836748 -0.20086393 0.29995522 0.07085487 0.39722365 0.36325222 -0.6855543 0.57015616 -0.6109719 0.22078758 0.15517008 -0.10028643 0.13345484 0.10875631 -0.42839053 -0.14010735 -0.56572986 -0.32660004 -0.25590828 0.033118278 0.12195059 0.6878383 -0.059837803 -0.35475227 -0.03641552 -0.03431569 0.022810757 -0.40938556 -0.52655756 -0.073856235 0.042056173 -0.18167879 0.19487368 -0.2621272 0.14408024 0.14047362 -0.32227582 0.4880215 -0.2931031 0.4951656 0.14306211 0.0702253 0.13355891 0.5964337 0.017681161 0.0960045 0.045142256 0.54859936 0.10360547 0.05350296 0.14089456 0.028789664 0.043394584 -0.15400924 -0.006125725 0.22034112 -0.2277555 0.026102912 0.09685962 0.046251748 -0.01140714 0.3737261 0.41579953 -0.117387004 0.07152606 0.28720358 -0.07391614 -0.5556296 -0.20578496 -0.51936066 0.34042025 0.0026044466 -0.07576369 0.21449555 0.564975 0.16750364
lol 0.4607166 -0.01308238 0.47019693 0.07616736 0.11646577 -0.022014897 0.2120544 0.44514358 -0.46231154 -0.32955405 0.47177634 -0.55149025 0.045601692 -0.2867274 0.11623186 0.10210223 -0.029642787 -0.321667 0.17079893 0.23968878 0.21668744 -0.042621914 -0.18493848 0.08840706 0.09952604 -0.19415839 0.23044547 0.08552564 0.32783812 0.3088237 -0.5503438 0.45906168 -0.5126345 0.13114628 0.14343908 -0.039003912 0.09358101 0.10097154 -0.36795083 -0.11298593 -0.4654267 -0.22314073 -0.24467506 0.06419113 0.09929561 0.5346515 -0.077470236 -0.2898911 -0.03301066 -0.019220399 0.013511907 -0.32683077 -0.4214195 -0.05234028 0.0011345253 -0.11662971 0.15652563 -0.18795337 0.11110251 0.14210165 -0.250984 0.35484433 -0.23860031 0.3798486 0.1321238 0.040920228 0.0816392 0.46564266 0.018915597 0.08773921 0.008692031 0.45793512 0.07886087 0.052942462 0.08223417 0.06605829 0.02117997 -0.12672184 -0.0039621973 0.16346592 -0.15640788 0.004309119 0.07308388 -0.008126103 -0.025485765 0.27753702 0.30914673 -0.08991103 0.07930042 0.22584657 -0.047253314 -0.39464608 -0.19697692 -0.43185136 0.2610507 0.0017643442 -0.087591656 0.17185836 0.49168867 0.1477513
see 0.53347826 -0.015416228 0.5468889 0.08214849 0.12798476 -0.03679353 0.24432386 0.51256275 -0.54571325 -0.38471675 0.5612031 -0.63807374 0.055449948 -0.3302529 0.14059395 0.12154691 -0.027968582 -0.37103137 0.1972063 0.27185196 0.25421757 -0.0462932 -0.20665762 0.09443668 0.11286429 -0.23220417 0.2697395 0.099949956 0.38624248 0.36558706 -0.64221704 0.5345026 -0.5905863 0.15734856 0.17490512 -0.042541288 0.11263409 0.113666095 -0.42665333 -0.13893893 -0.5413699 -0.26193777 -0.29156494 0.08156303 0.11827517 0.6229404 -0.10024901 -0.3362232 -0.035143312 -0.024000369 0.021280538 -0.3880678 -0.4940032 -0.057740007 0.007928604 -0.1344558 0.18212177 -0.2160216 0.13112795 0.16291189 -0.3006878 0.41816413 -0.2839464 0.4372514 0.15557048 0.05682965 0.095408775 0.54617745 0.0220438 0.10893218 0.015464255 0.5473018 0.091292456 0.0556804 0.09013214 0.08582467 0.026283588 -0.15519314 -0.010679379 0.19566914 -0.18881203 0.0082316175 0.084786125 -0.0026275783 -0.030500716 0.32338485 0.35246193 -0.10635037 0.09006543 0.26273003 -0.05572648 -0.46632686 -0.22172715 -0.4981689 0.3017166 0.005560847 -0.10145418 0.20006478 0.5745976 0.17949057
thought 0.49401066 -0.0081215985 0.5154176 0.07968471 0.11820762 -0.025109852 0.2311885 0.48640472 -0.50970954 -0.35970655 0.5257911 -0.59242755 0.06337969 -0.31823498 0.12409941 0.10642322 -0.0225975 -0.3505312 0.18124978 0.2514293 0.24134429 -0.046350207 -0.20031002 0.08827195 0.10866294 -0.21774589 0.2528196 0.094488464 0.35766545 0.34171686 -0.6004289 0.5050045 -0.5561354 0.14549626 0.16515963 -0.03533646 0.11237257 0.107328326 -0.41132465 -0.129358 -0.49784642 -0.2500227 -0.2654662 0.07220007 0.116323434 0.59132904 -0.08660591 -0.30935344 -0.029001113 -0.025170865 0.016230028 -0.36627966 -0.46049377 -0.048512075 -0.0019103216 -0.12932718 0.17610578 -0.21090113 0.12716626 0.15750974 -0.28049052 0.39010713 -0.26314056 0.40556312 0.15218888 0.048414733 0.098760076 0.5026559 0.018515592 0.09837842 0.009337568 0.5027277 0.08816176 0.058055494 0.090253495 0.07706287 0.018613836 -0.14234288 -0.010556419 0.18693312 -0.17932141 0.013389628 0.07725926 -0.010646961 -0.021472694 0.30072054 0.3285177 -0.09794897 0.091164075 0.24936047 -0.059256684 -0.4331352 -0.21016496 -0.46488342 0.288647 0.000835309 -0.09166506 0.19774158 0.52721155 0.1665796
cant 0.49650776 -0.010853508 0.5175754 0.08170091 0.1229978 -0.027506676 0.2293678 0.48406574 -0.50713927 -0.36497176 0.52047354 -0.6032741 0.057756804 -0.3106606 0.12843259 0.112873636 -0.02583271 -0.35324836 0.18300508 0.25853616 0.23396586 -0.04502266 -0.20315872 0.09615648 0.10621501 -0.21978281 0.25327554 0.09598529 0.36235306 0.34037137 -0.6049377 0.5134346 -0.56081986 0.15376413 0.16422294 -0.04512243 0.11018531 0.11042427 -0.40871036 -0.13149182 -0.5111415 -0.25453845 -0.2741867 0.07708794 0.11879232 0.5897716 -0.0868813 -0.32266408 -0.03072304 -0.017455198 0.021783913 -0.36235252 -0.45560908 -0.05837381 -0.0007504717 -0.12519422 0.17105794 -0.21284206 0.120849356 0.15026675 -0.28138688 0.3914178 -0.26250428 0.4177888 0.14606509 0.05254211 0.0945086 0.50628364 0.027631178 0.098042645 0.0176772 0.5149806 0.09311306 0.04992794 0.09190867 0.07537888 0.027490314 -0.14304577 -0.0012174578 0.18409394 -0.17715757 0.004541712 0.0856732 -0.00338374 -0.02913218 0.30922887 0.33555126 -0.10259595 0.08449474 0.23968652 -0.056072336 -0.43022043 -0.2160069 -0.47337678 0.28675735 -0.0014767065 -0.09443358 0.19700345 0.53490025 0.16791022
drink 0.4953501 -0.0071043945 0.50721985 0.08413527 0.1241725 -0.031305797 0.22683868 0.4790975 -0.50641805 -0.35542908 0.51476717 -0.5901204 0.05494985 -0.30248776 0.1264454 0.10658821 -0.023968667 -0.33949688 0.18551803 0.25438097 0.23020384 -0.047663815 -0.19192772 0.08886662 0.11212453 -0.21342306 0.24762812 0.09711033 0.35379976 0.3296781 -0.59582746 0.5012391 -0.5445501 0.15043682 0.15585785 -0.04033016 0.11184467 0.104775146 -0.3969144 -0.12350816 -0.49575916 -0.2503651 -0.2621233 0.07577636 0.11413002 0.5819863 -0.08792218 -0.31642076 -0.028125707 -0.02071971 0.025119202 -0.35692853 -0.44956118 -0.04870123 0.0022621145 -0.12783608 0.17336081 -0.20164052 0.12221479 0.15213306 -0.27785477 0.37961227 -0.25673938 0.40944135 0.14007393 0.053712595 0.08967673 0.49904293 0.019500528 0.099900156 0.017223012 0.5063658 0.09075597 0.05233351 0.09123832 0.075550154 0.021898622 -0.147566 -0.003953111 0.17793831 -0.17433843 0.011267072 0.08339832 -8.2485996e-05 -0.0255764 0.2955074 0.33333015 -0.094541244 0.08442355 0.23978299 -0.0580403 -0.43000367 -0.20583676 -0.46838188 0.27765733 0.0049968185 -0.09845448 0.18770254 0.53055716 0.16972993
right 0.5270718 -0.012223169 0.5484832 0.0790001 0.12969339 -0.033831295 0.25023463 0.5158732 -0.53383565 -0.38164002 0.5549876 -0.6318764 0.0577818 -0.3293986 0.14001629 0.11072755 -0.030267743 -0.3681032 0.19936618 0.27734235 0.24854538 -0.049061313 -0.2137368 0.098205924 0.110654645 -0.22640876 0.26969075 0.10514617 0.3856726 0.3616606 -0.63823897 0.5373343 -0.59205765 0.16153061 0.1703763 -0.045663923 0.120032065 0.11760074 -0.426401 -0.13804463 -0.536984 -0.26460066 -0.2884274 0.07668489 0.12088938 0.6236062 -0.09548288 -0.3295081 -0.0339723 -0.024689296 0.020828193 -0.38706183 -0.48634678 -0.058834765 0.0029830404 -0.13108902 0.18399833 -0.22136275 0.1267328 0.16458637 -0.2941902 0.40956682 -0.278837 0.43971035 0.15742064 0.05639889 0.10141719 0.542762 0.025760485 0.105995335 0.010832059 0.5425256 0.09885815 0.05676696 0.087858096 0.0856219 0.026908102 -0.15655217 -0.0104924515 0.1948937 -0.19183703 0.012300028 0.0812233 -0.0037585883 -0.026229652 0.3224507 0.35360792 -0.10437278 0.09443315 0.25562066 -0.057161227 -0.46064395 -0.2255956 -0.49474767 0.305183 0.0008877392 -0.095970325 0.199626 0.56278163 0.17214617
scene 0.44700813 0.014273534 0.40258306 0.06671877 0.0762178 -0.048446096 0.1794304 0.35231403 -0.36411354 -0.26582158 0.41847923 -0.4614411 0.08190302 -0.20959634 0.12793258 0.034340207 -0.009822421 -0.25164586 0.1624086 0.17391515 0.19601613 -0.004406342 -0.1630466 0.09839919 0.11571912 -0.13751784 0.20285803 0.044373926 0.2773136 0.2594109 -0.46358168 0.38941258 -0.42436227 0.16443466 0.10319122 -0.07866769 0.09249679 0.075937025 -0.29745886 -0.09734306 -0.38651568 -0.22790241 -0.16794056 0.011994212 0.082741454 0.47475904 -0.037625097 -0.25563195 -0.026664006 -0.023908867 0.018118734 -0.29055476 -0.3709103 -0.047247805 0.037425593 -0.13099709 0.1308007 -0.20101269 0.10755946 0.09711191 -0.2204499 0.34131375 -0.20817979 0.3470611 0.092967466 0.052832022 0.10420937 0.4071612 0.023935018 0.06997433 0.03481311 0.36943775 0.071791805 0.03289918 0.101165704 0.014825226 0.034591418 -0.101759896 -0.006036677 0.1496773 -0.16436 0.018676165 0.07405342 0.034291763 -0.0028747874 0.26266086 0.28465644 -0.075273044 0.05036975 0.2029993 -0.048066422 -0.39930582 -0.13803227 -0.3590922 0.2375218 0.014152487 -0.046577353 0.15035172 0.37551162 0.10438047
kobe 0.3621837 -0.016580619 0.35786334 0.044730034 0.06978685 -0.019640828 0.1633543 0.34665707 -0.3577672 -0.25364935 0.3793252 -0.4335797 0.032816086 -0.22887523 0.09543345 0.09176264 -0.005918344 -0.24895863 0.13066247 0.1870807 0.18307726 -0.03990025 -0.14378487 0.07005337 0.06622625 -0.15592541 0.17657822 0.06571483 0.26469773 0.25009874 -0.41869166 0.35998255 -0.3979346 0.11290548 0.11943208 -0.03827513 0.08398438 0.07168202 -0.28272024 -0.08301795 -0.34609908 -0.16597635 -0.19283834 0.06152779 0.08343244 0.4223637 -0.0550661 -0.2323881 -0.03648154 -0.010627797 0.031858284 -0.25659606 -0.3284368 -0.05412703 0.015516574 -0.083157025 0.1136286 -0.13876198 0.09561106 0.10695413 -0.1979525 0.28413084 -0.18710752 0.30000082 0.109654866 0.04794577 0.05962035 0.3780246 0.021536296 0.082300894 0.011716952 0.37166557 0.070805304 0.03519811 0.07453415 0.057064917 0.022829909 -0.1105214 0.01526043 0.11850262 -0.11650444 0.013492561 0.056969695 0.004474052 -0.020478144 0.20795226 0.2391317 -0.064106904 0.060310733 0.1595804 -0.043313935 -0.3131958 -0.1489612 -0.34151137 0.2147852 0.005108308 -0.07544446 0.12983233 0.38042542 0.11446125
stop 0.48272336 -0.011522926 0.49660897 0.07326254 0.11755776 -0.030294545 0.22739923 0.46858963 -0.48999116 -0.34226316 0.50266016 -0.5775789 0.05559295 -0.3021285 0.11943964 0.10606702 -0.022237882 -0.3376165 0.1820888 0.243625 0.23338638 -0.046936113 -0.18680629 0.08956957 0.106789045 -0.20791547 0.245489 0.09668626 0.3422086 0.32942337 -0.580885 0.48446468 -0.5359231 0.14209098 0.1569835 -0.043888777 0.10527424 0.10417189 -0.3912928 -0.1246917 -0.48398703 -0.23666562 -0.25848475 0.06860607 0.1057633 0.5657967 -0.09158397 -0.30566648 -0.036461435 -0.01683024 0.016658284 -0.34910882 -0.44534996 -0.05262933 0.0072004693 -0.12570728 0.16563906 -0.19869065 0.11780192 0.1428449 -0.26885033 0.37440452 -0.2555623 0.39613092 0.14251162 0.045420803 0.091011524 0.48638728 0.02145361 0.0952825 0.017878449 0.49112812 0.09111882 0.051301375 0.08652581 0.07523096 0.021241857 -0.14025912 -0.009864286 0.17818351 -0.1662996 0.00490898 0.074342005 -0.004098326 -0.025461461 0.2911416 0.32140717 -0.10037924 0.08554243 0.23054522 -0.054399196 -0.42253932 -0.2085147 -0.45382822 0.27099428 0.007929388 -0.096028246 0.19044535 0.5119252 0.16153046
sprite 0.39163432 -0.007138435 0.40823394 0.06465003 0.09334867 -0.027997425 0.18200678 0.37489924 -0.3953168 -0.27728343 0.4122577 -0.4745824 0.047590006 -0.24155529 0.10315053 0.08724786 -0.028227214 -0.27510536 0.14879735 0.19540754 0.18718061 -0.036940534 -0.1535613 0.069748186 0.0853039 -0.17363986 0.1942602 0.07964348 0.27878308 0.2628466 -0.47134006 0.3927753 -0.44129103 0.11463181 0.12878002 -0.03403466 0.09145653 0.082984306 -0.3127531 -0.106475346 -0.39639837 -0.19011779 -0.21014673 0.056771867 0.09016976 0.4672768 -0.07500644 -0.24567054 -0.02604742 -0.010943972 0.02023026 -0.28912863 -0.36482048 -0.04743363 -8.2926585e-05 -0.09394415 0.13046922 -0.16403337 0.09138276 0.112869464 -0.22110534 0.30251938 -0.20086181 0.32376006 0.117908016 0.03215206 0.07376282 0.40156043 0.017415393 0.07770331 0.008009353 0.40301642 0.07000552 0.045596324 0.06340827 0.057482522 0.017278021 -0.11497596 -0.0077329124 0.13929202 -0.14276455 0.012404142 0.067861326 -0.0015708932 -0.013933611 0.23852998 0.26916906 -0.07896134 0.06615157 0.18913078 -0.047853846 -0.3350112 -0.16181336 -0.36269033 0.21667422 0.0024847235 -0.07044675 0.15410227 0.41645893 0.1336876
sweet 0.3312365 -0.01000082 0.35310712 0.05133566 0.08205053 -0.013123368 0.14415784 0.31912082 -0.33619884 -0.24395646 0.34911498 -0.39793482 0.044331174 -0.2072475 0.09407658 0.07439425 -0.021952141 -0.23369475 0.12784159 0.16840391 0.15468061 -0.021752454 -0.13838518 0.07293975 0.07574916 -0.14626494 0.1605793 0.06845127 0.2269173 0.21996807 -0.39689496 0.33043483 -0.35506102 0.09597207 0.112773575 -0.026323333 0.07992789 0.07510272 -0.26409087 -0.08861377 -0.32797566 -0.17183647 -0.16551054 0.061604787 0.068974845 0.38694793 -0.061189782 -0.20146036 -0.01287187 -0.015709635 0.010922653 -0.2514061 -0.3083639 -0.03280387 -0.0009852177 -0.09132521 0.111609444 -0.14003254 0.08396327 0.09697106 -0.17695466 0.2549684 -0.17617026 0.2742476 0.10186063 0.025638536 0.05783222 0.33479476 0.0092495745 0.061698366 0.011398677 0.3284703 0.058810502 0.048802085 0.05253993 0.05138802 0.018112568 -0.09824866 -0.001761935 0.12858656 -0.1148616 0.019253492 0.06370069 -0.0036688293 -0.0096393535 0.20085718 0.21305245 -0.071729235 0.061729115 0.16651107 -0.042583458 -0.2812201 -0.14393498 -0.3057777 0.18821551 0.00018712934 -0.058477413 0.13128288 0.3483388 0.11555603
put 0.41784146 -0.014607516 0.43010578 0.06402381 0.102284424 -0.029411789 0.19916183 0.4016946 -0.42577434 -0.2969754 0.4362645 -0.49863723 0.051213644 -0.25618675 0.10635047 0.08534483 -0.022809505 -0.29478306 0.15817006 0.21946043 0.20216998 -0.03540696 -0.16227397 0.07995398 0.08701439 -0.18126155 0.20916481 0.07959079 0.3021282 0.27773055 -0.50545365 0.42458436 -0.46921185 0.12585275 0.13125293 -0.037113633 0.0961777 0.090034075 -0.33674282 -0.11295856 -0.41923782 -0.20926675 -0.22384125 0.06546854 0.09592143 0.4967319 -0.07222898 -0.26388854 -0.031938244 -0.02303045 0.0181305 -0.30654722 -0.37960356 -0.044925075 -0.002308834 -0.099908665 0.14647369 -0.1765574 0.10467337 0.13132708 -0.23093864 0.31998047 -0.21598676 0.34738848 0.12566863 0.041346397 0.08066137 0.43014312 0.016917078 0.08894151 0.014640445 0.4279207 0.07617459 0.04160003 0.06780085 0.06840949 0.02466928 -0.12062044 -0.008144914 0.15510483 -0.14855802 0.0067611504 0.07013504 -0.0027337226 -0.021370335 0.24967027 0.28123727 -0.08394508 0.06826436 0.20232749 -0.048574816 -0.36265743 -0.17562658 -0.39756677 0.24026099 -0.0006456039 -0.084646784 0.1623073 0.44191718 0.14310934
angel 0.5529681 0.008883536 0.5173221 0.09446087 0.09265365 -0.050373282 0.23418728 0.44966552 -0.46228534 -0.33746186 0.5221224 -0.59959054 0.083529904 -0.27739528 0.15982524 0.057642445 -0.023371892 -0.3157052 0.18678308 0.23616928 0.2429376 -0.017696314 -0.19825576 0.11720602 0.1366209 -0.18242662 0.26200047 0.06816595 0.3604761 0.33591408 -0.5879824 0.50393516 -0.5267075 0.18857159 0.13176952 -0.092677414 0.11219401 0.10573873 -0.3938682 -0.13463464 -0.49776694 -0.26715356 -0.22288518 0.030761354 0.11698339 0.6009252 -0.055057865 -0.32636288 -0.032264847 -0.034375545 0.020484233 -0.36194333 -0.4611027 -0.053081527 0.032061983 -0.15177685 0.17400847 -0.2508847 0.12871452 0.1379584 -0.28009316 0.42318934 -0.26608884 0.43424597 0.13022028 0.060556326 0.12225669 0.5053423 0.029986093 0.08732801 0.023581784 0.47000465 0.10696116 0.048111476 0.12785007 0.032074194 0.030763589 -0.14296661 -0.004385536 0.1947453 -0.19013092 0.011886923 0.0938376 0.03135449 -0.012765936 0.3171432 0.3543023 -0.08849681 0.06587738 0.25159428 -0.04881197 -0.48555717 -0.1936298 -0.45744705 0.30327436 0.01268998 -0.07453217 0.19137128 0.48739442 0.13836744
sip 0.3545485 -0.008314366 0.3643485 0.054850355 0.084206425 -0.016066235 0.16563264 0.33394423 -0.36168483 -0.24833037 0.36542502 -0.42366198 0.035639845 -0.20965327 0.081372626 0.08034932 -0.012447896 -0.24390267 0.13253565 0.17417933 0.15914643 -0.03655977 -0.13377842 0.06500671 0.077035986 -0.15355954 0.17953736 0.064528905 0.24444743 0.23593539 -0.42655262 0.35402107 -0.38497338 0.09889703 0.11708229 -0.03277554 0.0819563 0.08034808 -0.29163936 -0.08459107 -0.35251907 -0.18117404 -0.19099407 0.052533217 0.075814776 0.41840586 -0.05733666 -0.21439435 -0.021570113 -0.009935981 0.004671659 -0.2520629 -0.31093085 -0.03498709 0.0024958919 -0.08437256 0.11274692 -0.1450387 0.09276399 0.10663957 -0.19427086 0.26426697 -0.18402167 0.28275427 0.093710326 0.04130119 0.06568773 0.35305154 0.011165268 0.074859515 0.002319071 0.35438257 0.05629477 0.04267445 0.0660725 0.05027877 0.018042121 -0.10235884 0.0024765106 0.12375845 -0.13242653 0.011033116 0.05182067 -0.007690284 -0.024209173 0.21726257 0.22851105 -0.061290134 0.06571995 0.17851391 -0.043680783 -0.30313036 -0.14813356 -0.32274753 0.19635044 5.519916e-05 -0.06493521 0.14409874 0.3715577 0.10802851
benz 0.27608082 0.001776592 0.38520616 0.09045426 0.07813995 -0.025620028 0.15266119 0.28911573 -0.32423165 -0.23420969 0.28645498 -0.42601275 0.0383187 -0.14914507 0.09626165 0.08896187 -0.0063744215 -0.25450006 0.11821892 0.20855577 0.12949333 -0.038725123 -0.114345394 0.10296314 0.12552051 -0.16217159 0.20376262 0.08134238 0.26285744 0.20136209 -0.38078094 0.29892713 -0.4006579 0.048938166 0.08542512 0.00018093686 0.045038946 0.07915836 -0.2528317 -0.091134526 -0.33510628 -0.09744216 -0.2713276 0.030232461 0.049848102 0.38609093 -0.056199264 -0.19488873 0.0109951915 -0.006374147 0.054252617 -0.25083843 -0.2768869 -0.059472784 -0.03146452 -0.08546957 0.09332923 -0.17513749 0.085391775 0.064233564 -0.15144931 0.20811789 -0.17353868 0.25215822 0.08738392 0.030077757 0.02877129 0.27404463 0.026005745 0.08160396 0.020306995 0.34099764 0.06498073 0.033416122 0.071128786 0.06140844 0.04760215 -0.05990246 0.009037298 0.078853294 -0.13358526 -0.030220715 -0.033589847 0.007965335 -0.025186323 0.19108091 0.25065178 -0.070908554 0.079941265 0.1184871 -0.013813358 -0.2634537 -0.16514128 -0.35887027 0.20263141 -0.020869186 0.024807004 0.14252618 0.41843018 0.02331966
bitch 0.43295395 -0.010553293 0.4491577 0.07146572 0.10688317 -0.02398748 0.1986331 0.42665786 -0.4471916 -0.3178568 0.46158278 -0.52866495 0.051027417 -0.27140838 0.107971065 0.09811891 -0.027813286 -0.30076966 0.16547818 0.22012655 0.20211886 -0.044083647 -0.17583193 0.08475269 0.099558525 -0.19380768 0.2193795 0.08486983 0.31529662 0.30177528 -0.5323393 0.45044398 -0.49254873 0.13160437 0.13950402 -0.0414533 0.10174264 0.1003365 -0.3544681 -0.119213805 -0.4404883 -0.22402889 -0.23560773 0.062421374 0.10622466 0.51082504 -0.08542452 -0.27210054 -0.02856078 -0.015033353 0.01663373 -0.32227284 -0.40117717 -0.050590087 0.005279583 -0.11254207 0.14997461 -0.18438973 0.1074325 0.13373245 -0.23878752 0.33991972 -0.23207432 0.36662337 0.12225169 0.045277383 0.07917998 0.44290048 0.017010042 0.08483137 0.010098525 0.4510924 0.08059583 0.05240836 0.0792215 0.066375904 0.017289434 -0.13079126 -0.010062486 0.15927298 -0.14893155 0.003155301 0.07574591 -0.005687829 -0.020330142 0.26749712 0.2966956 -0.09354391 0.07094012 0.21291731 -0.046236373 -0.37880033 -0.19127761 -0.4070703 0.24778359 8.2315826e-05 -0.087780476 0.16637078 0.47347975 0.15232448
23 0.6513553 0.0028955701 0.6574181 0.117215045 0.16764483 -0.030808553 0.32124034 0.62959254 -0.64652157 -0.45353225 0.6732829 -0.7502109 0.06566494 -0.39804104 0.15941657 0.15225098 -0.03811817 -0.45286396 0.22215521 0.32704028 0.30912897 -0.061896276 -0.24144483 0.12272363 0.13298422 -0.27241307 0.32413557 0.111737244 0.47523227 0.4288093 -0.7762933 0.63912594 -0.702733 0.17769086 0.21365929 -0.035698816 0.13823844 0.13055603 -0.51642305 -0.16410688 -0.61316353 -0.32204077 -0.33878848 0.079870105 0.16824092 0.7396697 -0.13766883 -0.39311963 -0.03380473 -0.012122083 -0.008527136 -0.46940923 -0.5752262 -0.067289524 -0.005544719 -0.15366551 0.23699716 -0.246203 0.14893164 0.20825528 -0.34898126 0.48553804 -0.32235557 0.51781994 0.19869703 0.042570557 0.10059725 0.643636 0.023895087 0.14842595 0.017839031 0.64358 0.1228893 0.083873086 0.13116257 0.07799673 0.044183973 -0.18340145 -0.0016854681 0.22843108 -0.23497038 0.006801185 0.11820358 0.0060782055 -0.053082846 0.37853944 0.40996197 -0.11235918 0.11327414 0.28701288 -0.06758263 -0.5596831 -0.27427572 -0.5894256 0.35732442 0.009293378 -0.10459817 0.25771868 0.69021934 0.2076903
hit 0.3291647 -0.022386054 0.3764459 0.08527121 0.14034528 0.007029785 0.17014134 0.34711242 -0.36916307 -0.2558933 0.39004633 -0.43248138 0.091782324 -0.26682377 0.053929757 0.07751666 -0.0066448934 -0.28741515 0.11081081 0.17782044 0.16028896 -0.0764332 -0.15616636 0.08454804 0.05848354 -0.16796976 0.18143773 0.03727631 0.2573284 0.2641323 -0.4422007 0.34870008 -0.44003367 0.09009322 0.14346887 -0.053235386 0.09369717 0.079579994 -0.29777125 -0.095149875 -0.3693647 -0.19052346 -0.18771201 0.035591304 0.10977384 0.42800564 -0.09099331 -0.22186343 -0.080322325 -0.055331394 0.0505604 -0.23688795 -0.3283281 0.0056661563 0.03016549 -0.12896 0.15613426 -0.17273922 0.13029261 0.0985848 -0.21235153 0.2992096 -0.13104306 0.3044964 0.11758922 0.05559949 0.042581726 0.34720314 0.0010184756 0.079610206 0.0033729763 0.3682916 0.08369645 0.036499348 0.06343562 0.035297684 0.013012922 -0.115606934 -0.015719809 0.14071834 -0.11737192 0.013830464 0.048107423 -0.0401905 0.032090154 0.20923322 0.25612208 -0.089575246 0.072029606 0.13529426 -0.032783628 -0.29398367 -0.16308284 -0.3029791 0.20674989 0.0041629113 -0.09471308 0.1314202 0.4023567 0.14183487
work 0.47594813 -0.013485705 0.48947188 0.07224442 0.12023587 -0.027269108 0.21832655 0.4492371 -0.47653016 -0.33681554 0.49536088 -0.5645547 0.056263074 -0.29704532 0.12642273 0.10153906 -0.023454681 -0.32447344 0.17340343 0.24117717 0.22350961 -0.0410661 -0.18770601 0.093337834 0.107016385 -0.2068813 0.2369079 0.093886234 0.3357309 0.31855965 -0.57015294 0.47396415 -0.5231856 0.14339918 0.14891908 -0.036460917 0.10440914 0.10661418 -0.38737667 -0.12148084 -0.47221997 -0.239464 -0.25236285 0.06644396 0.10923444 0.55810267 -0.085276976 -0.29386687 -0.0354829 -0.015399815 0.022807913 -0.34527534 -0.42868996 -0.0473732 -0.00097214436 -0.11433092 0.16294934 -0.19829343 0.11991772 0.14712316 -0.25677842 0.37257975 -0.24286744 0.38623062 0.14327908 0.04311497 0.092043236 0.485961 0.024775198 0.09016287 0.012131097 0.47777635 0.084367156 0.054123927 0.07825641 0.07191327 0.020102024 -0.13153422 -0.009042876 0.17632753 -0.1702903 0.0099284435 0.07312924 -0.00968975 -0.026996154 0.29131994 0.315686 -0.09428673 0.08260295 0.2330774 -0.051565174 -0.4116304 -0.20556805 -0.43716422 0.2686465 0.004772677 -0.09001158 0.18532841 0.5012223 0.15704346
make 0.5185442 -0.0069705066 0.53173953 0.07695085 0.13034634 -0.027709618 0.23665461 0.49975038 -0.52241147 -0.37282282 0.53653204 -0.6199131 0.057840053 -0.3249679 0.13321753 0.11152506 -0.02595369 -0.3557679 0.19594643 0.2629655 0.24050744 -0.043743066 -0.20493914 0.09461902 0.11097909 -0.22198643 0.26085067 0.103207454 0.36998567 0.3508958 -0.61683315 0.5189073 -0.57302743 0.15613925 0.1630579 -0.040186107 0.111187585 0.11342056 -0.4196275 -0.13270448 -0.51833165 -0.2609142 -0.27856997 0.08074561 0.11603556 0.6060461 -0.09301493 -0.3280817 -0.03397603 -0.021479376 0.019621842 -0.37355146 -0.4733151 -0.054262705 0.0009944505 -0.13300972 0.1725532 -0.21048324 0.13150506 0.15195917 -0.29010704 0.40267193 -0.27089572 0.42697194 0.14972894 0.05171086 0.09485393 0.52350044 0.026386272 0.10190563 0.018577006 0.5207378 0.08930063 0.059035268 0.087114304 0.08164868 0.029265778 -0.14560391 -0.009589051 0.19115603 -0.18184279 0.008565619 0.08825939 -0.005541009 -0.021504072 0.31552908 0.34154412 -0.09916576 0.0917433 0.25676388 -0.05627108 -0.44324988 -0.22123463 -0.48601145 0.2949557 0.0025207577 -0.100185916 0.19458035 0.5517663 0.1743353
kidneys 0.15412955 -0.00071183237 0.18358187 0.03522924 0.07193147 -0.0058524595 0.08355184 0.15994436 -0.17897713 -0.1203337 0.18154581 -0.20214276 0.047180053 -0.12692949 0.019243296 0.025636734 -0.010334345 -0.12809014 0.04145077 0.08331533 0.077792816 -0.04285753 -0.076101474 0.041190345 0.0325594 -0.079079896 0.0775829 0.017361913 0.123514585 0.12417289 -0.20597517 0.15525544 -0.20639281 0.048938815 0.06490802 -0.023279134 0.04733296 0.036001086 -0.14445837 -0.047480553 -0.17226417 -0.08368985 -0.084110506 0.018838266 0.05457226 0.19752595 -0.0413042 -0.11159073 -0.03385328 -0.027855128 0.019276451 -0.11694058 -0.15875655 -0.0048366967 0.015950285 -0.062304363 0.07891603 -0.0861799 0.04921048 0.05351691 -0.10157332 0.13508797 -0.05676337 0.13568315 0.059253484 0.022202862 0.013082556 0.16253236 -0.008790227 0.03631582 -0.0019678886 0.16833882 0.04946671 0.018016385 0.031790428 0.021851914 0.015609202 -0.049784403 -0.0048127566 0.07405364 -0.059253182 0.009260197 0.027487157 -0.01783849 0.012841086 0.10051368 0.12265966 -0.04167982 0.044644706 0.068073615 -0.02068475 -0.1381434 -0.07293933 -0.1393913 0.090475276 -0.0010167193 -0.044499103 0.05879273 0.18689953 0.06792438
clique 0.6160046 -0.08694763 0.5013678 0.0016867456 0.06579429 -0.057493065 0.28533462 0.61980206 -0.61311656 -0.4181064 0.6454096 -0.74368364 0.008640795 -0.39362577 0.16363569 0.23738356 0.024457904 -0.41339424 0.17695309 0.34074584 0.35952997 -0.087918885 -0.21229547 0.11931811 0.090472005 -0.284543 0.28777486 0.10027928 0.4763333 0.47695178 -0.65476406 0.59225047 -0.69553286 0.21998183 0.22110538 -0.1260413 0.17268236 0.08165751 -0.4101521 -0.11799082 -0.54009753 -0.23019035 -0.36476943 0.15176077 0.15976237 0.7161971 -0.05680472 -0.4013063 -0.13703252 0.035792965 0.12590505 -0.4080937 -0.59497654 -0.12838897 0.06808698 -0.12688258 0.16906562 -0.20510033 0.17597906 0.15933877 -0.3206031 0.5245768 -0.31983677 0.5648195 0.20978764 0.1340578 0.09553756 0.6947164 0.02843892 0.17483038 -0.003085498 0.65660816 0.11350697 0.03462447 0.17626189 0.08606979 0.08917 -0.231391 0.15992604 0.15671381 -0.14611584 0.0616462 0.09008262 0.00049695757 -0.023090448 0.32350144 0.3924073 -0.11118652 0.1321768 0.22973596 -0.09394399 -0.52248454 -0.23753336 -0.60207397 0.39464357 0.024959996 -0.15416966 0.15995772 0.6180715 0.15921773
banned 0.454868 -0.007885322 0.47036454 0.07832041 0.10645702 -0.032392208 0.21604738 0.43741074 -0.4656265 -0.32520646 0.467902 -0.53999084 0.052154753 -0.2827273 0.117195606 0.0977058 -0.020429261 -0.3119353 0.16804728 0.2340468 0.21687223 -0.048304494 -0.18395934 0.08011657 0.09486112 -0.19846249 0.22396481 0.09048766 0.32242066 0.3036412 -0.5413801 0.4565002 -0.5009509 0.12997279 0.14762428 -0.036429334 0.09661266 0.09979709 -0.37200123 -0.116675094 -0.46287888 -0.22164194 -0.23838307 0.07319334 0.10881005 0.5282192 -0.07733781 -0.28327873 -0.03294085 -0.017224377 0.011506199 -0.3323108 -0.42012033 -0.04102296 0.006930948 -0.11241359 0.15622056 -0.18929437 0.108598776 0.1378262 -0.24745266 0.35292724 -0.24089807 0.37325227 0.1357769 0.044654917 0.08755944 0.45553613 0.015427322 0.08757254 0.013391777 0.46053997 0.07482418 0.046642385 0.07804861 0.0694021 0.020978654 -0.12694275 -0.011979049 0.16274245 -0.16010146 0.005391595 0.0789495 -0.0004296206 -0.02410422 0.27242142 0.29714555 -0.0852155 0.0773052 0.22614366 -0.05629269 -0.39661548 -0.19330244 -0.42876282 0.25400698 0.0065894104 -0.09093176 0.17820558 0.48280936 0.15619959
