1348 100
codeine 0.8780582 0.1779002 -0.40249154 0.26675823 0.5046341 0.80235463 0.39119846 -0.18377855 -0.08766717 -0.114356026 0.15014265 -0.6090108 -0.11014857 0.2093931 -0.26873696 0.9273295 -0.36556825 -0.73444945 0.07045427 0.21112168 -0.9240764 0.33566117 0.3102087 -0.7088578 -0.0024664581 0.6097165 -0.56930834 0.13308619 0.053250518 0.28325084 -0.2944821 0.15063033 0.26625112 0.24411036 0.040124528 -0.036592763 -0.3931629 0.102276675 -0.30010685 -0.2539185 0.27639946 -0.22419955 -0.45908418 0.32116845 0.3309218 0.41186768 -0.33751476 -0.14503144 0.0013262854 -0.4664971 0.45257264 -0.6666133 -0.04209819 -0.14831328 0.2027931 0.4869875 -0.35384598 0.5257305 0.41529393 -0.17419013 -0.065586224 -0.2426071 0.25941706 0.14047639 -0.3210938 0.0699387 0.47261003 -0.045450658 0.116743475 0.0883202 0.95232284 0.19591826 0.066239074 -0.1863301 0.19674 -0.17278203 -0.3209904 -0.4976467 0.68801445 -0.18046564 0.17459786 -0.057220638 0.11352819 0.55078554 -0.2661538 0.2694112 -0.93880457 0.70163697 -0.34473398 -0.16303156 0.11920969 0.91827583 0.1636007 0.46351624 -0.20789461 -0.22548006 0.3818261 0.42129737 -0.073025264 0.4752634
like 0.84505 0.16302574 -0.40918213 0.27004972 0.48595163 0.7746501 0.37866122 -0.19397153 -0.07954239 -0.098032854 0.1490843 -0.58096653 -0.110300176 0.19829479 -0.267928 0.89364785 -0.35361987 -0.7046485 0.06500246 0.19739662 -0.88439715 0.32662547 0.3004895 -0.6800226 -0.009275718 0.5824224 -0.55501527 0.11936818 0.041741498 0.27880746 -0.29432234 0.14603752 0.25364798 0.22780271 0.035086058 -0.04367094 -0.39457858 0.10344738 -0.29775938 -0.23550138 0.27940547 -0.21444587 -0.45013663 0.29745165 0.33075082 0.3954226 -0.3379003 -0.12964115 -0.0006799724 -0.45104617 0.4433188 -0.65979487 -0.027632296 -0.1258833 0.19682881 0.4592869 -0.3534285 0.51036954 0.41001704 -0.18783379 -0.054374747 -0.22688136 0.252537 0.1304524 -0.31297728 0.057404388 0.4690955 -0.044570785 0.120506674 0.07484811 0.9126146 0.1835326 0.07258482 -0.1733395 0.19582531 -0.15077946 -0.30656043 -0.48658156 0.6740611 -0.18411136 0.17882816 -0.052475475 0.108593136 0.5407791 -0.23795514 0.25134042 -0.91018975 0.6801529 -0.33229026 -0.16376156 0.115446754 0.8823625 0.15707222 0.4434307 -0.1969458 -0.20576707 0.3597034 0.40825567 -0.049370635 0.47418022
sit 0.33528405 0.073803306 -0.060697503 0.043026574 0.19350567 0.28223345 0.11475977 0.0038192538 -0.042454373 -0.04046808 0.06925077 -0.23592523 -0.030850044 0.063634396 -0.09012941 0.30288282 -0.121277966 -0.24516869 0.0014035394 0.108808324 -0.33050045 0.0889266 0.068124436 -0.22505483 -0.030776082 0.26726463 -0.20966318 0.10026604 0.066678435 0.08516599 -0.09298964 0.012055991 0.08295432 0.118322775 -0.010227853 0.010954621 -0.093875 0.033717576 -0.12208909 -0.11860821 0.06307867 -0.06858693 -0.1272227 0.09979032 0.09517568 0.101854496 -0.05795892 -0.07684456 0.0025302388 -0.12985827 0.11558177 -0.14794174 -0.06870726 -0.06497546 0.1068179 0.1980995 -0.13511123 0.13210805 0.113092676 -0.023634175 -0.041828763 -0.08337487 0.0658696 0.05816309 -0.105963506 0.074618295 0.0761038 0.046494808 0.03995252 0.046617527 0.3168137 0.10102497 0.023670595 -0.068866394 0.08702489 -0.105329074 -0.10271648 -0.152164 0.23713012 -0.057493433 0.042582713 -0.043927144 0.049114484 0.17216048 -0.1503855 0.15970556 -0.3149508 0.19757055 -0.14111154 -0.029829087 -0.007814693 0.33921608 0.07057789 0.10794631 -0.051478937 -0.060517833 0.12634465 0.123716064 -0.067077585 0.13673608
amp 0.7591341 0.14965868 -0.35196447 0.23315954 0.43614498 0.6816454 0.33510646 -0.16183169 -0.06305389 -0.097814 0.12823994 -0.5184674 -0.0944071 0.16730177 -0.23799634 0.79382926 -0.31994876 -0.6343614 0.06318616 0.16951899 -0.7790922 0.28913966 0.25824222 -0.61038685 -0.007942898 0.5123737 -0.4888757 0.11501259 0.04277088 0.24469496 -0.25163332 0.11741578 0.21869138 0.20840827 0.03985123 -0.04238063 -0.34446073 0.081521004 -0.25740603 -0.21760547 0.24009803 -0.18599217 -0.3804579 0.26479873 0.28494257 0.3477183 -0.2972646 -0.11918741 -0.0058380086 -0.38958246 0.38169 -0.5772612 -0.036191337 -0.1259295 0.18056266 0.4074273 -0.30795798 0.44252005 0.35815707 -0.16186798 -0.0507796 -0.209034 0.22140877 0.11140253 -0.27903 0.061430078 0.41010553 -0.030131632 0.101759896 0.06834225 0.8098535 0.16664742 0.059652187 -0.14795321 0.17268436 -0.14460754 -0.2776287 -0.41761684 0.5920856 -0.15595172 0.16454396 -0.04488956 0.09420255 0.48064792 -0.22288437 0.22139086 -0.81347275 0.5906669 -0.2957901 -0.15016006 0.09976582 0.77449423 0.13428463 0.38329583 -0.17553331 -0.18993972 0.32172185 0.3577088 -0.057715613 0.40543124
dissolve 0.2937799 0.05511232 -0.029632939 0.03318543 0.1671302 0.25684258 0.10586547 0.013345723 -0.038048357 -0.033492412 0.05725527 -0.21571623 -0.015097554 0.040663514 -0.06375064 0.25591284 -0.08982654 -0.21917471 -0.0052965847 0.107237205 -0.29276505 0.06527421 0.06784308 -0.20320798 -0.0068986993 0.24162762 -0.20261048 0.087581426 0.06565 0.086468495 -0.07706893 -0.0014924596 0.07626722 0.107418396 -0.006786036 0.01265044 -0.08907469 0.040148888 -0.1140131 -0.11062338 0.048894327 -0.048219208 -0.09348429 0.089071654 0.10170267 0.076841615 -0.04918422 -0.062857725 0.020023549 -0.10415941 0.102457576 -0.120821245 -0.08512992 -0.06482651 0.08743356 0.18230294 -0.14014226 0.111697346 0.08990179 -0.0064611724 -0.052737582 -0.064595275 0.07160469 0.06102805 -0.105947495 0.07441723 0.05459777 0.05011947 0.024105262 0.034527726 0.2944964 0.08967574 0.014495807 -0.07620045 0.08195541 -0.10025294 -0.07717757 -0.12920895 0.19090456 -0.035828236 0.04746336 -0.03045628 0.05889239 0.1673112 -0.13902645 0.15145163 -0.27691215 0.18651068 -0.11783565 -0.020288771 -0.01544583 0.29545987 0.050435435 0.08908207 -0.058396433 -0.06446847 0.122635335 0.09254794 -0.069089636 0.105605334
get 0.82961506 0.15699531 -0.39849377 0.2649746 0.46979252 0.75695705 0.36753634 -0.18499513 -0.07250669 -0.096074894 0.14832084 -0.5652951 -0.109450966 0.19849485 -0.26268366 0.88015234 -0.3540079 -0.68694395 0.069614485 0.18957509 -0.87093526 0.31594312 0.2926612 -0.66792417 -0.007863207 0.5673937 -0.5396003 0.108545825 0.04689508 0.27121532 -0.2876409 0.14892267 0.25145265 0.21844204 0.04704934 -0.04869225 -0.3791164 0.10304917 -0.28269833 -0.23658876 0.2716874 -0.20582476 -0.43190655 0.29465398 0.32194698 0.39289698 -0.32853037 -0.12689921 -0.0074019865 -0.43790972 0.43205854 -0.64946556 -0.027394677 -0.12540565 0.19417539 0.44073287 -0.33756965 0.5002324 0.3934627 -0.17723866 -0.04897651 -0.22997338 0.24144152 0.12649505 -0.3069504 0.055464864 0.4611127 -0.041167375 0.10806488 0.07126389 0.8911989 0.18145397 0.06308669 -0.17500544 0.19624586 -0.14871527 -0.30468884 -0.46682703 0.64849734 -0.17213129 0.18567035 -0.045095634 0.106248274 0.52492577 -0.23337391 0.24584389 -0.8968696 0.66236246 -0.33351183 -0.16885322 0.11215248 0.8531745 0.15481593 0.43498486 -0.19099885 -0.20243947 0.35588023 0.40279818 -0.05493058 0.4547477
kidney 0.27024272 0.06433451 -0.025264228 0.013040693 0.17263065 0.24526154 0.09679133 0.015735392 -0.04561138 -0.043357912 0.04811921 -0.21455474 -0.026950305 0.05286181 -0.07909448 0.26217407 -0.0808835 -0.2156291 -0.007875251 0.11463846 -0.3002571 0.08211651 0.06449025 -0.21941306 -0.009982564 0.23756291 -0.20644864 0.10263121 0.071995825 0.07778722 -0.09000567 0.0059161526 0.10067715 0.09052447 -0.0025960864 0.009317114 -0.073953405 0.03089987 -0.10067589 -0.0944845 0.071279965 -0.076614484 -0.08599101 0.087684326 0.07347174 0.07645469 -0.04911553 -0.06955995 0.009969043 -0.11378924 0.10857601 -0.1375631 -0.07760711 -0.07179815 0.08887363 0.1952249 -0.13279 0.12176133 0.10109404 -0.007752775 -0.044616334 -0.060345136 0.048136983 0.059735876 -0.1189096 0.062121738 0.061764263 0.04826347 0.04372632 0.051104546 0.2922395 0.075855516 0.020061852 -0.086003564 0.084287755 -0.10154608 -0.07560383 -0.112727076 0.19367807 -0.020787502 0.031251967 -0.047029246 0.07757914 0.15590708 -0.14277813 0.14801084 -0.2704865 0.19705194 -0.119189635 -0.03761144 -0.0155021055 0.2888741 0.05976627 0.08789938 -0.06567992 -0.073471606 0.12563646 0.093910605 -0.064271145 0.102488644
tramadol 0.90671116 0.18020989 -0.43570033 0.29061618 0.5134543 0.81914854 0.40492302 -0.20021936 -0.0770464 -0.104853585 0.16052172 -0.6159813 -0.115067735 0.20677815 -0.29455823 0.95305544 -0.38206694 -0.7553925 0.06681733 0.19947988 -0.9427783 0.35245457 0.31663594 -0.7200002 -0.0036822592 0.6152895 -0.589526 0.11752864 0.045853425 0.29078317 -0.30476242 0.16631383 0.26491833 0.24794115 0.045344908 -0.053031698 -0.42328772 0.10986507 -0.31551546 -0.2577322 0.2976904 -0.24079053 -0.47083986 0.3117214 0.35279837 0.42138746 -0.36041993 -0.13664731 -0.007292795 -0.47741807 0.46759954 -0.7006522 -0.032380886 -0.13549358 0.20390873 0.4778002 -0.3679496 0.5396331 0.42193538 -0.19419882 -0.059457112 -0.23863626 0.26711813 0.13361998 -0.33007887 0.07325074 0.49965918 -0.050027043 0.11764181 0.086879626 0.96759623 0.19995496 0.07591468 -0.18187638 0.21642636 -0.162838 -0.32950938 -0.5061266 0.7088939 -0.19138065 0.19544339 -0.060158495 0.111949645 0.57003826 -0.25966462 0.25714728 -0.9723226 0.7160929 -0.35960075 -0.1784238 0.13226682 0.9351984 0.15826382 0.4775065 -0.20687501 -0.21659909 0.3896443 0.43539044 -0.055155236 0.5022375
got 0.7035808 0.13592747 -0.34406468 0.22263378 0.3997927 0.6451903 0.31550118 -0.16313702 -0.06080312 -0.08996388 0.12895851 -0.47743484 -0.08877669 0.16857788 -0.231856 0.7475085 -0.30335507 -0.58421355 0.054413803 0.15795599 -0.7366349 0.268291 0.24335581 -0.5765453 -0.0018708605 0.4801774 -0.46106517 0.0971359 0.04062672 0.22665726 -0.24147561 0.1285251 0.21583503 0.19043191 0.033388395 -0.03177833 -0.32931697 0.089739844 -0.2444467 -0.20109147 0.23398247 -0.18214557 -0.37528628 0.252357 0.2684931 0.33921248 -0.2792291 -0.1130671 -0.0011627943 -0.38140202 0.36802596 -0.54814243 -0.02154866 -0.11024693 0.1602979 0.38519737 -0.29507455 0.43108845 0.3339012 -0.14715202 -0.049081486 -0.1926529 0.207106 0.10813503 -0.26100963 0.050807945 0.39908886 -0.03504887 0.09858801 0.068989694 0.7598454 0.1542108 0.059389465 -0.14634134 0.16302232 -0.12854603 -0.2612109 -0.40004557 0.5541579 -0.14858222 0.15406561 -0.040697858 0.09032789 0.451171 -0.20251735 0.2119672 -0.76215935 0.56679815 -0.2830688 -0.14080316 0.0988461 0.73228174 0.13467255 0.37263554 -0.16206308 -0.17945606 0.30571768 0.33842087 -0.044149466 0.39495745
take 0.7548925 0.14947209 -0.3699218 0.24216987 0.4354241 0.6970627 0.33533412 -0.17205167 -0.07070502 -0.08588461 0.13400592 -0.5173208 -0.100761995 0.17556171 -0.2472361 0.797276 -0.32192427 -0.63755596 0.061696697 0.17277722 -0.79462516 0.29335058 0.2673443 -0.61546296 -0.0047569624 0.5180673 -0.4973144 0.10467731 0.038773105 0.2494531 -0.2580886 0.13654202 0.22907141 0.20152856 0.044149112 -0.040373463 -0.35008028 0.09804103 -0.26418805 -0.21568064 0.24807179 -0.19401303 -0.40444547 0.26842642 0.2957453 0.35355908 -0.29607862 -0.11417839 -0.00068406016 -0.40071127 0.3905639 -0.58969927 -0.023266401 -0.10955301 0.17638996 0.40820533 -0.31741044 0.46174034 0.3658487 -0.16334839 -0.05365715 -0.20633821 0.22444326 0.1081501 -0.27700585 0.053459585 0.42539448 -0.044656478 0.098461725 0.06598573 0.8248212 0.16412781 0.059996914 -0.15436107 0.17737618 -0.1449543 -0.2757316 -0.42730093 0.59492093 -0.16502763 0.16271387 -0.040967382 0.0898562 0.47760162 -0.2171233 0.22515017 -0.8211941 0.6040749 -0.3025762 -0.1508112 0.10433635 0.7859181 0.13979365 0.3957308 -0.17533053 -0.18181902 0.3288309 0.37046844 -0.050557237 0.42266262
diet 0.52700907 0.10818919 -0.2519427 0.16663878 0.3049555 0.4852172 0.24180481 -0.11976639 -0.047073957 -0.0675571 0.09590097 -0.3563513 -0.06535532 0.12886915 -0.17203598 0.55614686 -0.2231731 -0.44495672 0.040811267 0.115292415 -0.5581744 0.20233876 0.18402798 -0.42757672 -0.005353842 0.36300397 -0.34714538 0.06807947 0.031233272 0.1648387 -0.1852997 0.09380313 0.15957347 0.1480371 0.030096335 -0.024979511 -0.24944024 0.0683102 -0.18415008 -0.14775419 0.17267132 -0.14209127 -0.2772778 0.1912484 0.2077494 0.25351247 -0.20588055 -0.08196331 0.002361821 -0.2869304 0.274593 -0.4127585 -0.017091533 -0.08125515 0.12156687 0.28090942 -0.22361107 0.3220755 0.2591865 -0.11178601 -0.03320516 -0.14645399 0.15172072 0.07570256 -0.19029972 0.04077312 0.29585677 -0.023926869 0.06802275 0.050346784 0.57530946 0.112911075 0.043337066 -0.107080586 0.12134315 -0.094387434 -0.18759833 -0.29948223 0.41428325 -0.11159224 0.11246259 -0.03863878 0.070192024 0.33539352 -0.15394478 0.15014198 -0.57366323 0.4278028 -0.20906518 -0.1062444 0.07577125 0.5538482 0.09315432 0.2805268 -0.1260196 -0.12905243 0.22544804 0.26046592 -0.028462224 0.2920082
dreaming 0.4228316 0.0905817 -0.21557121 0.14408895 0.19971986 0.39307624 0.18352897 -0.09652912 -0.031101637 -0.089474075 0.07001458 -0.28269687 -0.064176545 0.12238789 -0.1000788 0.44666043 -0.14553025 -0.3792074 0.08437909 0.0660334 -0.43131343 0.14778821 0.17073952 -0.35184175 -0.027217885 0.2681998 -0.23966198 0.049959812 0.014030093 0.094453916 -0.10626682 0.14180814 0.11255907 0.13076678 -0.021736076 0.03135647 -0.1949167 0.06267012 -0.12219488 -0.12550075 0.10525092 -0.14859794 -0.25842497 0.20269793 0.13001147 0.23685479 -0.15928821 -0.08179427 -0.016241914 -0.26776448 0.22056444 -0.3299437 0.006891705 -0.0935356 0.07532046 0.24736571 -0.14865229 0.27106005 0.21781641 -0.042033285 -0.026191283 -0.1408575 0.12100976 0.10137755 -0.13888258 0.02231862 0.275992 -0.06945055 0.046721727 0.040930275 0.43163398 0.10631824 0.023467982 -0.11450943 0.019855805 -0.04436855 -0.13727972 -0.25252822 0.32877243 -0.08824734 0.040865507 -0.015271532 0.019164538 0.26023853 -0.10834823 0.101965554 -0.44115573 0.35446587 -0.1503369 -0.055483244 0.08250164 0.42718172 0.088692434 0.26662794 -0.092033915 -0.15617555 0.19418281 0.20503677 -0.06453337 0.21726178
white 0.62739897 0.09339171 -0.24153425 0.18470308 0.32133907 0.553844 0.25630772 -0.08844855 -0.0617419 -0.0070044096 0.039650783 -0.33609354 -0.031666264 0.1376123 -0.22059304 0.6277058 -0.2358933 -0.43210492 0.11801169 0.17990075 -0.6567185 0.21631199 0.18051182 -0.5368793 -0.011210074 0.4920427 -0.29644546 0.11074412 -0.032075047 0.20722799 -0.11778722 0.15792128 0.1935442 0.2048818 -0.053934354 -0.07410654 -0.26040867 0.09384236 -0.17935447 -0.1565651 0.12805495 -0.14619528 -0.39927733 0.23186955 0.23685119 0.33382735 -0.2027774 -0.1306928 0.0070049088 -0.346663 0.28608587 -0.38366854 -0.017345127 -0.08584687 0.08304734 0.3484948 -0.2927678 0.3054503 0.22955903 -0.060306817 -0.059966926 -0.1446176 0.17418563 0.06692895 -0.16646276 0.07868324 0.37621886 -0.08311677 0.019155884 0.10267329 0.5542619 0.14828177 0.013666317 -0.12152257 0.11522771 -0.08750544 -0.17244872 -0.39342368 0.4319275 -0.08506318 0.09620388 -0.051705617 0.028924663 0.33693328 -0.16354515 0.15182087 -0.61067814 0.45006296 -0.2039615 -0.10240883 0.104264334 0.6154409 0.15389793 0.3654527 -0.05664612 -0.1913193 0.25743416 0.36419174 -0.12874058 0.3315441
shit 0.71566826 0.14149503 -0.34601375 0.23152523 0.40795684 0.6486139 0.31585106 -0.1595023 -0.059111178 -0.08784351 0.13171345 -0.48712677 -0.0957705 0.16713288 -0.22581485 0.751704 -0.2990953 -0.59716725 0.06124597 0.16777061 -0.75517255 0.2714935 0.25272056 -0.5783041 -0.0035910027 0.49766305 -0.46270052 0.102554925 0.041341223 0.22686318 -0.24712658 0.12713912 0.21933475 0.19120054 0.030341476 -0.035851568 -0.32699886 0.09317788 -0.24427442 -0.20708925 0.23348023 -0.18058579 -0.37702292 0.25732675 0.27546957 0.34022698 -0.2812942 -0.107863426 -0.00071741315 -0.38374788 0.37092298 -0.55555254 -0.019877069 -0.103628404 0.1686226 0.38888392 -0.29911357 0.43134427 0.34669104 -0.14957023 -0.0515141 -0.18953554 0.21029058 0.10864922 -0.265484 0.048923597 0.39714307 -0.04255061 0.095443614 0.06634229 0.7786052 0.15740469 0.053428147 -0.14631344 0.16671579 -0.13651101 -0.2567158 -0.40392143 0.5653166 -0.15594818 0.1546406 -0.044246238 0.085722655 0.45422262 -0.20243193 0.2111802 -0.7727251 0.5743889 -0.28430596 -0.1426783 0.094566084 0.74272627 0.12707715 0.3781016 -0.16736852 -0.17535558 0.3025462 0.34776816 -0.042714678 0.39197072
listen 0.6173748 0.13869311 -0.29928955 0.20277339 0.35337663 0.5116326 0.28383562 -0.13551047 -0.051518995 -0.10978767 0.107008755 -0.39829272 -0.0969089 0.13260444 -0.1808606 0.6248852 -0.25224024 -0.5188872 0.09154163 0.11589241 -0.6010002 0.22996153 0.22848378 -0.4887985 0.0027154274 0.364289 -0.37106404 0.07559115 0.03399557 0.20735648 -0.20995611 0.10896839 0.15854739 0.16314523 0.03974873 -0.033160567 -0.28695208 0.052836277 -0.2035758 -0.20194453 0.19887495 -0.13598076 -0.3010626 0.21279797 0.21024644 0.29388762 -0.2707503 -0.098017834 -0.039863244 -0.3281773 0.31501862 -0.49231255 -0.022150375 -0.1053599 0.108783886 0.31376964 -0.22878478 0.3702781 0.30207905 -0.12627749 -0.010752449 -0.19130993 0.17783849 0.11898487 -0.19461907 0.032137904 0.3518275 -0.030982949 0.04932697 0.020910623 0.63968295 0.1276578 0.04721081 -0.10047819 0.13673648 -0.07961477 -0.22615018 -0.31767476 0.44582573 -0.12250602 0.14914869 -0.022842176 0.05625348 0.3686805 -0.17700607 0.14152892 -0.64197385 0.48859128 -0.25333866 -0.14041404 0.09742468 0.5908172 0.15014417 0.2992739 -0.1296981 -0.17670794 0.23553912 0.3062045 -0.031978436 0.29583612
lean 0.73158467 0.1471855 -0.35810545 0.23831832 0.41762698 0.6755781 0.32895246 -0.16313533 -0.060553174 -0.08480587 0.1289176 -0.5075004 -0.09681952 0.17260504 -0.23154877 0.78393155 -0.31143105 -0.61979735 0.056301966 0.17334239 -0.7781968 0.27946234 0.2514543 -0.5963781 -0.006916817 0.5097373 -0.4757022 0.10896401 0.04197145 0.2413046 -0.25454292 0.12845288 0.22225991 0.20372403 0.039433394 -0.04436585 -0.33728448 0.08354902 -0.2525369 -0.20526525 0.23876801 -0.19013652 -0.3863724 0.25762695 0.28293505 0.34241456 -0.2850362 -0.10600348 0.0037336384 -0.38435033 0.38352636 -0.56982726 -0.028039934 -0.11524163 0.17139965 0.3980041 -0.30224746 0.4464154 0.34800512 -0.15342847 -0.050222505 -0.19857973 0.21751466 0.11107809 -0.2671532 0.05876534 0.40459305 -0.039528854 0.1027322 0.07244208 0.7911874 0.15964475 0.061509717 -0.14423986 0.1689915 -0.13691232 -0.26658046 -0.414389 0.5848086 -0.15055358 0.16361359 -0.040918417 0.099077724 0.47152495 -0.21774068 0.2155579 -0.79729193 0.58234286 -0.2928455 -0.1492057 0.10707543 0.7655704 0.13626339 0.39036724 -0.17439573 -0.18699715 0.31700695 0.35014167 -0.04396236 0.40815437
zack 0.5128098 0.10794655 -0.2542329 0.17198761 0.28979382 0.4553848 0.2197108 -0.11815456 -0.037962496 -0.05244668 0.092590004 -0.3445736 -0.06526911 0.12001115 -0.16559322 0.5353679 -0.20741792 -0.42876193 0.045225937 0.12583694 -0.5428578 0.1897009 0.18395226 -0.41656375 -0.013489446 0.36039189 -0.3336603 0.058787618 0.017905304 0.15313144 -0.1669401 0.08994454 0.152465 0.1389972 0.0225112 -0.025761051 -0.23915318 0.07182066 -0.18020758 -0.15166117 0.15751688 -0.12739462 -0.27290007 0.19102795 0.20377192 0.2536772 -0.19563667 -0.0779258 -0.010986592 -0.2707259 0.27237043 -0.40236965 -0.010598417 -0.086712785 0.12132775 0.27927536 -0.20157607 0.31703123 0.24103263 -0.096165575 -0.03316889 -0.13655561 0.15007135 0.08567581 -0.18813612 0.045434985 0.29772267 -0.03741996 0.06100174 0.06106054 0.55508226 0.10807706 0.03984323 -0.11642916 0.10628799 -0.09107153 -0.18451859 -0.28891933 0.4135713 -0.107964605 0.11144392 -0.036764435 0.05983792 0.32617044 -0.13805492 0.1617416 -0.55428016 0.4229952 -0.21456063 -0.092302226 0.081846185 0.5243179 0.10246787 0.27203372 -0.12300326 -0.13090055 0.20647515 0.25478464 -0.04274977 0.28380084
one 0.83514357 0.1646028 -0.4087157 0.2728209 0.48233706 0.7489309 0.37621894 -0.18847758 -0.06995821 -0.11048725 0.14264852 -0.56605035 -0.10868438 0.18807265 -0.27131304 0.87343085 -0.35319895 -0.6985055 0.07996818 0.18376254 -0.86933774 0.326897 0.2891696 -0.67295265 -4.467139e-05 0.5630616 -0.54046035 0.11256879 0.05126605 0.26859024 -0.28856617 0.14234664 0.24430622 0.22427474 0.04853753 -0.045897122 -0.38316998 0.09707594 -0.28861493 -0.24428722 0.27155736 -0.20611566 -0.43006614 0.29635718 0.31390953 0.3914424 -0.33904362 -0.12531736 -0.02048361 -0.43732935 0.43705586 -0.6580164 -0.028622236 -0.12983806 0.19126813 0.44496956 -0.34023058 0.5041939 0.40416804 -0.18490437 -0.04512356 -0.2355344 0.24415644 0.13103612 -0.2995057 0.055108458 0.4585912 -0.04470506 0.10785715 0.062007304 0.89997965 0.18114989 0.07026027 -0.16054416 0.20127375 -0.15067841 -0.3070515 -0.46607012 0.6451274 -0.18177263 0.19062603 -0.049101554 0.09610088 0.5285255 -0.23784125 0.23860034 -0.90114313 0.671295 -0.33432776 -0.17268312 0.115978725 0.85489094 0.16869122 0.42901042 -0.18668689 -0.20912537 0.3504233 0.4017022 -0.053468473 0.44693598
black 0.66663706 0.1362633 -0.3154904 0.21762766 0.3334501 0.60580397 0.2782856 -0.14061391 -0.04774638 -0.10019436 0.091441154 -0.4250752 -0.09412388 0.17919597 -0.17093354 0.7058095 -0.23766695 -0.5616549 0.12207533 0.13653614 -0.69253284 0.23015192 0.25561455 -0.560188 -0.027618282 0.44618472 -0.36712167 0.08487332 0.015269347 0.16455802 -0.16897778 0.20576048 0.1803014 0.21147984 -0.03254781 0.027515627 -0.30785424 0.09610501 -0.20448373 -0.18734996 0.16691914 -0.20541883 -0.41097075 0.30071113 0.21271187 0.3696009 -0.24634854 -0.11962275 -0.011991332 -0.40924048 0.34490484 -0.5041717 0.0116963545 -0.13967642 0.12151263 0.39241487 -0.2506966 0.39687622 0.32075185 -0.0750095 -0.052245278 -0.20671342 0.19353418 0.14833722 -0.20916508 0.03557591 0.4317838 -0.10737354 0.070479415 0.07693888 0.6680853 0.17356002 0.044319756 -0.17834163 0.052144285 -0.07282461 -0.20782477 -0.409258 0.5083006 -0.13195157 0.06879629 -0.032750808 0.0352938 0.40080723 -0.17894103 0.17551337 -0.6930988 0.541984 -0.22750564 -0.104316086 0.12173705 0.6804845 0.1400046 0.41778234 -0.13707702 -0.227481 0.28882164 0.3396061 -0.09763017 0.3464704
love 0.6684279 0.12900834 -0.32427526 0.20620412 0.3780231 0.6113765 0.29852504 -0.15296413 -0.061471064 -0.083207436 0.1243073 -0.45815697 -0.088239826 0.15866458 -0.20836377 0.703724 -0.28085077 -0.5515495 0.050282657 0.15413842 -0.69789714 0.25327882 0.23810832 -0.5469564 -0.009044088 0.46524766 -0.43433383 0.09050757 0.03671479 0.21700436 -0.2254991 0.11507068 0.19472907 0.18283302 0.035976715 -0.038077734 -0.31322944 0.08476317 -0.22960816 -0.19156936 0.21184494 -0.17562224 -0.34720984 0.2391573 0.2606177 0.3121679 -0.26858357 -0.09972183 -0.0032843356 -0.3557279 0.34589195 -0.5155183 -0.018644381 -0.09944671 0.15734501 0.3588032 -0.2799844 0.41127932 0.32838225 -0.14344819 -0.045604147 -0.18309698 0.2045681 0.09803102 -0.23701593 0.052099325 0.3745056 -0.04188924 0.09123618 0.06640686 0.72281975 0.14356901 0.054500274 -0.13927765 0.15396293 -0.13066263 -0.24788809 -0.38124532 0.531529 -0.14059967 0.14322586 -0.033534896 0.07786614 0.42502904 -0.19662362 0.19319957 -0.7242991 0.52831775 -0.26100415 -0.12739114 0.10095338 0.69792926 0.12554426 0.35489416 -0.15586704 -0.16077636 0.29178482 0.32457477 -0.035879627 0.36565432
high 0.6715656 0.13359989 -0.3254705 0.21700872 0.37886414 0.60830015 0.29548988 -0.14641906 -0.059287187 -0.07444931 0.1182782 -0.45413375 -0.08240838 0.15126555 -0.22017872 0.7031663 -0.28467652 -0.55672926 0.057669565 0.15866444 -0.6999639 0.2565393 0.22773227 -0.5425388 -0.004295801 0.46139354 -0.42988122 0.09645885 0.026524622 0.21647611 -0.22732286 0.13051 0.201104 0.17979793 0.033050284 -0.03563454 -0.30965644 0.08123818 -0.2325171 -0.18707585 0.21866708 -0.17012739 -0.35174266 0.23543307 0.26305088 0.3211701 -0.2597852 -0.105470195 -0.0013273268 -0.3591787 0.34429318 -0.5179906 -0.02322824 -0.100022584 0.15137361 0.36189672 -0.27560666 0.40532294 0.32317448 -0.13884501 -0.048276175 -0.18083689 0.19313742 0.10410007 -0.2460334 0.053071 0.3728635 -0.034805875 0.081018925 0.060224384 0.7160699 0.14767237 0.049108833 -0.13239095 0.15364881 -0.12549154 -0.2394383 -0.3814614 0.5233516 -0.14513232 0.1386468 -0.046721645 0.07631155 0.42289138 -0.19337016 0.19308655 -0.7178701 0.5326892 -0.26232427 -0.13016087 0.094397 0.69771117 0.12239564 0.35095108 -0.15236981 -0.16442376 0.28694096 0.33202243 -0.0420436 0.37329948
pain 0.786955 0.15448026 -0.3796692 0.25331575 0.4446881 0.71407455 0.3496353 -0.17965743 -0.074713394 -0.098272085 0.14415814 -0.5418593 -0.10156633 0.18427335 -0.2541543 0.8327913 -0.33965555 -0.6562037 0.06312582 0.1789513 -0.8245999 0.30854294 0.2718704 -0.6301128 -0.008990015 0.5343123 -0.5107363 0.103837065 0.040670764 0.25554207 -0.2691788 0.14361553 0.2384016 0.21216455 0.04477852 -0.0432996 -0.3653052 0.10306275 -0.2704931 -0.2180845 0.2588536 -0.20170419 -0.41546115 0.28177226 0.30536973 0.37092596 -0.31077138 -0.115215704 0.00010420259 -0.41980067 0.41241336 -0.6161987 -0.02273554 -0.11589631 0.17783026 0.42162415 -0.32780203 0.4815369 0.3773214 -0.16895287 -0.054881908 -0.21392493 0.227179 0.11777312 -0.2912067 0.057779092 0.43839997 -0.046795342 0.10996523 0.07594629 0.8493129 0.17146334 0.0647225 -0.16625516 0.18314828 -0.14280921 -0.28579676 -0.45141616 0.6235706 -0.16685101 0.17600057 -0.042723615 0.09864796 0.49757728 -0.22788723 0.22642112 -0.85064715 0.624752 -0.31179148 -0.15161385 0.1152378 0.81816524 0.14004132 0.41363212 -0.17553446 -0.18736011 0.3323189 0.3789338 -0.047589738 0.43820077
syrup 0.67986363 0.13150826 -0.32143992 0.22117497 0.3852349 0.6167651 0.29976615 -0.16136543 -0.060768638 -0.07403353 0.119448595 -0.4558902 -0.09347112 0.15925848 -0.22126375 0.71729535 -0.28235433 -0.56911033 0.044531662 0.14999522 -0.71396303 0.26101047 0.23054186 -0.53876543 -0.0035985557 0.46823186 -0.4383609 0.09375118 0.035279956 0.2150795 -0.22790155 0.12286156 0.20496832 0.17452879 0.03714629 -0.040438 -0.3169338 0.08449567 -0.23872955 -0.19653548 0.21972136 -0.16828825 -0.35594338 0.23444144 0.2579396 0.3229215 -0.26239407 -0.10976971 0.0026575252 -0.35591298 0.34968477 -0.5303479 -0.021525921 -0.09279526 0.15868959 0.36527172 -0.2849569 0.41669524 0.32351822 -0.13960749 -0.045662366 -0.18380758 0.20929809 0.09791267 -0.24988715 0.04895668 0.37229812 -0.03644073 0.09638703 0.06253565 0.7306454 0.1495401 0.060243804 -0.14216606 0.15813158 -0.1320863 -0.24895559 -0.38054776 0.53283966 -0.14019458 0.14565137 -0.043322586 0.076611176 0.43271643 -0.19787593 0.19744426 -0.73534906 0.5368952 -0.27530757 -0.13286172 0.09329728 0.69988364 0.12803222 0.36130384 -0.15532942 -0.17257042 0.2853866 0.3186209 -0.03425258 0.37884665
lil 0.6154453 0.13484654 -0.31169918 0.209186 0.29847977 0.5747999 0.26460066 -0.12790276 -0.044460796 -0.12531024 0.09147384 -0.41355008 -0.104881145 0.17970978 -0.15048753 0.6653315 -0.22173838 -0.5561239 0.121000044 0.10884591 -0.6468346 0.21603152 0.2518826 -0.518825 -0.03518205 0.3958941 -0.36672467 0.08104931 0.021999305 0.1454083 -0.17277986 0.19854999 0.1686029 0.1846899 -0.028304381 0.05206947 -0.2955396 0.08449002 -0.193569 -0.18232818 0.160089 -0.21556462 -0.3774651 0.2953808 0.18880314 0.35102192 -0.24332836 -0.11190052 -0.025401765 -0.38543043 0.3209719 -0.4951475 0.0027181515 -0.15007003 0.11915397 0.35768488 -0.21787468 0.39718935 0.31643087 -0.08214601 -0.044136554 -0.20002362 0.18335272 0.15324177 -0.20979431 0.026874127 0.40162382 -0.10176457 0.06418822 0.060106467 0.64993244 0.16115673 0.0518748 -0.1658116 0.030596865 -0.06093415 -0.19991799 -0.38319126 0.4759275 -0.1328868 0.059545 -0.03784744 0.038612094 0.38336664 -0.15685883 0.16385174 -0.6528083 0.51980734 -0.21932474 -0.09087613 0.12116421 0.6246393 0.13759816 0.38790846 -0.13908373 -0.21541941 0.2905791 0.30209064 -0.08990349 0.32642528
need 0.64150214 0.12538096 -0.3079527 0.20067646 0.36513457 0.58852637 0.28720438 -0.14781168 -0.05640509 -0.082755715 0.11108501 -0.44029337 -0.08796565 0.15498604 -0.20712662 0.6790289 -0.27576184 -0.5373105 0.05221298 0.14684166 -0.6801933 0.24586165 0.22539708 -0.5152965 -0.007065401 0.44396016 -0.41370153 0.08497547 0.03222681 0.20798664 -0.21615957 0.12063944 0.1922967 0.17615062 0.031722404 -0.03672352 -0.30260578 0.084802285 -0.22486866 -0.18703078 0.21120012 -0.16150889 -0.33626366 0.22847964 0.24404092 0.30251774 -0.25485793 -0.09367069 -0.003943652 -0.33830997 0.3370793 -0.49930838 -0.026714295 -0.092830084 0.15419692 0.35001928 -0.2680178 0.38959995 0.30453664 -0.1402452 -0.04156409 -0.16996361 0.18878967 0.10189244 -0.23853657 0.043603934 0.3543984 -0.036159374 0.08749907 0.059896436 0.69539374 0.14357826 0.04765926 -0.13187242 0.1449405 -0.12203351 -0.23593508 -0.3647438 0.5091059 -0.13616401 0.13669384 -0.040007364 0.0824493 0.4049347 -0.18279111 0.18999073 -0.69496906 0.51731527 -0.25499827 -0.13178694 0.08709453 0.6618631 0.124944314 0.3409514 -0.15251264 -0.15181072 0.26898023 0.3155311 -0.04102158 0.35621613
nigga 0.64995605 0.1322734 -0.30646425 0.20895883 0.37168092 0.5865035 0.29380003 -0.14476869 -0.061620977 -0.072250746 0.11708121 -0.43663517 -0.08294425 0.15403786 -0.21151666 0.6813809 -0.27543387 -0.5286786 0.044895418 0.145123 -0.6834562 0.2414824 0.23726997 -0.5234188 -0.01141611 0.45427048 -0.42081502 0.082482055 0.042352017 0.20358542 -0.21844642 0.11799691 0.18919732 0.17054404 0.027506964 -0.04467969 -0.29590505 0.09402275 -0.21874675 -0.18637213 0.20734286 -0.17333579 -0.34383675 0.23271433 0.25348863 0.30500278 -0.2534917 -0.09160272 0.008354933 -0.34841773 0.34266135 -0.49738955 -0.012638353 -0.09475465 0.15880598 0.34368598 -0.27177483 0.39750558 0.3194022 -0.14190215 -0.05212746 -0.17333095 0.19951893 0.093210936 -0.2310683 0.05022218 0.35751742 -0.044943966 0.09607684 0.05976294 0.7001048 0.14124972 0.056982737 -0.12654188 0.15372758 -0.12264681 -0.23951465 -0.37211993 0.51148456 -0.13474074 0.1295728 -0.033157554 0.08185559 0.41336095 -0.18117899 0.19209263 -0.69450325 0.5154762 -0.25782263 -0.122884996 0.0951768 0.66389453 0.1145585 0.3398207 -0.14601132 -0.15484944 0.28476176 0.30691034 -0.030331546 0.3623887
cough 0.69019234 0.1328306 -0.3320786 0.22380358 0.3927517 0.63683164 0.31415167 -0.164667 -0.055488218 -0.08374656 0.11603507 -0.4768414 -0.088343374 0.15685236 -0.22623962 0.7369101 -0.30337486 -0.587912 0.049238965 0.16837749 -0.733686 0.26956645 0.23908283 -0.565186 -0.0076675424 0.4858383 -0.4457497 0.10022991 0.03553183 0.22471227 -0.24852137 0.11775129 0.20953448 0.19260882 0.029704016 -0.038457192 -0.31681648 0.09130654 -0.23317932 -0.19383805 0.23352309 -0.16803545 -0.3713184 0.24564475 0.27269512 0.32588863 -0.2704147 -0.10709732 -0.0075313207 -0.3626669 0.37311617 -0.5363503 -0.018065551 -0.112475604 0.15835072 0.3762929 -0.2839656 0.4266136 0.33715737 -0.1522238 -0.05041665 -0.19360566 0.2144817 0.10966029 -0.25548545 0.05043535 0.39281932 -0.03739143 0.08541422 0.07283906 0.7495212 0.14292008 0.0485673 -0.1452341 0.16101867 -0.13471831 -0.26206833 -0.3933624 0.55441195 -0.14342228 0.15386176 -0.047448654 0.086638175 0.44735944 -0.19659938 0.2001789 -0.7530238 0.5606306 -0.28596818 -0.14751549 0.09698885 0.7340821 0.12010771 0.37426317 -0.15553127 -0.1714925 0.29748952 0.3298443 -0.03820522 0.3906902
ban 0.81935644 0.16573389 -0.4043954 0.27807674 0.46241817 0.75599414 0.35509497 -0.18913025 -0.06828324 -0.0915626 0.14906779 -0.56971616 -0.10823041 0.2012407 -0.267778 0.87137324 -0.35746226 -0.67177606 0.05621254 0.18683724 -0.8542527 0.3170509 0.28328377 -0.65094006 -0.006412508 0.5535623 -0.5183999 0.10606466 0.0459595 0.26048592 -0.2846728 0.1635903 0.2404732 0.22403073 0.046770312 -0.03904575 -0.38738132 0.09072552 -0.28500262 -0.22104383 0.28089476 -0.22860642 -0.43227428 0.29116833 0.3158866 0.389576 -0.32727686 -0.13430102 -0.010623634 -0.44311973 0.4203518 -0.6283089 -0.021742083 -0.12355056 0.2000608 0.44105554 -0.33907056 0.49897668 0.3838205 -0.178142 -0.048828043 -0.20805041 0.24890152 0.11555442 -0.29789448 0.058795817 0.44348156 -0.04064984 0.115576856 0.08413642 0.88295376 0.1736931 0.068367876 -0.16749099 0.18977927 -0.16445397 -0.30222213 -0.4591501 0.6448071 -0.18127161 0.1833411 -0.039640628 0.114973165 0.506885 -0.23243141 0.23283054 -0.87839013 0.64778817 -0.3304761 -0.1501054 0.12685186 0.8406034 0.1513708 0.4347033 -0.1999177 -0.19781306 0.36022866 0.3819067 -0.035626896 0.45551005
soundcloud 0.79179853 0.19326344 -0.3932543 0.27672526 0.48960364 0.6135645 0.37691513 -0.18674572 -0.07150908 -0.14612758 0.13725543 -0.49597746 -0.13965347 0.13818598 -0.22966689 0.7850978 -0.3432037 -0.63337797 0.12720725 0.14946927 -0.7149736 0.30772364 0.28797933 -0.6209061 0.021979693 0.41954342 -0.4665992 0.092626445 0.061583906 0.28941727 -0.28957382 0.08773188 0.2011154 0.18394113 0.09633087 -0.10435296 -0.36792675 0.030852351 -0.24859059 -0.26558825 0.29059026 -0.13569367 -0.3403418 0.23934926 0.25008574 0.34335318 -0.37228373 -0.14034191 -0.0887695 -0.37910572 0.3975066 -0.64799726 -0.04823226 -0.115148656 0.11916551 0.37787795 -0.27103502 0.46773848 0.37058583 -0.19418831 0.021907402 -0.2506789 0.24234138 0.15960051 -0.23236425 0.049908478 0.42684403 0.003663938 0.043951705 0.012633324 0.80201155 0.14794534 0.06080145 -0.08256665 0.2062049 -0.089604355 -0.32358012 -0.37459812 0.54113686 -0.16325447 0.24214931 -0.010653918 0.083438314 0.45477793 -0.22067378 0.13374323 -0.8237531 0.6073797 -0.3501379 -0.2176772 0.12072995 0.7115548 0.23528193 0.3311805 -0.16568235 -0.21151772 0.24499854 0.39944226 -0.029974552 0.33417624
friends 0.53623194 0.09117801 -0.2240525 0.16188993 0.267151 0.46217442 0.22374293 -0.093064144 -0.043397207 -0.029466297 0.04006265 -0.28409687 -0.028461285 0.12925445 -0.16961999 0.5382299 -0.20457245 -0.37863883 0.09082149 0.13111614 -0.5528408 0.17698587 0.1729718 -0.43692905 -0.01710287 0.40715143 -0.2687724 0.09398391 -0.02376108 0.17562598 -0.11583891 0.13361186 0.16937006 0.16225407 -0.044078283 -0.057076976 -0.23654015 0.07095628 -0.1655771 -0.12693335 0.12456862 -0.13489251 -0.32897583 0.18504591 0.2022242 0.28183413 -0.18102108 -0.093828395 -0.006784154 -0.2947388 0.25649515 -0.336116 -0.00889348 -0.07854585 0.06633063 0.2854778 -0.2418491 0.2807283 0.2022519 -0.06424555 -0.036360923 -0.12687044 0.14768492 0.07119444 -0.15285088 0.049355518 0.32113028 -0.05640489 0.02780171 0.07270643 0.48509 0.12532379 0.008310406 -0.08874087 0.100879915 -0.0779249 -0.14217022 -0.33827513 0.37446743 -0.08857095 0.0737809 -0.0515463 0.04049698 0.29135892 -0.12513494 0.12521183 -0.54053235 0.39230376 -0.1793033 -0.08788424 0.09049554 0.5297541 0.1300909 0.29566863 -0.05851624 -0.15931375 0.22214314 0.3012484 -0.09911717 0.269488
np 0.83575374 0.20534523 -0.40111366 0.28445816 0.51822954 0.6244198 0.3824654 -0.18827891 -0.06993653 -0.15751569 0.13992527 -0.5134696 -0.1404937 0.14075573 -0.25748584 0.8053286 -0.37360826 -0.68514794 0.117083766 0.15486494 -0.7597339 0.3040724 0.2949364 -0.64395773 0.03315201 0.43618834 -0.4997786 0.09820746 0.057445105 0.31180617 -0.31695428 0.0900101 0.20761314 0.21830481 0.10662466 -0.11102817 -0.38726953 0.030768529 -0.25841945 -0.30302396 0.3059043 -0.13041513 -0.35815895 0.24611637 0.26635557 0.35461238 -0.40503088 -0.14973587 -0.10234384 -0.40552288 0.42667302 -0.68660367 -0.053991612 -0.106197156 0.11331074 0.388605 -0.29838952 0.47917163 0.38818926 -0.20230715 0.029837877 -0.2709637 0.2505135 0.16525604 -0.2545183 0.035577387 0.4470333 0.0050668027 0.045240525 -0.004209523 0.8343966 0.1417405 0.07370508 -0.08543871 0.23201443 -0.090546094 -0.32462564 -0.37110847 0.563097 -0.18297116 0.25239447 0.0026222847 0.06744025 0.47044045 -0.22447857 0.14886539 -0.86876816 0.6505164 -0.35274038 -0.22815052 0.12669127 0.7581707 0.24659775 0.33452392 -0.16879614 -0.22465093 0.25740924 0.42900735 -0.04319621 0.3465846
future 0.6910119 0.13072929 -0.33186054 0.21939585 0.39112422 0.6348613 0.30461887 -0.1514405 -0.06341566 -0.08931157 0.12408427 -0.47538185 -0.088746354 0.16140454 -0.22070922 0.7274843 -0.29044938 -0.5747308 0.05113616 0.15932201 -0.72452664 0.26711175 0.23749317 -0.56260186 -0.009566386 0.47998902 -0.45153806 0.09479739 0.036929887 0.21573785 -0.23139839 0.12785193 0.2016688 0.18736354 0.035474233 -0.03231797 -0.31152406 0.09211307 -0.24539866 -0.19850463 0.22566523 -0.1812218 -0.36084706 0.23882863 0.26649502 0.3276785 -0.27167475 -0.10155748 -0.0034490612 -0.36598006 0.3607889 -0.5354727 -0.022943018 -0.107809 0.15827416 0.37260422 -0.28453296 0.41704988 0.3338075 -0.14359914 -0.051359855 -0.1842649 0.19826008 0.103242196 -0.24883643 0.0531336 0.38200992 -0.032390337 0.09896547 0.060880475 0.7523004 0.14943112 0.06042873 -0.14515565 0.16182229 -0.12743257 -0.25536692 -0.38912943 0.54943496 -0.14643516 0.14831609 -0.04388132 0.086113654 0.4301354 -0.1949248 0.20575607 -0.7475401 0.5469513 -0.27637511 -0.13441466 0.09361096 0.72024804 0.12414796 0.3602405 -0.15530641 -0.16362745 0.2923718 0.32835993 -0.04332562 0.37974566
taking 0.5698462 0.10408895 -0.27419642 0.18209592 0.31764096 0.5234975 0.2521072 -0.12223058 -0.047493715 -0.061482906 0.09680688 -0.3861168 -0.06436593 0.12601455 -0.18222779 0.59994304 -0.24759752 -0.47202715 0.037290554 0.12450005 -0.5931164 0.22018765 0.1940771 -0.44516608 -9.330982e-06 0.3865748 -0.36278868 0.081150986 0.033986613 0.1902899 -0.18836375 0.09513412 0.1746076 0.15315136 0.033882033 -0.032072246 -0.26138598 0.06463068 -0.19777194 -0.16567 0.18635565 -0.14699934 -0.29181698 0.20056465 0.21924953 0.2693399 -0.21805272 -0.089202754 0.0018053348 -0.29982355 0.30198082 -0.43450934 -0.015957082 -0.089175895 0.13347895 0.3039573 -0.23517169 0.34331393 0.26587105 -0.11883413 -0.037734065 -0.14805876 0.17279276 0.076679096 -0.20756768 0.04845482 0.31402132 -0.036386445 0.081449375 0.05598635 0.6169142 0.12766118 0.044218216 -0.11911984 0.1390672 -0.10982412 -0.21241628 -0.3138733 0.444318 -0.112516455 0.11848554 -0.043159984 0.06767116 0.35280886 -0.1590361 0.1577507 -0.61044997 0.44526494 -0.22723106 -0.11450495 0.07318048 0.58302194 0.09675203 0.2946334 -0.13249493 -0.13473646 0.23588766 0.27573517 -0.037332766 0.31134784
video 0.6468745 0.13914844 -0.32651997 0.22354975 0.34423608 0.5698949 0.28140935 -0.16563535 -0.036382932 -0.09187514 0.12151406 -0.43946934 -0.093290605 0.16724479 -0.17721139 0.701355 -0.24756385 -0.5564199 0.073599815 0.15018047 -0.6860689 0.24230643 0.23909403 -0.52840716 -0.03850115 0.45042402 -0.41173515 0.070973724 0.030361325 0.17307457 -0.20664544 0.13706185 0.19086586 0.17370841 0.016876547 -0.0031422179 -0.294633 0.09215064 -0.21444498 -0.18687895 0.17895186 -0.19376013 -0.36157978 0.2751992 0.24964625 0.3444294 -0.24877705 -0.09512555 -0.009702807 -0.35803986 0.33082828 -0.51469994 0.0020401385 -0.13016918 0.13367659 0.3674401 -0.24394333 0.411623 0.29855427 -0.09125711 -0.052492373 -0.18068771 0.18854453 0.14655854 -0.21783118 0.04521764 0.39134175 -0.073248446 0.08523872 0.08590041 0.70462674 0.13962924 0.051020797 -0.17028362 0.10187627 -0.09133846 -0.23627035 -0.38258475 0.5080105 -0.14401393 0.115233324 -0.04082941 0.06064445 0.41200042 -0.18563093 0.19463713 -0.69042563 0.5255191 -0.24762984 -0.10821855 0.10672769 0.6721665 0.1282512 0.38158685 -0.15451474 -0.17623682 0.27105543 0.32014167 -0.070281684 0.36170897
feel 0.6590697 0.12861879 -0.32263035 0.20428593 0.37823763 0.60501826 0.2880742 -0.14577879 -0.06546212 -0.0820477 0.11119117 -0.44711953 -0.07961521 0.15060924 -0.20640193 0.694992 -0.27106556 -0.5481536 0.050250456 0.14588177 -0.6827394 0.256186 0.22764444 -0.536466 -0.0066459333 0.45568952 -0.42700398 0.087912135 0.034543373 0.2120136 -0.22575887 0.12067109 0.19404833 0.18346058 0.02803838 -0.03011178 -0.29709587 0.08479027 -0.23065838 -0.18139899 0.21228433 -0.16411851 -0.3524274 0.23385046 0.2524578 0.30702776 -0.25800377 -0.10292557 -0.0031848631 -0.34700975 0.34601283 -0.50321764 -0.018671425 -0.09745773 0.15222368 0.35429293 -0.26877034 0.39777735 0.31029406 -0.1390057 -0.045955773 -0.17028376 0.19604465 0.099890634 -0.24144778 0.05064774 0.3718256 -0.036373258 0.095441684 0.05735753 0.71633023 0.13623458 0.05615809 -0.13663626 0.1526718 -0.12232766 -0.24294461 -0.37273037 0.52246004 -0.14451303 0.13590609 -0.035820503 0.089729674 0.4169829 -0.18160433 0.19521898 -0.70774484 0.5171109 -0.25980052 -0.12279171 0.085728616 0.6843023 0.115981564 0.35148266 -0.15627992 -0.16833274 0.2856021 0.3192834 -0.0368971 0.37033865
go 0.6908431 0.13097921 -0.33433157 0.21950984 0.3965131 0.6357012 0.31375408 -0.15696834 -0.06298214 -0.08375221 0.12692766 -0.47465533 -0.09570475 0.15715423 -0.2255536 0.732576 -0.29603648 -0.5768068 0.059716288 0.1579568 -0.7268868 0.2649646 0.24417952 -0.56379277 -0.0004131785 0.47710097 -0.449397 0.09396275 0.035665255 0.22622998 -0.23586585 0.122677386 0.21280557 0.18335785 0.037756898 -0.04195708 -0.324205 0.08504125 -0.23811746 -0.19596016 0.23243451 -0.17879443 -0.37022373 0.25162715 0.2695851 0.32590032 -0.27246 -0.10836198 0.0016458293 -0.37501055 0.3661557 -0.5401077 -0.02044864 -0.104143254 0.16025907 0.37270507 -0.28982645 0.4192605 0.3357165 -0.14444965 -0.044080857 -0.19188139 0.20820437 0.11064974 -0.25653994 0.047819417 0.38808239 -0.032480814 0.092974395 0.06859739 0.75421035 0.14651272 0.05712284 -0.14095476 0.16390562 -0.13182616 -0.25313023 -0.39201918 0.54713845 -0.14880669 0.15260911 -0.040846504 0.089543976 0.44215947 -0.19613265 0.20251594 -0.7577277 0.55691403 -0.28006253 -0.14049111 0.09840162 0.72087157 0.1235272 0.36846292 -0.1581976 -0.16776459 0.29710472 0.33231887 -0.042791948 0.38242206
really 0.69267 0.13435996 -0.33714932 0.22579923 0.40342775 0.63773406 0.31271103 -0.15317649 -0.05778737 -0.08524008 0.12643519 -0.48028594 -0.092031986 0.160483 -0.22848405 0.73577553 -0.29489794 -0.5839153 0.051308278 0.15440355 -0.73075044 0.2697603 0.24376243 -0.5687885 0.00015005 0.47952917 -0.44958976 0.10013786 0.032380726 0.22269745 -0.23786245 0.13144654 0.20466097 0.19379532 0.029957758 -0.03398607 -0.32575822 0.08201978 -0.23996736 -0.19550136 0.23252274 -0.17495605 -0.3717194 0.24642996 0.27267423 0.33117437 -0.27646178 -0.101002775 -0.0060570086 -0.3743156 0.3581815 -0.53769374 -0.026844338 -0.1060508 0.16772872 0.3758469 -0.28412512 0.4221338 0.33472085 -0.15041547 -0.042100254 -0.19209826 0.20256993 0.10617687 -0.25495115 0.05003622 0.39197212 -0.0398653 0.09746814 0.06112609 0.75444835 0.15488182 0.056835867 -0.1442883 0.15753499 -0.12502955 -0.2553468 -0.39999437 0.5476963 -0.15257306 0.15290558 -0.044627447 0.08332768 0.44397566 -0.20162518 0.19949216 -0.7498845 0.56109005 -0.2763287 -0.1357933 0.10239771 0.7222326 0.12591273 0.36651888 -0.16420071 -0.16708145 0.29698825 0.33952537 -0.048296645 0.38800508
time 0.74076116 0.1436323 -0.3526909 0.2357851 0.42305443 0.6745827 0.33108333 -0.1622473 -0.0649039 -0.0883962 0.12721157 -0.50613874 -0.09180506 0.17533895 -0.23236324 0.7798599 -0.31087604 -0.6113532 0.060508143 0.16998845 -0.77654344 0.28158724 0.26310256 -0.6003183 -0.0019832333 0.5065558 -0.47481924 0.09631205 0.042470783 0.2408794 -0.25013268 0.13730186 0.21489803 0.19970796 0.039724745 -0.041773036 -0.33783436 0.08824627 -0.25830856 -0.20877746 0.23685618 -0.19188076 -0.39158523 0.2610045 0.28303358 0.3490612 -0.29401302 -0.11566272 -0.010166163 -0.3972547 0.38450202 -0.57338125 -0.019551927 -0.115609996 0.16814159 0.3997232 -0.3049896 0.4434661 0.35209823 -0.15392606 -0.0517081 -0.19545674 0.21910527 0.11622117 -0.2653991 0.05682318 0.40662134 -0.037994858 0.09588496 0.06831178 0.791851 0.1635989 0.059680175 -0.14693825 0.1753207 -0.13387372 -0.27550137 -0.4144774 0.58474445 -0.1547816 0.16376743 -0.040078316 0.09294028 0.4705154 -0.20990005 0.21878949 -0.7918442 0.5896041 -0.2872107 -0.14934331 0.105270006 0.75947285 0.13525018 0.38493514 -0.16557652 -0.1821988 0.3156294 0.35397574 -0.040490206 0.41117674
think 0.7339837 0.14412774 -0.35740986 0.23744275 0.42162928 0.67103356 0.33250293 -0.16267028 -0.069294326 -0.09285205 0.12582642 -0.50032437 -0.10068622 0.17367679 -0.23332646 0.77722555 -0.3152348 -0.60645187 0.058845438 0.16874316 -0.7667956 0.28701818 0.2575531 -0.5956694 -0.0075421743 0.5012647 -0.47750014 0.098343775 0.03409892 0.23877306 -0.24519098 0.1366872 0.2226678 0.1962017 0.03857931 -0.035013586 -0.33947805 0.0883066 -0.25127706 -0.20979926 0.2372744 -0.1875294 -0.388243 0.25689644 0.2832173 0.34308326 -0.28551376 -0.113274485 -0.00054623943 -0.38746187 0.37841043 -0.5651326 -0.020709762 -0.10829218 0.17445928 0.3902795 -0.3036467 0.4481769 0.35666358 -0.15914431 -0.051166363 -0.19970764 0.21899943 0.11593555 -0.26898196 0.056708444 0.40718102 -0.035856485 0.1036482 0.06361125 0.796511 0.15988253 0.06307056 -0.1524326 0.16531934 -0.12995347 -0.26511934 -0.41887677 0.5823348 -0.16175745 0.16220683 -0.044983953 0.09535664 0.46238256 -0.20698252 0.22021292 -0.7964089 0.5919202 -0.29330343 -0.1491958 0.10063191 0.76162606 0.13907245 0.39009807 -0.17105874 -0.1814719 0.3099004 0.35457405 -0.044366986 0.4054815
said 0.7272355 0.13829702 -0.3485256 0.22986697 0.41715956 0.65683687 0.31897286 -0.15809336 -0.06706949 -0.081493944 0.12533347 -0.491971 -0.089036934 0.16823505 -0.23508531 0.7679769 -0.30307892 -0.60376084 0.06140294 0.17002665 -0.7587926 0.2801386 0.25250182 -0.5812797 0.0011890109 0.5025978 -0.47153082 0.10059558 0.044788383 0.22734039 -0.24430618 0.13319519 0.22132626 0.19843872 0.028586553 -0.038824305 -0.33633024 0.08715069 -0.25111285 -0.20593667 0.23187162 -0.18433264 -0.37989855 0.2508733 0.27902013 0.3359511 -0.28061628 -0.10922489 -0.0032103946 -0.38423944 0.3785221 -0.5596143 -0.024896782 -0.1157597 0.16627625 0.39451405 -0.2941722 0.43319842 0.3407141 -0.14913054 -0.04771006 -0.19053522 0.2101656 0.111735485 -0.2646276 0.061350383 0.3929801 -0.03356186 0.098783575 0.066528946 0.7758312 0.15887448 0.053296547 -0.1529647 0.17024006 -0.13206221 -0.26640844 -0.41309053 0.56426 -0.15663554 0.15469635 -0.043313354 0.09197538 0.45700523 -0.21168828 0.21630195 -0.77910477 0.5792495 -0.28405654 -0.13908882 0.097394355 0.7478527 0.13160253 0.3829818 -0.167992 -0.17181173 0.3120722 0.34383243 -0.04605346 0.40000215
know 0.6599249 0.12658286 -0.31537396 0.21209553 0.3784347 0.60156703 0.29386774 -0.14366983 -0.06309415 -0.07712504 0.113425694 -0.45502055 -0.09056002 0.1547297 -0.21730514 0.6998716 -0.2816892 -0.5489706 0.047641803 0.15728025 -0.69414103 0.25612894 0.22882053 -0.53801525 -0.00052539876 0.4551077 -0.43039343 0.090065345 0.03868714 0.21266578 -0.22627492 0.11519016 0.19617222 0.1758896 0.03248278 -0.035547946 -0.3047474 0.08041376 -0.22821298 -0.18849263 0.21772744 -0.17099066 -0.34320894 0.23378086 0.25318733 0.30920318 -0.25615954 -0.10496841 0.00031900368 -0.34630203 0.33796772 -0.51434886 -0.020517366 -0.10249709 0.15534417 0.3562975 -0.27113461 0.3954578 0.31821647 -0.13386717 -0.04386227 -0.17939588 0.19931982 0.10007594 -0.2473395 0.049449354 0.3618633 -0.03357174 0.084846355 0.05974137 0.714192 0.1391514 0.05432864 -0.13331449 0.1575789 -0.12771273 -0.24508235 -0.37693027 0.52618617 -0.14476806 0.14579244 -0.043901175 0.0783818 0.42337063 -0.19651467 0.19242895 -0.7143077 0.5294502 -0.2606918 -0.12872662 0.09210895 0.68834686 0.118379556 0.3480945 -0.15403539 -0.16290885 0.27974027 0.31800133 -0.040803224 0.3710947
wayne 0.4900119 0.10500953 -0.2521795 0.17173953 0.23640588 0.4764994 0.21635558 -0.119370244 -0.039177835 -0.10671191 0.08155626 -0.33278218 -0.075574204 0.14998257 -0.11307236 0.53266037 -0.16898043 -0.44701064 0.1061817 0.07857788 -0.50680685 0.17737836 0.21323276 -0.41568878 -0.032737043 0.31259826 -0.29005215 0.06193212 0.019115396 0.11028256 -0.12702361 0.17199406 0.1366098 0.14917779 -0.02450266 0.050481476 -0.24566147 0.067348674 -0.14278358 -0.15563446 0.14226283 -0.181448 -0.30831993 0.23770718 0.14812267 0.2936169 -0.19387902 -0.09076132 -0.02314863 -0.31776875 0.263772 -0.403027 0.010052002 -0.11411619 0.086361706 0.2909127 -0.18456674 0.32417086 0.25358894 -0.04998552 -0.03176149 -0.16712557 0.15504396 0.13324025 -0.16572389 0.020036308 0.34230065 -0.082953505 0.057095155 0.04558808 0.5159539 0.14019385 0.02513305 -0.14531715 0.021233989 -0.053276822 -0.15387604 -0.30947492 0.38526207 -0.10247684 0.040920958 -0.014217243 0.019983597 0.29778984 -0.13016558 0.12947835 -0.5361991 0.4291718 -0.17135999 -0.065850735 0.10343655 0.5254419 0.09912353 0.3247783 -0.11704045 -0.18475987 0.23366761 0.25429714 -0.07574873 0.27029854
took 0.71252555 0.13583942 -0.3428518 0.22684856 0.41315645 0.6583186 0.32277438 -0.15871634 -0.060471773 -0.08233214 0.13122903 -0.48310947 -0.09016551 0.1624836 -0.23670939 0.75654435 -0.29973167 -0.59685314 0.053192608 0.16185774 -0.7540107 0.27186137 0.25480658 -0.57350194 0.0013534417 0.49292955 -0.46893743 0.09147993 0.040939186 0.23300493 -0.2450876 0.12905125 0.21938013 0.19743109 0.03634587 -0.03312485 -0.32965967 0.09357051 -0.24958368 -0.20237435 0.22771026 -0.18493885 -0.37142292 0.2499265 0.27754724 0.33433607 -0.28762802 -0.11065775 -0.006623758 -0.3752174 0.3761008 -0.5511758 -0.02954697 -0.115183614 0.1716332 0.37816748 -0.29430878 0.43760684 0.34574437 -0.15388425 -0.0408273 -0.19917202 0.21503307 0.11202245 -0.2620057 0.04687077 0.39780724 -0.03992874 0.091594405 0.06455262 0.77649593 0.14877784 0.054687068 -0.15140225 0.17200457 -0.13099496 -0.2664944 -0.4043124 0.5698575 -0.15249524 0.1568184 -0.048011884 0.08991974 0.45199603 -0.20983945 0.21411628 -0.7773926 0.5735602 -0.28147504 -0.14031684 0.10726377 0.7379297 0.12679684 0.37230045 -0.16273524 -0.17773497 0.3001661 0.34656614 -0.050568104 0.40189168
youtube 0.61948764 0.13508996 -0.31998706 0.21434464 0.3430567 0.5517247 0.25728938 -0.15499495 -0.03882176 -0.081103645 0.10839817 -0.41663048 -0.07973353 0.15794224 -0.18410358 0.68743694 -0.23762688 -0.55397516 0.064023376 0.1477002 -0.67047966 0.22504076 0.22638452 -0.5131321 -0.042611863 0.4339221 -0.38570413 0.06778997 0.03730311 0.18101686 -0.19631362 0.134902 0.20007862 0.16664873 0.018032001 -0.009815584 -0.28636596 0.0914647 -0.22111411 -0.17573643 0.18854317 -0.18217541 -0.34632015 0.26500678 0.24922876 0.3389493 -0.2411294 -0.093307935 -0.019425606 -0.35371608 0.3210178 -0.5007875 0.0042321677 -0.117853664 0.13748354 0.3623662 -0.23603986 0.39667693 0.29324278 -0.08515819 -0.055633813 -0.16758959 0.1750641 0.13828449 -0.21341333 0.058875043 0.3914789 -0.069887824 0.07235322 0.08283263 0.6973546 0.13373588 0.04408215 -0.16165127 0.106106006 -0.1059203 -0.2187034 -0.36129427 0.51118237 -0.13624738 0.10095074 -0.041005753 0.07480158 0.39797747 -0.1771717 0.1901408 -0.68107647 0.50849694 -0.25955713 -0.11325561 0.09764778 0.6379561 0.13231774 0.363947 -0.16495228 -0.16400558 0.25218037 0.30176738 -0.07523502 0.35006773
kodak 0.47612828 0.1134204 -0.24759132 0.16782136 0.21035922 0.44218722 0.21204802 -0.09945404 -0.023622666 -0.09710677 0.06683489 -0.3062848 -0.07357401 0.14028914 -0.09711427 0.51805866 -0.1601223 -0.43270826 0.10816333 0.07924165 -0.48380488 0.15909901 0.19779731 -0.4032659 -0.034485847 0.2966127 -0.26619342 0.050880577 0.017641561 0.10714672 -0.11352387 0.1632135 0.11927639 0.14673324 -0.02949255 0.049382295 -0.2213181 0.072093256 -0.13934669 -0.141319 0.11765126 -0.17593235 -0.2957115 0.23909768 0.14931919 0.289184 -0.18106641 -0.08605997 -0.021313163 -0.3036406 0.23893462 -0.3801223 0.014659529 -0.11987141 0.070006244 0.27686876 -0.1650924 0.31274644 0.23343405 -0.039490256 -0.030832922 -0.15725027 0.13754284 0.1319118 -0.15864438 0.01616935 0.3243385 -0.091100946 0.05006063 0.058321152 0.49236876 0.11837075 0.027722051 -0.12764765 0.006132301 -0.048650276 -0.15003048 -0.29930153 0.368818 -0.09110434 0.029324152 -0.02648413 0.018890562 0.2804047 -0.12020719 0.113582455 -0.495596 0.39827412 -0.16848476 -0.057712615 0.1027446 0.48602816 0.10844146 0.31539142 -0.09752601 -0.17817532 0.22672875 0.24258073 -0.078890346 0.24723378
prod 0.8666151 0.20420551 -0.42174357 0.30263653 0.5307675 0.6682054 0.40783066 -0.20462479 -0.06378463 -0.1534829 0.14651948 -0.5329739 -0.14882015 0.15368505 -0.2487438 0.85348356 -0.37112245 -0.7118696 0.12893344 0.17440468 -0.8050129 0.32881334 0.30280006 -0.68011206 0.023530321 0.4725054 -0.5214196 0.09951798 0.061225723 0.30504224 -0.31037998 0.10610524 0.22599962 0.20824744 0.102086045 -0.10739808 -0.40969044 0.043170873 -0.279095 -0.3022256 0.31177843 -0.15499577 -0.38600865 0.26681954 0.28844696 0.37399307 -0.4119014 -0.1428028 -0.09434576 -0.43517506 0.4332724 -0.7049942 -0.050738562 -0.12875912 0.12848534 0.4220487 -0.30668175 0.51733285 0.41243407 -0.20418423 0.019549862 -0.28571028 0.2589354 0.15978281 -0.2670716 0.05486119 0.47673908 -0.016007451 0.050009616 0.0047097965 0.8796505 0.16646676 0.0690238 -0.0972725 0.22750086 -0.10872524 -0.3431375 -0.4065365 0.58785623 -0.17478065 0.25304416 -0.016516788 0.07929143 0.4901573 -0.23936597 0.15616171 -0.90461665 0.6766312 -0.3715813 -0.22846197 0.13702764 0.7909856 0.24917892 0.3703333 -0.18164557 -0.23820019 0.28855723 0.442042 -0.034535326 0.36959708
people 0.69836605 0.13562806 -0.3373266 0.21649046 0.39325243 0.6290413 0.30598557 -0.15419154 -0.057170227 -0.08351795 0.12643547 -0.47598088 -0.08839914 0.15682745 -0.22499178 0.7349331 -0.28972843 -0.5761314 0.05468345 0.15582441 -0.7263098 0.26351392 0.24238008 -0.558951 -0.004423478 0.4757644 -0.45332682 0.09688108 0.03841239 0.22152998 -0.23684376 0.12885661 0.21011932 0.19258083 0.031783845 -0.04158609 -0.32461366 0.09137386 -0.24201693 -0.19772625 0.22217035 -0.1812232 -0.36986315 0.24997544 0.26756337 0.33087885 -0.27519697 -0.10196268 -0.0019541658 -0.37260407 0.36127424 -0.53349894 -0.026514774 -0.10325596 0.16549626 0.37279984 -0.29194582 0.4219382 0.33280498 -0.14187706 -0.047060594 -0.18706557 0.2001287 0.103668414 -0.25766325 0.051644173 0.38664818 -0.041511197 0.09405932 0.06279708 0.744565 0.14593866 0.05740003 -0.1430827 0.16215743 -0.12904102 -0.2530588 -0.39382464 0.54920983 -0.15026845 0.15110075 -0.042284682 0.09101985 0.43899134 -0.19404425 0.19867983 -0.74954146 0.55863917 -0.27863717 -0.13880493 0.0928479 0.7248749 0.1311951 0.35989365 -0.15789896 -0.17005798 0.29901156 0.3352441 -0.042355374 0.38579935
weed 0.6157334 0.11694851 -0.30263636 0.20146471 0.35578054 0.56766474 0.2787856 -0.1374496 -0.050906878 -0.070501946 0.104299575 -0.4214759 -0.08375233 0.14209914 -0.1990726 0.6486919 -0.26700068 -0.5201646 0.04882691 0.1393323 -0.65046424 0.24111047 0.21246569 -0.49999732 -0.0052140425 0.42542207 -0.396767 0.08182691 0.03566046 0.1978426 -0.21001294 0.113245465 0.1874064 0.16412266 0.03463167 -0.03770529 -0.28060842 0.07911476 -0.21631923 -0.17953941 0.20475914 -0.16048764 -0.3289956 0.2160601 0.23908736 0.29332525 -0.24050674 -0.09167314 -0.005696794 -0.33022937 0.32613766 -0.4832063 -0.02337144 -0.092058405 0.14644177 0.33554184 -0.2583424 0.37881786 0.30044824 -0.13299629 -0.04454934 -0.16886882 0.18692118 0.09403712 -0.22779107 0.05009143 0.34452906 -0.037256427 0.08411057 0.055900346 0.67150235 0.13473178 0.046687536 -0.12176064 0.1470037 -0.12009074 -0.2257687 -0.34826517 0.48519018 -0.12869246 0.13696481 -0.03335121 0.07490759 0.39046314 -0.17381462 0.17780474 -0.66205066 0.49693885 -0.24700978 -0.12651226 0.09182648 0.6407282 0.10829297 0.3244496 -0.14473976 -0.15275668 0.26792017 0.29901895 -0.043123476 0.3467938
still 0.69524854 0.13788317 -0.33368334 0.22301057 0.40255615 0.6439468 0.31783745 -0.16292171 -0.060457345 -0.08020089 0.12500946 -0.4781694 -0.09437614 0.16502698 -0.22645327 0.7434844 -0.29775733 -0.588289 0.057157923 0.15620196 -0.73783106 0.27349657 0.24327739 -0.5684176 1.0281187e-06 0.47626984 -0.4602132 0.09605815 0.032585844 0.22951698 -0.23830807 0.12886417 0.21190155 0.19490488 0.03862105 -0.042278197 -0.3217071 0.08921405 -0.24000187 -0.20209303 0.22574477 -0.17731038 -0.36365068 0.24722758 0.27506298 0.3242987 -0.2766097 -0.10741738 -0.0056903833 -0.37584245 0.35923675 -0.5449074 -0.026088605 -0.102862865 0.16056101 0.378566 -0.2883896 0.42663687 0.33868614 -0.15325302 -0.04115572 -0.19286579 0.20298725 0.10127562 -0.2514287 0.052974537 0.39133713 -0.033663742 0.09633444 0.059286922 0.76170385 0.14969347 0.05803841 -0.14093512 0.16818894 -0.12847848 -0.2614449 -0.39368725 0.5576618 -0.15501066 0.15291236 -0.045350015 0.085523054 0.4423378 -0.19932081 0.20230283 -0.7515819 0.5610049 -0.27436107 -0.13499933 0.09622723 0.72747123 0.12533279 0.36603436 -0.1588643 -0.16854806 0.2989047 0.33806506 -0.04589978 0.39273116
man 0.6491065 0.12356492 -0.31352815 0.20355743 0.3716575 0.5882807 0.2881636 -0.15195891 -0.06003211 -0.07748892 0.11167467 -0.4377141 -0.07954162 0.14935327 -0.20463291 0.68753505 -0.26916143 -0.5393205 0.056733616 0.14284882 -0.67451215 0.2511982 0.22812344 -0.51578826 -0.002507836 0.43789613 -0.41982862 0.09270219 0.031202437 0.21150413 -0.22142576 0.11449849 0.19288704 0.17964663 0.027957626 -0.034693696 -0.29727757 0.0759838 -0.22145878 -0.18489094 0.21537337 -0.16781949 -0.34151044 0.22964527 0.24689753 0.3101684 -0.25537726 -0.09831011 -0.005611096 -0.34427342 0.33120742 -0.5008032 -0.018568194 -0.099754676 0.15497394 0.3537155 -0.2629029 0.39041904 0.31292355 -0.13767405 -0.03918605 -0.16904461 0.19568586 0.09702257 -0.23436995 0.045257352 0.36049107 -0.031698506 0.09175093 0.061966404 0.70389724 0.13330229 0.051062606 -0.128407 0.15249889 -0.123959064 -0.2359142 -0.36520565 0.51367617 -0.13956481 0.13348058 -0.0412552 0.07942938 0.414762 -0.17912823 0.1938145 -0.6962769 0.5174369 -0.24998924 -0.12765865 0.09424113 0.66941667 0.11339768 0.3433246 -0.1460494 -0.1586286 0.27956635 0.31268474 -0.039293032 0.35964566
life 0.5421985 0.11025165 -0.26511598 0.1747358 0.30801558 0.4912862 0.2409955 -0.12686026 -0.051609196 -0.067450516 0.09810878 -0.36534995 -0.06845501 0.119397715 -0.17351955 0.5623483 -0.2287817 -0.45031926 0.0460108 0.124698795 -0.5675346 0.20714393 0.18836741 -0.4315386 -0.0037633586 0.37273198 -0.35436848 0.07396896 0.02670053 0.17993042 -0.18882833 0.08899565 0.15879469 0.14056794 0.024245925 -0.027750136 -0.24026293 0.06357493 -0.1917 -0.15546218 0.17240623 -0.13223214 -0.28495723 0.19575228 0.21245402 0.2511937 -0.20440245 -0.08410571 0.00056704174 -0.27897456 0.28163728 -0.41844717 -0.014734646 -0.07912017 0.12294278 0.29316646 -0.2269071 0.3226848 0.26284823 -0.12135435 -0.035872318 -0.14164543 0.15590443 0.085894145 -0.20096987 0.032098766 0.29995644 -0.029112197 0.070497096 0.05286791 0.58082646 0.11544591 0.043071274 -0.11640977 0.12149481 -0.092844896 -0.20042762 -0.3069475 0.4208695 -0.11812074 0.11747407 -0.03272282 0.073106475 0.34429786 -0.15404278 0.16292983 -0.5727032 0.4232309 -0.21573728 -0.10115735 0.06834114 0.5547996 0.09273817 0.2815789 -0.1295543 -0.13733026 0.22791852 0.26372808 -0.036872327 0.29871297
peso 0.85055035 0.22319803 -0.4138614 0.28737417 0.5229864 0.61935186 0.39942643 -0.20584862 -0.065526575 -0.16333455 0.14587085 -0.5103165 -0.153045 0.13713604 -0.2533683 0.80876726 -0.378298 -0.68405986 0.14295888 0.15087977 -0.73660374 0.31712282 0.29174024 -0.65315324 0.031708177 0.41167966 -0.5005724 0.098925464 0.07209381 0.31937382 -0.31303108 0.08362605 0.20499022 0.19827397 0.11898817 -0.12787873 -0.3960106 0.015014591 -0.25654677 -0.3130844 0.305596 -0.12750877 -0.35755137 0.25303775 0.25215125 0.356806 -0.41862884 -0.1570625 -0.12042157 -0.4051905 0.42993766 -0.7001738 -0.05410977 -0.11004098 0.10828844 0.39251864 -0.27921113 0.48864034 0.4000402 -0.21467996 0.04928512 -0.28771958 0.25980198 0.17568216 -0.24934345 0.044205114 0.45288303 0.008024982 0.033973925 -0.02412666 0.8409811 0.1447494 0.07115174 -0.06815395 0.2369796 -0.078143746 -0.3470802 -0.37564862 0.5578497 -0.1820708 0.26577723 0.0021681646 0.071225524 0.46959797 -0.22555555 0.13599735 -0.8619958 0.64074415 -0.38234454 -0.25015375 0.119789526 0.7364591 0.26951903 0.32724094 -0.17544906 -0.23290366 0.2465036 0.4222788 -0.028023675 0.34205458
lmao 0.50816524 0.09546441 -0.24538177 0.16449292 0.29055205 0.46569735 0.23278248 -0.119059056 -0.049406517 -0.05513216 0.09410766 -0.34062424 -0.06773346 0.11416521 -0.1694168 0.5409275 -0.22030647 -0.4209513 0.03618134 0.11377866 -0.53547925 0.19885294 0.18101722 -0.40765923 -0.006065606 0.34456334 -0.32949993 0.0730517 0.02789228 0.17112204 -0.17090678 0.08712505 0.14581214 0.133011 0.026084296 -0.023244191 -0.23635703 0.06792621 -0.17866924 -0.13838194 0.16477361 -0.1339012 -0.26739207 0.1806078 0.20134304 0.2441309 -0.20089902 -0.08144536 0.00049337855 -0.276116 0.26570743 -0.39299443 -0.015223357 -0.07785162 0.1186645 0.27509162 -0.20964804 0.3137151 0.2475728 -0.108131014 -0.037713762 -0.1346912 0.15387891 0.07886323 -0.18332735 0.043007087 0.28764817 -0.031607255 0.068612434 0.046804547 0.54367214 0.11442532 0.034483485 -0.09979861 0.11242035 -0.09948458 -0.18568948 -0.29028594 0.39447582 -0.11053338 0.1058512 -0.034915894 0.06446028 0.32379797 -0.13928479 0.15113804 -0.5506632 0.40374917 -0.20450224 -0.099724285 0.06973989 0.52708834 0.09783369 0.2626796 -0.11569705 -0.120562635 0.22108021 0.24611202 -0.035686813 0.28514063
much 0.5671322 0.10792546 -0.27960026 0.180418 0.3216856 0.5211161 0.25211203 -0.1334504 -0.050574113 -0.06758922 0.10349538 -0.38792548 -0.07864307 0.13410807 -0.17903928 0.6018768 -0.24237452 -0.47457296 0.041456115 0.13365193 -0.59898275 0.21565029 0.19570072 -0.46200326 -0.0044796453 0.39106864 -0.3657196 0.07249032 0.031886518 0.18291259 -0.19156921 0.10638846 0.1656039 0.14841865 0.03344113 -0.030453406 -0.26383868 0.06723151 -0.20088539 -0.15875712 0.18889143 -0.1401903 -0.29630658 0.19930589 0.21990933 0.2709667 -0.22985165 -0.08499659 -0.0065056747 -0.30207986 0.29747733 -0.43999237 -0.019736806 -0.0817254 0.13285038 0.30381057 -0.23064204 0.3398761 0.27223942 -0.1246089 -0.03662942 -0.15517421 0.17242765 0.08639602 -0.2026531 0.038445678 0.31808564 -0.024430545 0.07381153 0.047289897 0.61642367 0.1218286 0.04156628 -0.112979084 0.13318437 -0.10074138 -0.21159652 -0.32214263 0.44767478 -0.121316716 0.12270504 -0.035312086 0.073265865 0.3556395 -0.15813063 0.16310683 -0.6112393 0.4587829 -0.22984612 -0.1141429 0.08121466 0.59198004 0.10283622 0.29726088 -0.12759194 -0.1332228 0.23994039 0.26991686 -0.0376507 0.31941435
drinking 0.5650717 0.113684714 -0.27248845 0.18157494 0.31992954 0.51894885 0.250492 -0.12799288 -0.057789218 -0.071725726 0.10797637 -0.37951294 -0.06818077 0.14029145 -0.17953187 0.5925411 -0.23754652 -0.4680504 0.033385176 0.12572382 -0.5974593 0.21786043 0.20909104 -0.464906 -0.006376034 0.40037873 -0.3617012 0.0753641 0.03492185 0.17427824 -0.19527322 0.103616625 0.17288361 0.14737588 0.023933033 -0.03771167 -0.26167798 0.08359214 -0.18932661 -0.16811019 0.18297347 -0.15161437 -0.30110812 0.20306946 0.21999334 0.2692529 -0.22709237 -0.085528396 0.0025519824 -0.30574244 0.3038387 -0.44320312 -0.0154671725 -0.0766458 0.12996592 0.30446485 -0.23659332 0.3482755 0.27402523 -0.12654613 -0.04129156 -0.14547342 0.17653252 0.07701128 -0.19860989 0.046558462 0.3125391 -0.04112305 0.08795587 0.053785335 0.60762846 0.121128164 0.049211062 -0.11266493 0.12867858 -0.10842318 -0.21131139 -0.3287107 0.44722453 -0.12597348 0.120118976 -0.036909338 0.06796049 0.36496845 -0.16188374 0.16298917 -0.6160545 0.44662732 -0.2247499 -0.115078986 0.08530844 0.5890724 0.10859152 0.30255067 -0.12758435 -0.13801086 0.23970024 0.2703153 -0.027367022 0.31000298
back 0.60139877 0.11758922 -0.2936789 0.19512057 0.3452764 0.55060875 0.2664916 -0.13265415 -0.050634038 -0.07024681 0.101763636 -0.40674132 -0.08042124 0.13527821 -0.19529362 0.6322527 -0.25773615 -0.49777088 0.046554685 0.1417093 -0.6328981 0.23009846 0.20966567 -0.49160177 -0.002870247 0.41231304 -0.3944326 0.07852049 0.028002486 0.19248226 -0.20152736 0.10811856 0.1798014 0.16010115 0.026551262 -0.025008077 -0.28337133 0.07511269 -0.20562115 -0.17037949 0.19374421 -0.1562963 -0.32198277 0.21597244 0.23317477 0.28416565 -0.23905139 -0.09544658 0.0033140597 -0.31735536 0.3171273 -0.47189006 -0.02308471 -0.09306531 0.13813524 0.32213795 -0.25147438 0.3654766 0.28643966 -0.122481376 -0.03679775 -0.16674627 0.17863819 0.09284466 -0.22004288 0.04838232 0.33897808 -0.034613416 0.086680055 0.058326147 0.6510696 0.13305771 0.04406039 -0.124764785 0.13542941 -0.10719797 -0.22406486 -0.3412385 0.47791022 -0.12809277 0.1287833 -0.0340435 0.073467694 0.38058507 -0.17464375 0.1801297 -0.64933383 0.48326662 -0.23744045 -0.11953326 0.08901742 0.6221327 0.10690687 0.3133645 -0.13584165 -0.15083252 0.2543086 0.29179823 -0.04299585 0.3356479
good 0.7317814 0.14307307 -0.3543395 0.23107022 0.41999516 0.666527 0.3294194 -0.17132603 -0.06465081 -0.08411588 0.13377193 -0.501692 -0.09675863 0.16757855 -0.23859662 0.77562505 -0.3089362 -0.6087655 0.05938614 0.17140976 -0.7684415 0.28105095 0.2534081 -0.5897715 -0.0010509749 0.5076587 -0.47993964 0.10311472 0.03626355 0.23645528 -0.24862565 0.13015333 0.21721055 0.20445493 0.039913256 -0.03515676 -0.34236386 0.09142447 -0.25113964 -0.20553647 0.23917529 -0.18568686 -0.39010397 0.26477247 0.2813439 0.34442684 -0.2958542 -0.107921176 -0.0062221587 -0.393011 0.384907 -0.5724476 -0.024873195 -0.10689258 0.16514026 0.39882815 -0.30268395 0.44577315 0.34625596 -0.15113051 -0.043254115 -0.19557844 0.21724309 0.11460444 -0.2699389 0.048580166 0.41144088 -0.037702646 0.10216182 0.06688356 0.79584044 0.15655006 0.05371594 -0.15043488 0.17101903 -0.12958449 -0.26636785 -0.41914672 0.57532394 -0.15620291 0.16306005 -0.04937391 0.091589354 0.46086258 -0.2104965 0.21828665 -0.793231 0.58870566 -0.2955477 -0.14032336 0.108670376 0.76406866 0.1332253 0.38880116 -0.16588101 -0.17649502 0.31117806 0.36079878 -0.04404866 0.41124898
want 0.681944 0.1306237 -0.33318377 0.21203497 0.38868082 0.6221327 0.30222282 -0.15761012 -0.06558556 -0.07755307 0.11556152 -0.46862906 -0.092603005 0.16001591 -0.21595871 0.7147324 -0.28794074 -0.5683528 0.05174172 0.15511337 -0.71341115 0.26705855 0.23445015 -0.54913646 -0.008350743 0.46301806 -0.44667768 0.09928054 0.039860073 0.220049 -0.23452273 0.1227452 0.2082182 0.18168719 0.030341212 -0.039195444 -0.3167629 0.088477276 -0.23886073 -0.1920927 0.21750957 -0.17931807 -0.3567262 0.24101879 0.26778165 0.3201157 -0.27555782 -0.10740232 0.002178897 -0.3673399 0.35346907 -0.5297042 -0.02258524 -0.10713935 0.15904883 0.3629413 -0.28419626 0.4143864 0.32559282 -0.14871581 -0.048180223 -0.18674996 0.20260665 0.09716082 -0.2495721 0.053543143 0.37735945 -0.033550255 0.09006291 0.060349833 0.7362628 0.14851426 0.054630175 -0.14067416 0.16374817 -0.12906557 -0.24888408 -0.38295063 0.5384551 -0.14094847 0.14873059 -0.036431506 0.0888538 0.43347225 -0.19549674 0.2032991 -0.73679864 0.5479267 -0.26534605 -0.13796657 0.09310281 0.7058719 0.12798072 0.35976598 -0.15819828 -0.16131587 0.29150164 0.32952717 -0.0405156 0.380587
even 0.6848718 0.13208948 -0.32822245 0.22255506 0.39314443 0.62588006 0.31034788 -0.15908343 -0.06339146 -0.085441716 0.12229505 -0.46388 -0.090670705 0.157595 -0.22326402 0.7284389 -0.2919103 -0.5770287 0.052727357 0.16085842 -0.72214514 0.26650292 0.23939979 -0.5577566 0.00127465 0.47256058 -0.450126 0.08876676 0.03899863 0.21778916 -0.23485017 0.119752966 0.20818426 0.18721384 0.03394434 -0.03521791 -0.3179937 0.0796348 -0.24199091 -0.1962624 0.22880948 -0.17944121 -0.365319 0.24541035 0.26846352 0.3258136 -0.26743078 -0.10026062 -0.008449005 -0.3617727 0.3569885 -0.5346765 -0.018611822 -0.10730681 0.16021135 0.36514357 -0.28209162 0.41136917 0.32554778 -0.14210059 -0.044905756 -0.18759815 0.2040401 0.10081704 -0.24925217 0.048948295 0.3810886 -0.032362677 0.097035654 0.06702318 0.7424502 0.14628538 0.05049173 -0.13776018 0.16376567 -0.1211415 -0.24982283 -0.38973156 0.54490006 -0.14799973 0.1477412 -0.042031743 0.08952559 0.43290108 -0.1949467 0.19981824 -0.7386204 0.5476848 -0.27304572 -0.13606338 0.09422429 0.70777893 0.13090082 0.3609596 -0.15425713 -0.16839588 0.29287606 0.32864404 -0.039076228 0.377968
death 0.6082463 0.11221855 -0.26096952 0.17168447 0.35798186 0.5450739 0.28503892 -0.09341552 -0.03956237 -0.07784666 0.07237888 -0.41523388 -0.05703669 0.098793045 -0.19801566 0.6798039 -0.26624477 -0.54943424 0.030322362 0.119328864 -0.63226855 0.2327997 0.19150789 -0.50544673 0.022792874 0.3960131 -0.44207954 0.13127388 0.056681678 0.21608575 -0.20296262 0.03832667 0.18956187 0.17280152 0.048856735 -0.018973924 -0.26439264 0.020689363 -0.20113133 -0.16131362 0.18996522 -0.174901 -0.2887927 0.24127896 0.26543906 0.2371945 -0.23843183 -0.020189323 0.041461106 -0.25656906 0.3019082 -0.4606541 -0.008041678 -0.14378001 0.17302299 0.357177 -0.24632636 0.31175256 0.29720613 -0.1652964 -0.07371953 -0.15876648 0.1954747 0.04822936 -0.25316358 0.03087357 0.29593188 -0.03427883 0.09675943 0.07838771 0.6387478 0.14147492 0.029771447 -0.10819947 0.14951906 -0.14410947 -0.21873602 -0.32930088 0.4811532 -0.11790099 0.13410951 -0.04013086 0.12375362 0.44348213 -0.21929471 0.17164658 -0.6672615 0.45230278 -0.20333749 -0.09159229 0.055045586 0.62743515 0.02937747 0.3521143 -0.18573454 -0.18485445 0.31405488 0.2617289 -0.03278016 0.36088455
small 0.59879273 0.095900364 -0.27381155 0.17172255 0.34771666 0.5503282 0.27752876 -0.08871351 -0.035420835 -0.06289242 0.066340275 -0.4112089 -0.07721167 0.10345761 -0.20383863 0.6784028 -0.25025672 -0.5506659 0.050553426 0.13429281 -0.63679576 0.24197538 0.17902322 -0.52345705 0.022137688 0.4075915 -0.43831682 0.13407212 0.05034029 0.22595412 -0.20723112 0.04124247 0.18560842 0.17199688 0.05289487 -0.019108541 -0.2647342 0.021898586 -0.20579873 -0.15430515 0.1785644 -0.17923512 -0.29345402 0.23410675 0.2738087 0.23902205 -0.22147404 -0.02526684 0.038705725 -0.26127964 0.3035714 -0.4587113 -0.009660229 -0.13953744 0.16578309 0.35236353 -0.23784524 0.3135475 0.28659663 -0.16648908 -0.057578217 -0.1542927 0.18476093 0.045719244 -0.25075424 0.034054723 0.29292402 -0.014165606 0.08731561 0.071202695 0.62770987 0.12147171 0.036409866 -0.10377808 0.15023796 -0.14243792 -0.2311043 -0.31908146 0.4671823 -0.12598602 0.13991 -0.045044806 0.11391325 0.45002818 -0.21909912 0.17656544 -0.6569268 0.44280633 -0.20707954 -0.1044854 0.055898435 0.6399079 0.02880816 0.34998572 -0.16833712 -0.17424689 0.3037398 0.27904963 -0.0370019 0.3620912
lol 0.5243292 0.102350816 -0.2581074 0.1672741 0.29849672 0.4823174 0.2317803 -0.119359545 -0.04687671 -0.062067576 0.095697656 -0.36307168 -0.06422192 0.12836629 -0.17327136 0.5557438 -0.22642817 -0.44135007 0.038748503 0.11532373 -0.5556376 0.20720524 0.182966 -0.42898795 0.001170477 0.36501172 -0.34044185 0.07151512 0.028377438 0.16692117 -0.18370335 0.094252095 0.1533355 0.14749604 0.022074474 -0.026748767 -0.24744686 0.06703985 -0.18585576 -0.15223745 0.17052789 -0.13598497 -0.27550036 0.18524785 0.20798783 0.25195858 -0.20372483 -0.078733526 -0.004515822 -0.2818046 0.2708509 -0.4106235 -0.019444799 -0.07522664 0.12481568 0.28041637 -0.2194349 0.315828 0.25607917 -0.10941988 -0.038732868 -0.14050704 0.158857 0.08085542 -0.18950436 0.041807577 0.29851374 -0.026750525 0.067389995 0.052152015 0.56924033 0.11813302 0.04236481 -0.1114302 0.12441677 -0.093709685 -0.19476506 -0.299907 0.41254076 -0.10810326 0.11625185 -0.03314399 0.06793317 0.3340779 -0.150502 0.15353763 -0.5672895 0.4195799 -0.20437542 -0.09957057 0.072762534 0.55067503 0.09704198 0.2726456 -0.12531635 -0.12551196 0.22394423 0.25676203 -0.03271609 0.29274073
see 0.6529292 0.12458636 -0.3181582 0.20480646 0.3744227 0.5957195 0.29211867 -0.14544876 -0.056978077 -0.079518236 0.11124762 -0.43756804 -0.08140622 0.14804675 -0.21475364 0.6876997 -0.27396956 -0.54097265 0.04758633 0.150985 -0.685648 0.2483982 0.22849722 -0.5247961 -0.00015357297 0.4436312 -0.41766357 0.0906724 0.03258766 0.20577021 -0.21840532 0.12052943 0.19746348 0.1763929 0.038375583 -0.03245519 -0.3039282 0.08362862 -0.22893083 -0.18119293 0.21030118 -0.16248389 -0.33761036 0.22468837 0.252785 0.30744702 -0.25645548 -0.10086129 -0.0067775403 -0.34591392 0.34226578 -0.5058949 -0.018979993 -0.100516506 0.15306203 0.34743485 -0.2737784 0.39402482 0.31044367 -0.13767393 -0.046306744 -0.17700021 0.19528374 0.10110225 -0.2352411 0.042248998 0.3607157 -0.03609941 0.086428694 0.05626918 0.7069567 0.14180233 0.054116063 -0.1293904 0.14843678 -0.114479676 -0.23852111 -0.3674039 0.5129479 -0.14275253 0.14355367 -0.034703765 0.082071766 0.40616873 -0.18632601 0.18424477 -0.70392716 0.52282 -0.25313035 -0.12910481 0.09007546 0.6667988 0.11635273 0.34159988 -0.14406116 -0.15456183 0.2750028 0.31458858 -0.03467098 0.35996822
thought 0.62446946 0.12657717 -0.2990549 0.20256321 0.357724 0.5752766 0.28664088 -0.1449739 -0.0506327 -0.07368737 0.105299875 -0.42451748 -0.07593626 0.15047641 -0.20003879 0.6660827 -0.26348963 -0.52580464 0.048651755 0.14699194 -0.6659129 0.2409733 0.21748523 -0.51242244 -0.0017315737 0.435738 -0.4113462 0.0883343 0.027521785 0.20103846 -0.21474475 0.119797714 0.19174905 0.16687638 0.027012946 -0.0337852 -0.29056147 0.0835627 -0.21441899 -0.17799601 0.20548196 -0.16165677 -0.33267954 0.21819882 0.24173702 0.30190957 -0.24585792 -0.092199504 -0.007862837 -0.32978413 0.3271368 -0.4924419 -0.023798816 -0.09781103 0.14117704 0.3357154 -0.25895137 0.3822 0.29843923 -0.13699327 -0.040392023 -0.16974312 0.18102582 0.09215928 -0.22801358 0.049506027 0.3438716 -0.03915533 0.08778619 0.05996644 0.68242836 0.13154571 0.04488078 -0.13546184 0.14515157 -0.11507328 -0.23425151 -0.35992044 0.4896311 -0.13820037 0.130014 -0.045681115 0.08055842 0.39985648 -0.18446271 0.18689062 -0.6736329 0.5023452 -0.24654362 -0.123870425 0.08661933 0.65211445 0.120691046 0.33697537 -0.142322 -0.14772426 0.2716527 0.30360076 -0.04133148 0.34941396
cant 0.6115845 0.11993996 -0.3002187 0.19249044 0.35753712 0.560065 0.2795711 -0.13708027 -0.049883876 -0.07801636 0.11210004 -0.41856834 -0.0818268 0.14782026 -0.1958658 0.6539737 -0.2662706 -0.50983804 0.052022353 0.13888481 -0.6421539 0.24015915 0.22018953 -0.4973941 0.0003296798 0.41890678 -0.4048738 0.079844065 0.03234728 0.20459865 -0.21438761 0.11339774 0.18526223 0.16436066 0.03074432 -0.035929725 -0.28223184 0.08161095 -0.21861279 -0.1798816 0.20689099 -0.15488392 -0.3201592 0.21575049 0.23399107 0.29261243 -0.24843341 -0.09049145 -0.007978528 -0.33274928 0.32313865 -0.47538698 -0.02257293 -0.09491472 0.14472552 0.32826716 -0.2527053 0.37817764 0.29497188 -0.13012192 -0.03694671 -0.16803728 0.1783945 0.093646795 -0.22341967 0.040011443 0.3424678 -0.034047607 0.08890753 0.058535773 0.67300725 0.13021134 0.04376032 -0.12433929 0.14414907 -0.1131251 -0.2291097 -0.35039568 0.4904032 -0.13463987 0.13316515 -0.03487784 0.080496415 0.39714164 -0.17708993 0.184478 -0.6728526 0.49989566 -0.24398473 -0.124247804 0.08813837 0.63998085 0.119873196 0.32704836 -0.14272715 -0.15079133 0.26226053 0.2937593 -0.042131227 0.3414535
drink 0.5470386 0.110879704 -0.26396406 0.17821042 0.31600118 0.50460696 0.25165892 -0.12315827 -0.052828252 -0.06645392 0.102135874 -0.37761164 -0.07246821 0.13358153 -0.1749625 0.5833642 -0.23084095 -0.46491602 0.047289804 0.12787801 -0.582146 0.21701741 0.18909957 -0.44902715 -0.0067898 0.37709936 -0.35464096 0.07111694 0.03356182 0.1764429 -0.18578252 0.100335985 0.163103 0.15387283 0.03217106 -0.034833785 -0.25650838 0.07265457 -0.18936224 -0.15453573 0.17695245 -0.14086659 -0.2871213 0.19102058 0.2160665 0.26608104 -0.21411557 -0.08854348 -0.0056911684 -0.29848576 0.2908617 -0.4314589 -0.020187834 -0.08562891 0.13318458 0.29196945 -0.22775503 0.33207685 0.26049045 -0.11258689 -0.041058663 -0.15425773 0.16485131 0.084872 -0.19840539 0.036869157 0.30919644 -0.028063202 0.07788705 0.05550353 0.59544826 0.12492129 0.039628793 -0.117885485 0.12624446 -0.09931573 -0.20241624 -0.3112345 0.43879056 -0.119804434 0.11557223 -0.028729709 0.068273164 0.3466365 -0.15473884 0.16452992 -0.59996325 0.44721413 -0.21575457 -0.11174817 0.07184044 0.572098 0.10413221 0.28870997 -0.12532683 -0.13435514 0.23943403 0.26847848 -0.035097748 0.30437657
right 0.6252287 0.12147407 -0.30323753 0.20201184 0.35457993 0.5729278 0.28201085 -0.14232035 -0.055440128 -0.07875491 0.10867224 -0.42776522 -0.07892178 0.14556491 -0.20049067 0.65921456 -0.26798826 -0.525328 0.050257508 0.13927779 -0.65256846 0.24338517 0.21751219 -0.50206006 -0.005060746 0.4245557 -0.40631077 0.09006546 0.030242043 0.20390356 -0.20840925 0.10902578 0.18330808 0.17183813 0.026309427 -0.033165608 -0.2863408 0.077774204 -0.21703322 -0.18110867 0.20318635 -0.16430153 -0.324217 0.22382495 0.2416799 0.2901456 -0.25224203 -0.09379322 -0.0040406315 -0.3361273 0.32091135 -0.4817688 -0.016351743 -0.09624953 0.1409613 0.33925915 -0.25769505 0.38125488 0.29833335 -0.1364411 -0.039517462 -0.1666676 0.18153295 0.0914339 -0.22807652 0.04825716 0.3492017 -0.036787353 0.08202293 0.05342773 0.670963 0.13904653 0.046313003 -0.12676826 0.14978898 -0.11171612 -0.22692096 -0.35125744 0.4910923 -0.13451397 0.1326679 -0.036856826 0.0753707 0.40009034 -0.18162777 0.18693174 -0.6708503 0.5010019 -0.24313192 -0.1217475 0.086713776 0.65138483 0.11500026 0.326564 -0.1406778 -0.15481229 0.2695696 0.29959983 -0.038522173 0.34565315
scene 0.46632093 0.07941148 -0.20216274 0.14176501 0.26757994 0.42845187 0.22750479 -0.07354204 -0.02324289 -0.049125515 0.052234218 -0.32392734 -0.05930707 0.07947558 -0.1512677 0.52316284 -0.20710692 -0.4255878 0.042604677 0.09654234 -0.5100461 0.19371891 0.14311628 -0.41134202 0.015335412 0.31344202 -0.33632836 0.11340194 0.0507414 0.18102744 -0.15697086 0.0345373 0.14455338 0.1415873 0.041689117 -0.032075517 -0.20462649 0.017701458 -0.15050423 -0.13219227 0.14393944 -0.1473684 -0.21679015 0.18663356 0.21812321 0.18869749 -0.17322612 -0.010423754 0.0356146 -0.19822091 0.23165357 -0.35421067 -0.015819475 -0.11511158 0.12992413 0.27118045 -0.18347439 0.23678558 0.217709 -0.12650731 -0.05672325 -0.120571665 0.14517395 0.034956947 -0.18462327 0.030658133 0.23174725 -0.01342962 0.07227121 0.057078086 0.4857463 0.106049806 0.038284965 -0.08127337 0.11016922 -0.108096875 -0.17557186 -0.24316245 0.37463328 -0.09706783 0.118760794 -0.035487 0.095054165 0.35545665 -0.17270567 0.14426419 -0.51949227 0.3485958 -0.15719415 -0.07983532 0.047067415 0.4987512 0.01919659 0.2719595 -0.14409041 -0.14475551 0.24714385 0.21306996 -0.037498478 0.27810264
kobe 0.41975063 0.09525286 -0.21146274 0.13895062 0.250244 0.36315566 0.18735577 -0.098456256 -0.03433225 -0.056042597 0.075007014 -0.27535018 -0.05945677 0.09333994 -0.13644585 0.44013074 -0.18317741 -0.35119802 0.044824388 0.092722625 -0.4309776 0.1647606 0.14800747 -0.33569092 -0.004481695 0.27343327 -0.27024055 0.0543653 0.025785536 0.1463884 -0.14270172 0.071914405 0.12386513 0.10618148 0.029729206 -0.034103468 -0.19386178 0.042640362 -0.14742458 -0.13030359 0.14289923 -0.09355194 -0.207771 0.14452305 0.15588172 0.19174945 -0.17904082 -0.07086538 -0.019593587 -0.21738291 0.21336113 -0.33022782 -0.021195468 -0.061354935 0.090536065 0.21658893 -0.1622752 0.25214592 0.20054707 -0.096388094 -0.013477781 -0.12606676 0.13064483 0.0693547 -0.14767247 0.031454675 0.23932002 -0.01583523 0.041823216 0.021230428 0.45066476 0.08400303 0.029728923 -0.07929846 0.10134742 -0.0681011 -0.15886302 -0.23271292 0.3151476 -0.090964854 0.10012708 -0.014839609 0.052184466 0.26359767 -0.117420845 0.10657248 -0.44954228 0.3418173 -0.17577296 -0.08977222 0.06318842 0.41989616 0.09216609 0.20698173 -0.09976853 -0.10777005 0.16562271 0.21154794 -0.028351746 0.2173617
stop 0.5711541 0.113675915 -0.27152315 0.18186781 0.32588375 0.51417327 0.25368652 -0.1333704 -0.05228949 -0.06649528 0.09771207 -0.39124957 -0.070774585 0.13605548 -0.18313667 0.5986043 -0.23869523 -0.47263888 0.04401895 0.1345674 -0.5992552 0.22181347 0.19707477 -0.4573167 -0.000146001 0.39138508 -0.36360657 0.07836326 0.025317263 0.17890893 -0.1908807 0.09634275 0.16705877 0.15647595 0.030661488 -0.031300824 -0.2681907 0.07193404 -0.19574241 -0.16329549 0.1875297 -0.14293924 -0.29767516 0.20548572 0.21679418 0.27190024 -0.2212376 -0.0867555 -0.0085840365 -0.30142534 0.2954775 -0.43537426 -0.014221808 -0.081608176 0.12687397 0.30977395 -0.23835243 0.33960918 0.2712232 -0.11573402 -0.04090726 -0.15758632 0.17040534 0.0843508 -0.20512684 0.042810973 0.31720245 -0.03489974 0.07669516 0.056216348 0.60906446 0.12515506 0.046736978 -0.11905185 0.13381977 -0.10636129 -0.20201235 -0.32377788 0.4436026 -0.11917711 0.12517895 -0.038876005 0.06581945 0.36445934 -0.16381633 0.16753583 -0.61561555 0.4510614 -0.22416526 -0.11175377 0.07829632 0.58598447 0.10895953 0.29896894 -0.1303536 -0.13870344 0.24370003 0.27183858 -0.038921982 0.31018177
sprite 0.46483046 0.092301 -0.23030138 0.15189345 0.26623824 0.42273647 0.20650052 -0.11012839 -0.040155236 -0.051809818 0.080968395 -0.32269636 -0.061605494 0.10577953 -0.1502949 0.49201852 -0.19596073 -0.38401514 0.029991645 0.10189399 -0.49082926 0.18310048 0.16483751 -0.38056877 -0.0019432099 0.32558987 -0.302974 0.060786117 0.02276843 0.14475402 -0.16052823 0.079862945 0.13424352 0.12468535 0.02886868 -0.023392418 -0.21683623 0.05403339 -0.1658889 -0.13747017 0.15336706 -0.113759525 -0.24620077 0.16655697 0.18206036 0.21974312 -0.18460259 -0.06752078 -0.0027297465 -0.24481332 0.24364378 -0.35898274 -0.014309057 -0.06753758 0.11529487 0.24662745 -0.19215244 0.28079242 0.22376925 -0.10009576 -0.030869825 -0.12198665 0.14081086 0.06623418 -0.17258209 0.038380772 0.26354322 -0.022145921 0.059046283 0.048993904 0.50700164 0.10468922 0.037564673 -0.09426096 0.10514917 -0.08687956 -0.17038302 -0.26324227 0.3658207 -0.103732616 0.099390194 -0.022466568 0.056185372 0.29923066 -0.1379681 0.13608561 -0.49856567 0.37139934 -0.18461157 -0.08922581 0.06944032 0.47935408 0.08341486 0.24272782 -0.10876099 -0.11029572 0.20482436 0.22690386 -0.02967895 0.26082936
sweet 0.42009002 0.08744425 -0.20439045 0.13133696 0.24468772 0.38467526 0.19385114 -0.10603143 -0.036183868 -0.04834954 0.07933391 -0.29393193 -0.055770136 0.09635708 -0.13039255 0.4488289 -0.17779286 -0.3575095 0.03655594 0.1012049 -0.44190967 0.17061345 0.14414759 -0.3379252 -0.0017670257 0.28675556 -0.28175843 0.05418723 0.020629143 0.13301606 -0.14911726 0.06983493 0.12633522 0.117683485 0.013675365 -0.019116981 -0.18655668 0.04798655 -0.14600974 -0.1166362 0.13117456 -0.10963839 -0.22384006 0.15176678 0.16558746 0.20631522 -0.15801331 -0.059652846 -0.004506507 -0.2274727 0.22385423 -0.33204412 -0.01345871 -0.069067776 0.103412874 0.23630445 -0.17600396 0.2541457 0.2045659 -0.097721174 -0.026244277 -0.114911556 0.12587544 0.073890105 -0.15979593 0.024501396 0.2404662 -0.020210488 0.06529951 0.0452367 0.45631197 0.08280949 0.03522469 -0.09336074 0.098449215 -0.07583521 -0.157784 -0.23961547 0.33813006 -0.09922216 0.0829429 -0.028100546 0.05968182 0.270484 -0.11219347 0.12550302 -0.4470899 0.32657292 -0.16924201 -0.08168754 0.062448822 0.44286895 0.08073434 0.23450954 -0.0955947 -0.11113216 0.18219048 0.20927255 -0.017754987 0.236705
put 0.557692 0.10892148 -0.2706035 0.17412597 0.32033223 0.5016786 0.25261027 -0.12165325 -0.048389602 -0.06859576 0.10129667 -0.38128 -0.07550297 0.12981835 -0.17542745 0.5841603 -0.23918088 -0.45607892 0.042817686 0.121269226 -0.5850284 0.2146936 0.19158271 -0.44422343 -0.0036098852 0.37622237 -0.35842836 0.074701644 0.025356244 0.17418209 -0.18352883 0.10551437 0.16068423 0.14536563 0.023535509 -0.027143614 -0.25273478 0.066690005 -0.18804781 -0.16056676 0.17572759 -0.13949418 -0.29051346 0.19795586 0.20831862 0.26681358 -0.22002885 -0.08199171 -0.000924778 -0.29569316 0.29253113 -0.42822018 -0.014004563 -0.08267583 0.12579037 0.29966196 -0.22603104 0.33930624 0.2597567 -0.114867605 -0.035431955 -0.15213074 0.16866277 0.08551337 -0.2044318 0.04283728 0.30908078 -0.030907823 0.07033807 0.055888724 0.5968018 0.11768949 0.04261197 -0.11180304 0.13122557 -0.10277287 -0.20352867 -0.3115828 0.43677297 -0.116668604 0.12010336 -0.03334028 0.07061425 0.34996527 -0.15835054 0.15883136 -0.5985866 0.4373985 -0.2234522 -0.110838644 0.07333193 0.5779414 0.09813519 0.2921645 -0.12605481 -0.13936403 0.23495197 0.26912892 -0.03192477 0.3116977
angel 0.539045 0.09337381 -0.22992474 0.15798452 0.31162313 0.4882008 0.26820603 -0.083766066 -0.03731346 -0.06283357 0.07300259 -0.37239373 -0.055992942 0.10725386 -0.17247939 0.6138199 -0.2320021 -0.49081603 0.037082758 0.11968625 -0.591008 0.21227601 0.16963616 -0.4651449 0.007714028 0.3707005 -0.38534412 0.12367417 0.05360393 0.20199446 -0.1804226 0.041561898 0.16560046 0.15681066 0.039288957 -0.03650628 -0.24430208 0.029393183 -0.18024895 -0.14952336 0.16017671 -0.16137582 -0.25705117 0.21442902 0.24671517 0.21942641 -0.19965923 -0.022872409 0.038075946 -0.23340967 0.2774036 -0.410508 -0.014674017 -0.12769276 0.14124322 0.32226652 -0.21597987 0.28218815 0.25908184 -0.13279156 -0.06899362 -0.13989754 0.16974339 0.040047538 -0.20749642 0.035827935 0.2707397 -0.016907142 0.087847486 0.074534394 0.5702161 0.13039781 0.03767525 -0.09466008 0.12778868 -0.11970385 -0.19156782 -0.29184842 0.4407279 -0.104273714 0.13132596 -0.043489117 0.10877012 0.40217993 -0.18780947 0.16272323 -0.60152334 0.40476477 -0.17950429 -0.0888149 0.05482896 0.56875706 0.032315206 0.31443372 -0.16687629 -0.16044636 0.27922884 0.23836026 -0.03685671 0.32613525
sip 0.41040888 0.08264133 -0.20474032 0.13460703 0.23358476 0.37740782 0.18723153 -0.08304143 -0.037081666 -0.048728023 0.069722235 -0.27473542 -0.060984913 0.094147205 -0.12670466 0.4231959 -0.17819509 -0.33990058 0.027163064 0.09830908 -0.43651134 0.1576653 0.14412774 -0.33453545 -0.0022903823 0.27684242 -0.25695756 0.055015836 0.030179475 0.13894592 -0.13894324 0.068055905 0.118958175 0.105779715 0.025395285 -0.01646926 -0.19271319 0.05652538 -0.1458034 -0.1111246 0.13665827 -0.09555873 -0.22227268 0.13988273 0.1585839 0.18896535 -0.15711856 -0.0564729 -0.009303857 -0.21446852 0.20798013 -0.3163091 -0.019746702 -0.05492701 0.08967519 0.21682021 -0.16817366 0.25457558 0.19042692 -0.078474045 -0.033331264 -0.112585045 0.12483687 0.055015035 -0.15378173 0.022208365 0.22181664 -0.027213858 0.052330565 0.031940036 0.4480896 0.09244641 0.035165448 -0.0763385 0.10110844 -0.07919831 -0.1585243 -0.23854196 0.31934768 -0.08077288 0.097763054 -0.027049936 0.052663203 0.25271064 -0.12555759 0.114708245 -0.4422111 0.32366508 -0.1699708 -0.081067234 0.061348654 0.42954275 0.08252641 0.21001494 -0.092621475 -0.10808329 0.17548136 0.19375677 -0.02826044 0.22206202
benz 0.45931372 0.07588917 -0.17345402 0.14094307 0.22339612 0.40304908 0.19702572 -0.06087244 -0.038698737 -0.0051330053 0.028681362 -0.22567593 -0.013396542 0.1015139 -0.15566732 0.45988715 -0.16781457 -0.30613458 0.09720754 0.1275337 -0.4703644 0.14012343 0.13955195 -0.3863428 -0.015513015 0.36156487 -0.20418221 0.0732315 -0.027870027 0.14593245 -0.08247618 0.11517917 0.14561272 0.14432003 -0.044483535 -0.052250292 -0.19633904 0.069432355 -0.13804446 -0.10581413 0.08947339 -0.11252128 -0.3002021 0.16221032 0.18163085 0.2489702 -0.15152179 -0.09681628 0.0012858596 -0.2466427 0.21710251 -0.26595408 -0.016892808 -0.06624981 0.049055245 0.2474654 -0.2089954 0.22183664 0.17340188 -0.03438023 -0.034595426 -0.09642317 0.12150477 0.045141153 -0.11826086 0.04819033 0.28251436 -0.06348665 0.0036925357 0.07718766 0.402357 0.11636603 0.005250871 -0.07941117 0.07501126 -0.06469139 -0.113440745 -0.30146047 0.31489065 -0.059712358 0.056959596 -0.04940577 0.018912364 0.24673605 -0.108106025 0.09986083 -0.45310584 0.33547586 -0.1414656 -0.07977209 0.08500695 0.44978327 0.11557956 0.26333132 -0.033281025 -0.14779085 0.18584299 0.26925185 -0.1023709 0.22915599
bitch 0.51131326 0.10190196 -0.24143681 0.16676272 0.28824037 0.46947715 0.2320699 -0.10847962 -0.042140536 -0.06349922 0.086355425 -0.34933338 -0.06480063 0.1239581 -0.16019206 0.5347503 -0.22080244 -0.4264779 0.037588492 0.121550255 -0.536524 0.20025764 0.17662176 -0.41240075 -0.010060272 0.3524198 -0.33715165 0.072701685 0.032575555 0.16946566 -0.17093587 0.091892056 0.15490086 0.1358924 0.02935444 -0.02219802 -0.23538706 0.06405129 -0.17635824 -0.14560345 0.1662054 -0.13348016 -0.2684154 0.17450759 0.19307846 0.23949985 -0.20425427 -0.07373762 -0.003176604 -0.2700345 0.2642894 -0.39610854 -0.02256634 -0.08072124 0.11521149 0.27530146 -0.20875807 0.30349752 0.23919865 -0.10646758 -0.030111477 -0.13776368 0.15191263 0.0805043 -0.19069397 0.042644974 0.27817425 -0.024308903 0.07020521 0.048175305 0.5534474 0.11810208 0.0368487 -0.10256076 0.11421905 -0.09854443 -0.19057508 -0.295721 0.40108204 -0.11335843 0.10974158 -0.030193264 0.06473012 0.3253315 -0.1449074 0.15671273 -0.555043 0.40378565 -0.19722158 -0.098148905 0.074803464 0.5305085 0.09835677 0.2689969 -0.12173309 -0.12640895 0.21807854 0.24964422 -0.026911724 0.28625563
23 0.7365913 0.1563729 -0.3708786 0.2575999 0.41849917 0.6974461 0.32056516 -0.18174587 -0.055019587 -0.078853264 0.12606108 -0.53210855 -0.10940836 0.1819034 -0.2565567 0.79759866 -0.32698745 -0.6076552 0.058111962 0.17644897 -0.7695645 0.29919434 0.2548913 -0.59447384 -0.009726374 0.50932896 -0.4777979 0.10516476 0.028971456 0.22509183 -0.25818056 0.15726547 0.22214058 0.1891338 0.047778744 -0.040030718 -0.36570826 0.07802459 -0.2543293 -0.1873928 0.271937 -0.2163886 -0.3860265 0.2559352 0.30125126 0.35335797 -0.30703115 -0.13971351 -0.012048544 -0.40387407 0.3891016 -0.5819177 -0.014971697 -0.11751767 0.18571913 0.40108603 -0.3076136 0.44578254 0.34553888 -0.1598003 -0.040261116 -0.18477084 0.2258567 0.1117007 -0.27606013 0.04383113 0.38846168 -0.035305128 0.11627896 0.07966118 0.80974936 0.15252085 0.06639153 -0.16470982 0.16871211 -0.1523517 -0.28117087 -0.4241291 0.5827418 -0.17688172 0.17367144 -0.02452285 0.10861234 0.4540245 -0.21995944 0.20840885 -0.7958005 0.57800657 -0.30472153 -0.14062485 0.124740504 0.7591454 0.13912204 0.39594084 -0.18349735 -0.16217363 0.33361554 0.33815077 -0.029033897 0.42431667
hit 0.51428825 0.09627156 -0.1547959 0.102352425 0.29571196 0.44418806 0.19668 -0.04395228 -0.049660362 -0.05340137 0.0904333 -0.35026094 -0.06263788 0.09355718 -0.1442718 0.493553 -0.18415894 -0.39585087 0.025097132 0.1559803 -0.521787 0.17131631 0.13753653 -0.38771158 -0.021044282 0.37205923 -0.33803472 0.11194457 0.07054326 0.16116175 -0.15255913 0.059939995 0.15217367 0.15354791 0.011038897 -0.002559056 -0.20246544 0.061274886 -0.17510216 -0.16201591 0.13377891 -0.12049392 -0.22171406 0.15521412 0.18081674 0.20160525 -0.14964302 -0.09180372 0.013033612 -0.23865646 0.21807033 -0.30689287 -0.06582843 -0.092446804 0.13253897 0.2961735 -0.2187199 0.24680874 0.20441672 -0.05563385 -0.06499108 -0.121317945 0.13665141 0.0871896 -0.18700865 0.07935583 0.19849879 0.015538408 0.06311166 0.06109122 0.53042525 0.13290203 0.03652287 -0.12198049 0.12217376 -0.11965926 -0.15883857 -0.25094083 0.36432582 -0.0852317 0.08905047 -0.039977554 0.08393173 0.30616137 -0.19499014 0.20153278 -0.5129056 0.3564125 -0.20383461 -0.07254874 0.034065604 0.51259065 0.10406465 0.206738 -0.1029802 -0.11053735 0.20511326 0.20642923 -0.06723604 0.24142504
work 0.5703765 0.10663935 -0.27834707 0.18138498 0.3291099 0.5229905 0.25595838 -0.13238002 -0.047912125 -0.06732146 0.10189169 -0.39159298 -0.072644256 0.1295836 -0.18122542 0.6026682 -0.24560474 -0.4716924 0.04947132 0.13389827 -0.59846854 0.2159934 0.20217684 -0.46199805 -0.005543518 0.39468136 -0.36623287 0.07879914 0.033673838 0.18420158 -0.19418836 0.103328146 0.16609779 0.15686302 0.024622036 -0.028694285 -0.26113328 0.075203486 -0.19508338 -0.16254056 0.18656184 -0.14899854 -0.29802626 0.20467092 0.22410432 0.27489632 -0.22679459 -0.0891841 0.0006839334 -0.30756372 0.29733 -0.44316292 -0.024118336 -0.09070347 0.13458632 0.30608615 -0.23627992 0.34378633 0.2716528 -0.12367119 -0.041386224 -0.1586583 0.16883779 0.08982805 -0.2127906 0.046264444 0.3170108 -0.028835801 0.07339088 0.05421907 0.6192516 0.120424494 0.047254838 -0.11748248 0.1365486 -0.10623148 -0.20482999 -0.31978917 0.45164648 -0.12489196 0.12529305 -0.035319053 0.07394969 0.36645478 -0.16466166 0.16632645 -0.6205926 0.4608079 -0.22450593 -0.11362866 0.08272959 0.5929046 0.100519985 0.302404 -0.13167046 -0.1428328 0.24338886 0.28115594 -0.03591798 0.3169755
make 0.6259722 0.119821675 -0.30508968 0.19686493 0.3564736 0.5678447 0.28042227 -0.13972753 -0.052663058 -0.07724749 0.11106784 -0.4237803 -0.08368527 0.14457482 -0.2029347 0.6554734 -0.26122978 -0.5223099 0.0434241 0.14410785 -0.6499916 0.23993565 0.21735173 -0.5043159 -0.0057013463 0.43111825 -0.4045301 0.08886296 0.03664141 0.19874106 -0.21077588 0.11399376 0.18809853 0.16583325 0.029513136 -0.03641558 -0.28274277 0.077812985 -0.21897578 -0.17962672 0.20268561 -0.15760167 -0.32621634 0.21766135 0.24466367 0.2947144 -0.2508871 -0.093902744 -0.0055482723 -0.32929525 0.32097223 -0.48756132 -0.023339346 -0.09686168 0.14566864 0.3314544 -0.2560632 0.38135818 0.30208313 -0.13696417 -0.044332173 -0.16958146 0.18601687 0.0892076 -0.22306027 0.047885038 0.34632477 -0.03255377 0.08056582 0.057094485 0.67262286 0.13356125 0.054846514 -0.13233615 0.1467031 -0.11201976 -0.23141499 -0.35984218 0.49222255 -0.13584207 0.13347812 -0.036426723 0.079589285 0.3923842 -0.18210185 0.18818542 -0.67740273 0.5007405 -0.24967904 -0.117758766 0.08373667 0.6474804 0.11707911 0.33074626 -0.14239743 -0.14708862 0.26456502 0.3017357 -0.035285126 0.3504762
kidneys 0.24177998 0.049625847 -0.07796709 0.04683732 0.14488101 0.22423492 0.102462776 -0.022479348 -0.025279138 -0.030101039 0.044174124 -0.17853467 -0.027978703 0.055058047 -0.06997481 0.25080463 -0.08869578 -0.1940567 0.005628236 0.078843765 -0.25711948 0.083775796 0.07250421 -0.19008629 -6.2748186e-05 0.18719338 -0.17003962 0.057458736 0.038491298 0.074962094 -0.07683414 0.029446298 0.078842305 0.07424333 0.010624616 -0.00756161 -0.09232138 0.027794449 -0.08829985 -0.07904629 0.071658075 -0.06543842 -0.10695065 0.08798743 0.08031599 0.09475612 -0.07224626 -0.04192537 0.0077058617 -0.11769106 0.10995664 -0.16347682 -0.037659775 -0.045759354 0.06665744 0.14776531 -0.10708854 0.12885638 0.1080497 -0.031146528 -0.024456713 -0.063411415 0.059389636 0.046871793 -0.09192206 0.036540944 0.103192784 0.014213771 0.036674537 0.027462233 0.26555628 0.055993445 0.01609494 -0.0563058 0.057981133 -0.06293534 -0.085755244 -0.11766931 0.18621053 -0.03894103 0.046829436 -0.021444216 0.04762252 0.15362526 -0.09519778 0.095691845 -0.2503741 0.18420531 -0.096103586 -0.043970805 0.016900819 0.24932596 0.04297672 0.108125806 -0.054985903 -0.0600041 0.110466264 0.09869348 -0.027561229 0.11319054
clique 0.72122794 0.19152635 -0.34907773 0.2542232 0.45419198 0.53019744 0.33631408 -0.17257991 -0.06723245 -0.14873804 0.12285354 -0.43830153 -0.13610254 0.11259944 -0.20539033 0.69121224 -0.32361272 -0.57400364 0.12527052 0.12430697 -0.63167924 0.27223042 0.26363766 -0.55479205 0.027699115 0.35196942 -0.41548118 0.088255644 0.04752311 0.26900214 -0.2780232 0.08195451 0.17737095 0.18066439 0.099368155 -0.0924613 -0.33141237 0.019636221 -0.21982731 -0.26957992 0.2735081 -0.096812926 -0.29911923 0.20295174 0.22864503 0.31395385 -0.3585957 -0.12738954 -0.10670584 -0.34241262 0.3668124 -0.59569883 -0.04402854 -0.09962651 0.091011114 0.3245429 -0.24176617 0.41366518 0.34117466 -0.17336814 0.03467016 -0.23423149 0.22075154 0.15348983 -0.19587517 0.033622578 0.3807548 0.015376939 0.018041855 -0.018436184 0.712717 0.112932645 0.060339104 -0.05651891 0.2078186 -0.07263958 -0.28669778 -0.30753574 0.469541 -0.14225869 0.2384128 0.011292064 0.06001107 0.39775625 -0.19725071 0.10371006 -0.7452548 0.55724514 -0.32545653 -0.2119345 0.103423774 0.63407654 0.23541166 0.27491382 -0.14706863 -0.19060043 0.20063117 0.37360168 -0.023523593 0.27508157
banned 0.5385789 0.10547429 -0.2665232 0.17165735 0.31178334 0.5018722 0.24360807 -0.11842624 -0.048018817 -0.06216419 0.0929901 -0.3686697 -0.069482274 0.1292787 -0.17587893 0.57898474 -0.22772245 -0.45856816 0.047571592 0.12208214 -0.568558 0.21569394 0.19262847 -0.4327502 -0.003881588 0.37023714 -0.35444465 0.07606971 0.029182661 0.17186049 -0.18535367 0.09378981 0.15864822 0.14204718 0.029018689 -0.0255667 -0.25809932 0.071514234 -0.1827935 -0.15579891 0.1742513 -0.14702545 -0.284623 0.19207984 0.21213922 0.25668034 -0.21211152 -0.09029957 -0.0036466387 -0.2913896 0.27743745 -0.42875138 -0.017318368 -0.08371849 0.123945735 0.2947891 -0.2242156 0.3275802 0.2546952 -0.1177714 -0.034582127 -0.14494349 0.15825343 0.07795062 -0.19789708 0.036466677 0.30280322 -0.02234824 0.073904164 0.045017436 0.5862739 0.1122019 0.04648252 -0.10981453 0.1332131 -0.10095746 -0.19407566 -0.30905694 0.43213764 -0.120699085 0.11097347 -0.041635234 0.06696088 0.34166402 -0.15489668 0.15042558 -0.5884778 0.43861634 -0.20838498 -0.108607896 0.07269157 0.5593902 0.10012201 0.28476357 -0.12266207 -0.12641667 0.23064867 0.26699743 -0.028563293 0.29358956
day 0.67022413 0.13227168 -0.32545683 0.21198387 0.3818856 0.6109909 0.2957936 -0.15544519 -0.06406149 -0.08471924 0.11950453 -0.45598146 -0.092859626 0.15600385 -0.21343476 0.7107836 -0.2805944 -0.55928963 0.05528304 0.15573253 -0.70651436 0.26271847 0.23905618 -0.5374012 -0.0006130399 0.4586295 -0.43533257 0.09386111 0.036867317 0.21976416 -0.22741677 0.12186006 0.20284352 0.18027954 0.032489844 -0.037971754 -0.31139082 0.08751296 -0.23075977 -0.1924045 0.22054398 -0.1770047 -0.3547998 0.235518 0.25922784 0.3134297 -0.26589876 -0.10050271 -0.0010677448 -0.35344893 0.34639436 -0.5173472 -0.020671638 -0.098315634 0.15900442 0.35555598 -0.27686355 0.40293488 0.32281035 -0.13749991 -0.047187325 -0.18121822 0.19856057 0.098759316 -0.24547409 0.049101636 0.37239403 -0.031660255 0.091249585 0.066509366 0.7239193 0.14327994 0.05248693 -0.1366573 0.15830375 -0.12787284 -0.247731 -0.38452062 0.53235316 -0.14085346 0.14611258 -0.039509684 0.08802059 0.4296836 -0.19247621 0.19600573 -0.72956586 0.5338341 -0.26520348 -0.12884723 0.091191694 0.6987461 0.12961473 0.3486997 -0.15068528 -0.15931533 0.2814748 0.3243869 -0.037955765 0.36820763
cause 0.5528944 0.10632219 -0.27413812 0.18618202 0.3094447 0.5052399 0.2459408 -0.12617993 -0.0422181 -0.064808816 0.09803118 -0.3927889 -0.07702323 0.13794537 -0.18487017 0.5854571 -0.24495196 -0.46109027 0.038562868 0.12773298 -0.5759466 0.2204636 0.19247691 -0.44805348 0.0003418398 0.38292992 -0.35690325 0.07904292 0.024904551 0.17077999 -0.1883736 0.1129567 0.16453087 0.14738563 0.027685348 -0.03189474 -0.26697978 0.05925734 -0.18871143 -0.14206816 0.19421372 -0.14940408 -0.28530112 0.19490157 0.21618187 0.26507744 -0.22291596 -0.09302754 -0.0015190291 -0.2930835 0.28444603 -0.43267933 -0.013050873 -0.08304786 0.13630061 0.30048373 -0.22500834 0.3358223 0.25713098 -0.1264315 -0.03170485 -0.13921703 0.16815016 0.087059185 -0.19723362 0.041183762 0.29777604 -0.029579522 0.07855313 0.062081803 0.6071864 0.11551947 0.04033118 -0.1133047 0.12293861 -0.10858542 -0.20244588 -0.30986112 0.43814462 -0.12441636 0.11965349 -0.020277116 0.0797228 0.3403161 -0.15543997 0.16353291 -0.6003252 0.43824142 -0.21632755 -0.10967127 0.08616162 0.5676596 0.10501555 0.29306334 -0.13584243 -0.129044 0.23977153 0.26162893 -0.021243779 0.31441054
000 0.70436007 0.14773604 -0.34772962 0.25353926 0.39998513 0.6570032 0.31209782 -0.1726193 -0.04870674 -0.07010056 0.1344166 -0.5093771 -0.097630106 0.16999589 -0.24934964 0.76946574 -0.31553248 -0.59087443 0.06430617 0.17111239 -0.7346955 0.2800159 0.24329095 -0.56927276 -0.012337527 0.47928128 -0.4475575 0.09175508 0.03306791 0.21082355 -0.24903494 0.15253547 0.19896457 0.18210371 0.0416363 -0.027173596 -0.35679924 0.07448848 -0.24201162 -0.17377247 0.25904056 -0.20339322 -0.36419806 0.25804922 0.2794534 0.34747532 -0.29274103 -0.13110806 -0.013454598 -0.38954446 0.37545422 -0.5469797 -0.024319602 -0.109358914 0.17163604 0.3756307 -0.28201202 0.44115615 0.3280071 -0.15592209 -0.04898824 -0.1749149 0.21538723 0.104197934 -0.26129112 0.04604866 0.37593073 -0.029715985 0.102245614 0.086097755 0.77782816 0.15082946 0.053380102 -0.15951677 0.1502365 -0.14614856 -0.27285653 -0.4017936 0.5507504 -0.1719674 0.16470985 -0.022944327 0.108788826 0.43704617 -0.21034461 0.200651 -0.7620365 0.5550566 -0.29359263 -0.121135235 0.10964947 0.73727524 0.14066416 0.377263 -0.16756386 -0.16939954 0.30901393 0.3285657 -0.018101433 0.39976832
